svm_type nu_svc
kernel_type precomputed
nr_class 3
total_sv 7
rho -0.042264 -0.50272 -0.519936
label 2 4 10
nr_sv 2 2 3
SV
1.114248640387653e-05 5.739970278370464e-06 0:1 
4.241973996197661e-06 2.340905613892282e-06 0:2 
-1.245513695561497e-05 6.832730030662834e-06 0:3 
-2.929323444459217e-06 1.912034113455425e-06 0:4 
-3.307935247846761e-06 -3.857116441322005e-06 0:5 
-2.310121370896849e-06 -2.403727787414386e-06 0:6 
-2.462819273519136e-06 -2.483919915381869e-06 0:7 
