svm_type nu_svc
kernel_type precomputed
nr_class 52
total_sv 1300
rho -0.566226 -0.510859 -0.311607 -0.448403 -0.558587 -0.24824 -0.641931 -0.633317 -0.154908 -0.289626 -0.160741 -0.0172575 -0.459537 -0.544722 -0.459604 -0.501328 -0.480134 -0.546308 -0.399833 -0.538333 -0.476307 -0.288894 -0.354539 -0.344583 -0.543768 -0.265934 -0.281673 -0.478965 -0.413208 -0.28755 -0.42247 -0.347262 -0.428862 -0.343606 -0.21505 -0.129314 -0.193731 -0.213177 -0.801835 -0.71538 -0.846486 -0.630837 -0.682723 -0.743998 -0.524304 -0.66232 -0.910319 -0.394255 -0.471408 -0.565991 -0.708019 0.0697426 0.226249 0.0485014 -0.140382 0.154811 0.00873162 -0.230568 0.0899759 0.184139 0.407794 0.427865 0.0404489 -0.397215 -0.203714 -0.124766 -0.184008 -0.296486 -0.12829 -0.225951 -0.196302 -0.0439577 -0.021452 0.0315356 -0.13623 0.354439 0.261935 -0.120633 0.121607 0.104836 -0.111128 0.0826575 0.0754527 0.0912941 0.0126145 0.233264 0.149744 0.299556 0.0260485 -0.769524 -0.653377 -0.171348 -0.391483 -0.644846 -0.108816 -0.370765 -0.730842 -0.0754387 -0.0493998 -0.0369192 -0.27227 0.197926 0.01431 -0.302919 0.104734 -0.0916681 -0.195362 0.0887945 0.16018 0.409773 0.395467 0.00526339 -0.331799 -0.313863 -0.146338 -0.284109 -0.380282 -0.174401 -0.289722 -0.254365 -0.0773044 -0.0570888 -0.00916271 -0.15522 0.276489 0.184764 -0.224105 0.0945808 0.0689889 -0.169777 0.0643767 0.0322933 0.0377143 0.00281799 0.21334 0.116413 0.292205 0.00185422 -0.485529 -1.25654 -0.209133 -0.561668 -0.741516 -0.155351 -0.381604 -0.740982 -0.0952999 -0.0668178 -0.047117 -0.309965 -0.214547 -0.268239 -0.0599689 -0.263784 -0.367131 -0.00140515 -0.0281842 0.172001 0.150537 -0.115355 -0.349256 -0.275266 -0.37822 -0.263714 -0.338053 -0.228421 -0.334691 -0.290758 -0.148599 -0.166564 -0.142834 -0.224865 0.0813142 -0.00626552 -0.260944 -0.159355 -0.074655 -0.224382 -0.0878605 -0.158987 -0.118299 -0.0783592 0.0877338 -0.00614403 0.0963482 -0.172123 -0.476701 -0.571423 -0.654587 -0.462152 -0.511995 -0.246092 -0.426363 -0.62663 -0.200764 -0.214013 -0.242843 -0.344771 -0.299372 0.0677656 -0.0636418 -0.230262 0.0695259 0.184595 0.39152 0.328664 -0.0185592 -0.245064 -0.250752 -0.1371 -0.316034 -0.33445 -0.161823 -0.249727 -0.22537 -0.0766015 -0.0590568 -0.0309271 -0.13735 0.245653 0.124044 -0.166395 0.112571 0.0658355 -0.157658 0.0273192 0.0296711 0.0571421 -0.014941 0.2106 0.114808 0.242834 -0.011938 -0.389239 -0.714911 -0.174671 -0.690491 -0.623112 -0.141377 -0.348069 -0.60193 -0.112476 -0.105864 -0.0857598 -0.28764 0.16443 0.12351 0.0442592 0.17446 0.221305 0.496834 0.52155 0.0774391 -0.225504 -0.114844 -0.0742302 -0.191133 -0.374748 -0.0965826 -0.164969 -0.167082 -0.0510685 0.012039 0.0429153 -0.113689 0.305676 0.371635 0.0476748 0.186258 0.290426 0.0843023 0.173031 0.263469 0.126435 0.0295585 0.291637 0.160235 0.408859 0.0795409 -0.229124 -0.558689 -0.0607338 -0.487345 -0.667166 -0.0480535 -0.185845 -0.493791 -0.0673798 0.0238914 0.0268518 -0.22497 -0.139355 -0.189563 0.0660627 0.0158675 0.171565 0.268596 -0.0480306 -0.276397 -0.209514 -0.13941 -0.201209 -0.281779 -0.329165 -0.233857 -0.19843 -0.11694 -0.0885158 -0.0665803 -0.21562 0.118002 0.0358177 -0.176803 -0.00663439 -0.00885701 -0.161191 -0.108941 -0.0989114 -0.0441839 -0.0323928 0.122535 0.0377053 0.172685 -0.0611614 -0.363155 -0.458156 -0.202862 -0.369017 -0.445297 -0.39152 -0.285409 -0.407562 -0.149129 -0.134541 -0.0978934 -0.336356 -0.215651 0.116308 0.184645 0.50825 0.501084 0.0391746 -0.257713 -0.213037 -0.115606 -0.233283 -0.366311 -0.1312 -0.281963 -0.210061 -0.0546855 -0.0238385 0.0205699 -0.142591 0.328951 0.261172 -0.126294 0.132411 0.140401 -0.141879 0.0960541 0.117644 0.121767 0.013854 0.271336 0.167915 0.320789 0.0410602 -0.430639 -0.733083 -0.210873 -0.544148 -0.754247 -0.0910675 -0.450575 -0.681454 -0.0889137 -0.0375329 -0.0184592 -0.24945 0.122772 0.292508 0.68493 0.457467 0.111189 -0.181274 -0.0811799 -0.0503369 -0.108845 -0.201263 -0.0517588 -0.138036 -0.176634 -0.0128808 0.0463335 0.110726 -0.0459585 0.410796 0.310184 0.0560104 0.227377 0.211117 0.0444071 0.147987 0.233127 0.290555 0.0559306 0.333533 0.274855 0.38624 0.126578 -0.321131 -0.508662 -0.0878439 -0.357637 -0.487702 -0.00477413 -0.209472 -0.942776 -0.0393161 0.0279081 0.0608794 -0.153001 -0.0138698 0.136615 0.117632 -0.0902487 -0.182359 -0.141099 -0.140444 -0.167732 -0.236645 -0.177334 -0.159119 -0.184724 -0.435604 -0.127089 -0.113893 -0.221487 0.0388635 -0.0181855 -0.0978 -0.0417287 -0.0406034 -0.108316 -0.0804926 -0.0781235 -0.070684 -0.352736 0.0506379 0.00664704 0.0350803 -0.135553 -0.194105 -0.250871 -0.153982 -0.287115 -0.270784 -0.172688 -0.184202 -0.276868 -0.800289 -0.169057 -0.201742 -0.257552 0.222242 0.173398 -0.105758 -0.246652 -0.245662 -0.21017 -0.257944 -0.284946 -0.190408 -0.251541 -0.233563 -0.159669 -0.197218 -0.133271 -0.206654 0.111359 -0.015876 -0.254189 -0.0623671 -0.100394 -0.210091 -0.0692987 -0.143125 -0.0732817 -0.0907307 0.130332 0.0351469 0.0819201 -0.140827 -0.379267 -0.504195 -0.340768 -0.479566 -0.451471 -0.219084 -0.370066 -0.539253 -0.257271 -0.522388 -0.26466 -0.309493 0.0507908 -0.300927 -0.477106 -0.41504 -0.385763 -0.446422 -0.526166 -0.344689 -0.478755 -0.465373 -0.298546 -0.389385 -0.482857 -0.410595 -0.0760413 -0.193623 -0.411794 -0.304207 -0.257783 -0.386674 -0.239501 -0.355677 -0.294788 -0.204444 -0.0689902 -0.149015 -0.0774525 -0.407737 -0.60229 -0.76299 -0.53874 -0.726623 -0.698488 -0.409974 -0.598332 -0.899447 -0.415628 -0.487278 -1.01764 -0.544274 -0.31909 -0.438408 -0.438421 -0.312114 -0.468754 -0.539779 -0.402547 -0.459964 -0.383674 -0.282351 -0.262553 -0.270519 -0.735775 -0.141976 -0.209193 -0.47919 -0.246663 -0.256682 -0.50249 -0.331486 -0.381027 -0.269146 -0.206858 -0.068748 -0.144249 -0.228469 -0.479036 -0.643889 -0.761763 -0.461077 -0.703888 -0.817481 -0.476025 -0.601374 -0.694108 -0.378037 -0.361607 -0.391684 -1.52896 -0.313137 -0.266142 -0.243647 -0.233146 -0.395794 -0.198591 -0.340267 -0.290894 -0.094414 -0.0704292 -0.0073079 -0.225389 0.442466 0.0983063 -0.111169 0.0614013 0.0629556 -0.108391 0.0374238 0.00023116 0.0102732 -0.0107243 0.154587 0.126763 0.228285 0.0206623 -0.281156 -0.35464 -0.186548 -0.281022 -0.373091 -0.0951589 -0.217613 -0.411686 -0.122443 -0.059117 -0.0545391 -0.252086 0.118216 0.0462597 -0.00715861 -0.0941678 0.0482301 0.128652 0.040488 0.0334857 0.196513 0.254252 0.0755573 0.442169 0.771864 0.204206 0.348975 0.340546 0.188924 0.346707 0.374694 0.358949 0.0873935 0.344115 0.258537 0.460405 0.198626 -0.00374708 -0.207954 0.0582535 -0.123231 -0.185354 0.136762 0.0506518 -0.203001 0.0224642 0.137809 0.171461 -0.00163724 -0.0031099 -0.103223 -0.348594 0.000885336 -0.089081 -0.16053 0.015331 0.141962 0.199348 0.0261214 0.396057 0.370284 0.181173 0.30365 0.304788 0.158401 0.249603 0.345019 0.262631 0.06586 0.310884 0.232435 0.424557 0.155664 -0.132906 -0.388038 0.0126404 -0.210461 -0.318076 0.0803643 -0.0277943 -0.345854 -0.00628685 0.0986289 0.114208 -0.0583755 -0.0331517 -0.118699 -0.0148979 -0.0142742 -0.0166915 0.0111096 0.168285 0.186015 -0.0307301 0.336978 0.256311 0.0616576 0.366832 0.182031 0.0631175 0.174915 0.156808 0.180057 0.0498641 0.288723 0.222911 0.291025 0.153045 -0.108386 -0.21364 0.0419303 -0.161473 -0.186343 0.0432446 -0.0387289 -0.229999 -0.021555 0.0823846 0.0732186 -0.0645637 -0.151303 0.0189412 0.0275182 -0.0335036 0.0307236 0.124962 0.216528 0.0462144 0.363046 0.342595 0.150546 0.264003 0.389537 0.196374 0.239951 0.288831 0.297562 0.0800051 0.304069 0.278052 0.406759 0.172761 -0.0880374 -0.235986 0.0186281 -0.234291 -0.228363 0.0950644 -0.00422279 -0.250477 0.00530663 0.116017 0.117584 -0.0244665 0.112392 0.398164 0.200319 0.0762775 0.231528 0.316392 0.125251 0.429738 0.554179 0.262072 0.347162 0.532889 0.388782 0.348861 0.497315 0.398353 0.116382 0.385742 0.301523 0.543853 0.251799 0.0143696 -0.122831 0.0954816 -0.117513 -0.189556 0.163023 0.130933 -0.168798 0.049403 0.162707 0.204825 0.0280254 -0.0218115 -0.0295448 0.0171643 0.110313 0.140012 -1.65202e-05 0.335558 0.290089 0.0779341 0.21891 0.235622 0.0826056 0.382792 0.177652 0.182403 0.0757546 0.282526 0.217728 0.383086 0.139273 -0.0956871 -0.175887 0.00327658 -0.128521 -0.200481 0.106109 -0.039604 -0.197142 -0.00911221 0.0673266 0.0848182 -0.0731035 -0.138237 0.0196034 0.177473 0.277394 0.03758 0.439404 0.43881 0.165952 0.330406 0.321675 0.193383 0.26873 0.42111 0.304644 0.072469 0.349472 0.28568 0.454652 0.188604 -0.114937 -0.324165 0.0278468 -0.20459 -0.329143 0.0912886 -0.0168199 -0.360334 -0.00974417 0.104774 0.126441 -0.0500605 0.0107425 0.195454 0.277418 0.0071113 0.33917 0.439849 0.150354 0.304086 0.347026 0.156678 0.241552 0.300895 0.372101 0.0688575 0.334203 0.271983 0.39556 0.171011 -0.0230346 -0.172471 0.0746382 -0.189804 -0.187502 0.0720133 0.0273286 -0.179512 -0.0088472 0.120184 0.158592 -0.0255386 0.059763 0.138884 -0.0188622 0.208272 0.135033 0.0254424 0.111534 0.14429 0.0267953 0.125278 0.082072 0.0951692 0.2881 0.242449 0.225787 0.232576 0.0917919 -0.0602584 -0.0853733 -0.0136721 -0.105627 -0.114102 0.0256071 -0.0339434 -0.120324 -0.0735263 0.0286644 0.0620522 -0.0659935 0.120387 -0.106883 0.253387 0.152423 -0.0375581 0.131068 0.111222 -0.036215 0.102738 0.0678945 0.0662154 0.0212605 0.435978 0.202605 0.245118 0.0502019 -0.203683 -0.314573 -0.123933 -0.235772 -0.291023 -0.0534735 -0.153853 -0.329556 -0.0968883 -0.027909 0.0128082 -0.15187 -0.166717 0.247768 0.11239 -0.0762923 0.064587 0.104436 -0.065121 0.0677806 0.0197866 0.0430764 0.0102281 0.236614 0.349921 0.219558 0.0172768 -0.250748 -0.322149 -0.174282 -0.297011 -0.316424 -0.0598594 -0.191973 -0.403841 -0.149872 -0.080307 -0.0506217 -0.186663 0.399994 0.300135 0.0766651 0.215045 0.240236 0.0837713 0.27246 0.182607 0.170722 0.0812899 0.288898 0.230264 0.606985 0.204011 -0.0805819 -0.17016 0.0024182 -0.154011 -0.19349 0.094896 -0.0325535 -0.21559 -0.0154008 0.0803382 0.0968785 -0.0720835 -0.149348 -0.432114 -0.317701 -0.15182 -0.38371 -0.281859 -0.371398 -0.205676 -0.137942 -0.026517 -0.0795551 -0.0986875 -0.409816 -0.611324 -0.641162 -0.52676 -0.529633 -0.665222 -0.366302 -0.540762 -0.728433 -0.289738 -0.342631 -0.341703 -0.556439 -0.257909 -0.0608809 -0.0802594 -0.259973 -0.11933 -0.148475 -0.185866 -0.0768568 0.0819242 0.0297057 0.113465 -0.134994 -0.715018 -0.796607 -0.284836 -0.699501 -0.713745 -0.302295 -0.460403 -0.747656 -0.180652 -0.151352 -0.173832 -0.391368 0.289998 0.230227 -0.0132177 0.124225 0.340549 0.204054 0.0310918 0.328791 0.221309 0.412594 0.0691918 -0.365232 -0.7994 -0.0980398 -0.421777 -0.647758 -0.0475891 -0.236315 -0.583996 -0.0613387 0.0230846 0.0395455 -0.183956 -0.0289888 -0.212576 -0.0424991 -0.07265 -0.0736332 -0.0519348 0.144905 0.0633697 0.204285 -0.0788216 -0.488242 -0.588869 -0.542948 -0.430245 -0.554239 -0.190693 -0.337337 -0.706612 -0.150944 -0.136583 -0.137112 -0.33081 -0.229887 -0.0380763 -0.0292374 -0.0979236 -0.0717474 0.177666 0.0389717 0.190019 -0.0865638 -0.374706 -0.666244 -0.202854 -1.01516 -0.665186 -0.200715 -0.36244 -0.572794 -0.186908 -0.113916 -0.133823 -0.329683 0.0947453 0.42476 0.157757 0.0355457 0.292464 0.203054 0.422775 0.0712719 -0.311964 -0.567706 -0.0874093 -0.383881 -0.948356 -0.0473613 -0.24194 -0.577683 -0.0582767 0.00982445 0.0375119 -0.203826 0.00138327 -0.0184785 -0.0398353 0.174359 0.0707386 0.280403 -0.0629512 -0.356773 -0.548567 -0.19551 -0.423301 -0.477237 -0.445684 -0.272918 -0.492646 -0.16654 -0.112254 -0.118634 -0.355666 0.0135923 -0.00537726 0.225832 0.111081 0.311635 -0.0230371 -0.570715 -0.838119 -0.246418 -0.525932 -0.964822 -0.145496 -0.587488 -0.79518 -0.111396 -0.0894784 -0.0626131 -0.328023 -0.0181859 0.196309 0.12588 0.193379 -0.0146169 -0.467481 -0.605377 -0.239853 -0.584486 -0.570111 -0.140053 -0.343354 -0.753025 -0.120547 -0.0716795 -0.06985 -0.233672 0.181101 0.133125 0.148024 0.00693309 -0.117993 -0.145016 -0.0761574 -0.163576 -0.184742 -0.0455911 -0.102079 -0.17972 -0.517195 -0.0514315 -0.0373011 -0.133359 -0.0897052 -0.0184555 -0.199708 -0.434285 -0.546585 -0.395926 -0.546498 -0.541175 -0.283491 -0.427062 -0.602718 -0.325341 -0.394467 -0.309094 -0.360597 0.0674355 -0.142992 -0.343576 -0.394275 -0.316543 -0.422238 -0.398188 -0.18208 -0.315672 -0.509513 -0.263971 -0.217462 -0.332647 -0.28099 -0.277289 -0.581474 -0.7209 -0.416999 -0.650366 -0.748937 -0.392202 -0.520428 -0.756679 -0.310612 -0.290163 -0.339674 -1.29858 -0.313486 -0.401796 -0.235251 -0.393149 -0.451366 -0.126052 -0.292406 -0.520707 -0.180096 -0.0842834 -0.0981033 -0.365207 -0.230939 0.203129 -0.104582 -0.258884 0.205625 0.15537 -0.312614 0.0463666 0.215437 0.231575 0.0617996 0.317786 -0.0356713 -0.0703521 0.379473 0.446137 -0.141513 0.0790065 0.337293 0.341005 0.160523 -0.212634 -0.310205 0.0448076 -0.0754134 -0.415885 -0.0143611 0.118529 0.135161 -0.0904875 -0.0601239 0.325811 0.321355 -0.0556337 0.105063 0.345931 0.350048 0.118409 0.358018 0.677873 -0.102465 0.117394 0.336969 0.366488 0.273432 -0.141109 -0.360384 -0.052589 0.0355068 0.0420114 -0.158103 -0.617103 0.0197256 0.186 0.216634 -0.0470193 0.11967 0.413138 0.475755 0.243445 0.0860909 0.138142 -0.0457941 0.0124304 -0.187899 -0.218619
label 1 2 3 4 5 6 7 8 9 10 11 12 13 14 15 16 17 18 19 20 21 22 23 24 25 26 27 28 29 30 31 32 33 34 35 36 37 38 39 40 41 42 43 44 45 46 47 48 49 50 51 52
nr_sv 25 25 25 25 25 25 25 25 25 25 25 25 25 25 25 25 25 25 25 25 25 25 25 25 25 25 25 25 25 25 25 25 25 25 25 25 25 25 25 25 25 25 25 25 25 25 25 25 25 25 25 25
SV
0.3655883196338238 0.5934141183633036 0.7243853486783626 0.6085737223860168 0.8121383223947836 0.5542230361387089 0.7992851270497129 0.5817944277556495 0.8224729206526036 0.5107108873903325 1.050328569363004 0.9816602866345424 0.512314237710052 0.3660566938213639 0.4502377189892428 0.6372474972256985 0.5423405257823025 0.6221878845226554 0.4688615362058844 0.4215535613063119 0.6800901541438488 0.5083282942242461 0.5006925718880351 0.5569646767032155 0.8614234948164016 0.6323368043374537 0.6651545943950613 0.395138538231625 0.5362656695412584 0.6799333355228682 0.3770521851314449 0.7256116807191049 0.4162699774211423 0.5952270030046799 0.5007653811587524 0.6452514524157107 0.6116798406899265 0.806434510875734 1.454754858078924 0.4635475564726138 0.6288901416413381 0.4522170115964282 0.7075029380866844 0.4480515773402888 0.8482099130397059 0.5277527351128125 0.5566802495079415 0.6045879504390254 0.5148359015340771 0.831517460345135 0.5406323495368335 0:1 
0.3341351588941837 0.03190110120442807 0.0250784995301273 0.09706059668835254 0.06052850173966842 0.05748086739129953 0.03567221223805916 0.1775144034151659 0.08446401602506133 0.1382755690928357 0.2557087865787852 0.01811244018699051 0.3055259468619997 0.1908884182702809 0.05980630866038029 0.2388763727201633 0.1662848391569974 0.09266975856771428 0.2241705378519444 0.1357936122707326 0.2662847263942942 0.1790996735973034 0.1146754741744567 0.245019315083577 0.1521087240023458 0.3618073148110562 0.144589132513536 0.01671765581770623 0.1178733455310952 0.1030858501445767 0 0.08434327892832229 0 0.05714466095662586 0 0 0.001862296556434546 0 0.06702973714498764 0.0516245271442273 0 0 0.05829973124333003 0 0.05059994025961512 0.008726995917338892 0 0 0 0.07218423866271884 0 0:2 
0.2753444549508426 0.4361263239790366 0.6406409191192176 0.4141117062301004 0.5101233202288041 0.3500566708307307 0.5335549612936171 0.3110634829335698 0.3458962560030736 0.4400870095098232 0.6230807639064672 0.5665374901918195 0.5350131595687612 0.3124936845587553 0.2710993688854043 0.3897405023001837 0.303904510661924 0.3966902011603048 0.2176722313143396 0.3307552401592904 0.4247126731376136 0.256534697320134 0.3195327921997917 0.2417729556977813 0.3885628208296958 0.7948123112711729 0.5736357351530471 0.3438277035307699 0.4652850425201875 0.5201381504680365 0.3030758190389767 0.4878698808182667 0.3907171370230278 0.6171598176331526 0.2900033117681207 0.4031897948925394 0.3812042384234087 0.4836953011502453 1.000752337081285 0.3173352998486203 0.4044634603839699 0.3705958940289415 0.4384847189507141 0.3320933460652908 0.571413886240049 0.3839286961174901 0.4617274676684855 0.320891457370503 0.3978842841531693 0.4435749970313556 0.3059861319055524 0:3 
0.1740279335550121 0.1086254569512415 0.1010230073062757 0.07244537629377958 0.02792393743272307 0.0480939566353857 0.2816861314544198 0.2855772614910224 0.1535726982788964 0.1909636740683849 0.3331905295599408 0.101051161060564 0.07348189318115404 0.05792919096751128 0.05132077347487991 0.1709345587869679 0.06844052790843591 0.07197371498947663 0.1292788498239457 0.1265118199698658 0.1453312013255676 0.1048739185456167 0.1355847852071156 0.2041627342027713 0.2051183136535321 0.360497873803334 0.07520912167918273 0.02934194032794306 0.03942218716973388 0.07797745678519834 0 0.09339988121621799 0.0356782260550384 0.01678130799292408 0.08125113024782195 0.1256519602628276 0.1176569867227807 0.2125235901758074 0.7110717827241801 0.1434412524267374 0.1663793547741369 0.2007130075152875 0.2024183458266716 0.08673634503413262 0.1403100290375399 0.1999006164910429 0.1183855223140949 0.1756211714132249 0.1836644875549129 0.1820753744910282 0.1290310492077242 0:4 
0.7156077949287882 0.7442312651060821 0.9491085709893721 0.5402483366706261 0.8346286623562423 0.5155786969200241 0.8325513500486172 0.5272799102265233 0.4434205972163092 0.6158284589491718 0.8667577146254214 0.6704132211568002 0.8891357513701958 0.7703400317343007 0.6254511727004216 0.8520739097435713 0.6144525368775898 0.6453955438751725 0.4680116745743845 0.6110312874711071 0.7976255318665801 0.3653382303214404 0.4447265420539804 0.417529381022082 0.6228688226939608 0.6286883326918532 0.9210392717058258 0.496030655671942 0.7139186510848686 0.6695532358888369 0.3818659680396441 0.6354877719855307 0.5754490144563322 0.8022033381680598 0.1931249363427733 0.4095937176943553 0.4740303232902932 0.3357106649887503 0.6722531161238754 0.4669117908225756 0.5697354208197619 0.4295480708087401 0.5199839815877089 0.3734307441899163 0.5436046539998162 0.4373742347669693 0.4413398199464528 0.2204769650609066 0.1899625002360506 0.4191483626556765 0.159172997461619 0:5 
0.57705953229296 0.7821745913132344 0.7115329011373136 0.72337440744201 0.7242866398236094 0.5842501977159698 0.6945326887931005 0.6303453661026258 0.6286588535154579 0.5328353768536797 0.9466060126901227 0.9324492024461012 0.4775450342339712 0.3477487069637807 0.3948031978648658 0.4118085279699257 0.4017806100086528 0.4105664400222865 0.3371020748552033 0.3540046206141217 0.3310256904929202 0.3594855643528989 0.4858222806618725 0.4416545524393345 0.5303022986850692 0.5627594928841786 0.4923168045288881 0.4148885665310051 0.5775377557290385 0.4133560433905336 0.3687375611008852 0.5836692646750401 0.4044814998249924 0.3115081931037947 0.3874450366114247 0.4277609801583185 0.4655818825119164 0.6864570772755934 1.346732813240984 0.6158893402450902 0.6763400626273304 0.6763051560670749 0.5075842115121197 0.5163198838968549 0.6029173131468724 0.5812209497477917 0.5967967152715516 0.4691966849156646 0.6687687642862309 0.8473368212929512 0.7063186667391098 0:6 
0.2784628850859584 0.01756915979843743 0 0.07128059461628472 0 0 0.00660019893830731 0.08468791433670368 0 0.1364452506187716 0.2205202756534904 0 0.2251866401710252 0.1115688102268426 0 0.1350829398078577 0.07063497731073322 0.02796183061383306 0.0941508305241421 0.05365338955567319 0.1014345756600745 0.06304516675269313 0 0.1396278037804099 0 0.3479447472014798 0.006895402909498615 0 0.09770740125789544 0.03218266858808874 0 0.03076075742972408 0 0 0 0 0.02265872303994108 0 0 0 0 0 0 0 0 0 0 0 0 0 0 0:7 
0.3125955361586034 0.5703806922546685 0.6416346764061921 0.3500709572711241 0.3803542463029088 0.2797870442361012 0.4312849759027155 0.430904226775763 0.1703050378063973 0.3171007202705945 0.4930609800986802 0.3460091710396084 0.446981649807816 0.2332976599496208 0.255839849952413 0.2357553338165051 0.2092676164764255 0.205483226619871 0.1139124822740045 0.2821717649712944 0.2342033840040488 0.09871403299916705 0.334575790656209 0.1523045577053719 0.170635590335365 0.8060588929669437 0.5068172965418916 0.4394772720783928 0.6279854932812847 0.361528182441235 0.3410730760182308 0.4395798814149096 0.462330971368956 0.4751515835957253 0.1973387109146877 0.3330462823728514 0.3002248173356444 0.4760645031662628 0.8369335491193661 0.3292088589018156 0.4353332488036538 0.4998334841930226 0.2384192883431288 0.3205428208315436 0.4449772727447439 0.2981616163578701 0.5135050021150768 0.196239192911161 0.4118544521660926 0.4526977178906552 0.3570192106407974 0:8 
0.1969095708858707 0.09468016883642616 0.1022246327218121 0.1227333611495969 0.09934420162962722 0.05038686096194243 0.2961100092420378 0.1628102567214628 0.1249207105975407 0.1247051502504311 0.3032119322859552 0.1120793108917747 0 0.01592538831595534 0 0.01460161365549081 0 0.03281128722234843 0.03178322860347805 0.02288190086273524 0.01086461268708104 0.02377437707351165 0.01224665305276399 0.09304096922674911 0.04934970340500779 0.4048572730332179 0.002673228708391978 0.03010486373304061 0.1274827699656269 0.09275137053361783 0 0.08559406105880303 0.07285891550056767 0.02879395801922855 0.09255953647895616 0.05219826903621011 0.07453110695878057 0.2824222988266535 0.4462627517398366 0.08605763327624769 0.1658055594409029 0.1043101031976654 0.1110323955299648 0.08282508583360912 0.1342294500519721 0.2060844341572494 0.113740668508463 0.164802845532999 0.2030159093263122 0.2109894407857628 0.2079884616810811 0:9 
0.7429330279763861 0.8947381844450449 0.8775617497546865 0.5787411832325762 0.71214061894842 0.4563578652011487 0.7308452273088042 0.6525511797021372 0.328737270027304 0.6346287178708125 0.8367159983589446 0.7397078566454158 0.7408903054053945 0.6066739769447922 0.5679662172455737 0.6429919531321489 0.5159340665821718 0.4991441286718435 0.4280804734092034 0.6838912780162106 0.5625893206145511 0.3000189518481937 0.4742459891165097 0.5037457569935114 0.5107238650517308 0.8627358175295967 0.7176449309980942 0.5846688908546341 0.9169037112535446 0.4624097606046451 0.5120200047166327 0.6751017880286231 0.7801545842209755 0.698070538266406 0.1811748807438766 0.4546387779524937 0.4726268077174199 0.5717565306156553 0.7172712608544666 0.5386395255719425 0.6881132980613496 0.6879577405652942 0.3975488751830873 0.4794021892317608 0.4971832041619738 0.4271110649169527 0.6222970726532771 0.2518769007579689 0.2982463570149428 0.4355112411421219 0.3590865484587745 0:10 
0.771220603548002 0.9658270533968442 0.7487645268661328 0.8240187196149664 0.8369293757899223 0.6085837380501864 0.9361238710588663 0.7969214578105401 0.5146306111574058 0.7776813233266993 1.03764109869366 1.003303087214138 0.7302921522114439 0.4434240909200942 0.4768565895506577 0.511701246061115 0.5272230896148959 0.4550215558932065 0.49682925773451 0.5891646651694936 0.3737295204115953 0.3173375404654925 0.6043697735488343 0.505088865592273 0.628695527483165 1.107266548097525 0.6600239999907511 0.6358885639642622 0.7694469055717614 0.5415931047834799 0.5522118289227205 0.6944992868658509 0.76445990663982 0.4168223110520847 0.3484312033449227 0.5469498196990397 0.5164984652101111 0.9012227920698496 1.300179644955752 0.7818360640914961 0.6972622691689168 0.7749878241489199 0.6027389417167757 0.6816056527079526 0.6957871919328383 0.8719296861303397 0.7565401363922185 0.4250356019091198 0.7950947697454592 0.8789668607101409 0.875046464059254 0:11 
0.1813218852808227 0 0 0 0 0 0.0809285241606274 0.03952559638783387 0 0.02055927890135923 0.3053314154868272 0.06526543077477115 0.1376270081024896 0.07329638995235013 0 0.1350391512087786 0.0869875485457019 0 0.08766729860171137 0.06997989235801012 0.04518181465951 0.02853868541545207 0 0.2273666340370579 0 0.4903317601941616 0 0 0.1062597947678478 0 0 0 0 0.009809844479856731 0 0 0.04618137137001115 0 0.04042772030645219 0 0 0 0 0 0 0.03015843611058064 0.02064587444282466 0 0 0.1397550466824392 0 0:12 
0.5236396501401617 0.6953653963096512 0.61534996182609 0.4390171237671877 0.4380780812798584 0.2708002710602283 0.5273339088688733 0.5370013660827732 0.1683607292208371 0.4993242230461171 0.625880562602191 0.4420011130807566 0.4177797094926912 0.2779872814126481 0.2553856420113488 0.3055073661532118 0.240582704862904 0.2718459528951169 0.1631584141023922 0.3521327012320981 0.1899931269751893 0.108079509820874 0.3548526417001883 0.2026016024666327 0.2998243776593563 1.090568732442527 0.5191488456615205 0.5276268732525894 0.6393045686172311 0.4291634717384353 0.4658111729500783 0.5032122314822504 0.6252259307239106 0.3917919298015329 0.1970956331317946 0.4109381323492591 0.2249578027377777 0.6628430433491244 0.798054206417214 0.4043679693598793 0.4482531211160304 0.5850332498301912 0.3015066091690723 0.3948892235130944 0.3801011392226118 0.387759631269106 0.485933063734779 0.168555978008379 0.457657433191864 0.4121454900908091 0.4349946292815081 0:13 
0.1465398524680424 0.09604463759986223 0.1135409695132131 0.05539980397217503 0.05985701316317846 0.0748935201599075 0.4275951187622377 0.08947369657174348 0.1665792980543283 0.09973490337065266 0.4004509959218167 0.2865458608973079 0 0.02246671970999885 0 0 0 0.01766638467177985 0 0 0 0.007271546373613479 0 0.1362635019251117 0.004853347632050614 0.6048315954825548 0.06616668769457794 0.02503476509706575 0.08183398954940162 0 0.01158076672689654 0 0.08832260909552496 0.09007250492565164 0.08418127738854599 0.02262268349542695 0.1248362476943281 0.2700998335573268 0.5093234331894888 0.09975575656383208 0.05245055051282803 0.1122576928003889 0.09197467595633649 0.1293241002113748 0.05827908006573099 0.1685218586499309 0.1188986044680662 0.11848320897428 0.08795117663248864 0.2150390663300005 0.2304346105762256 0:14 
1.030865899876986 0.9050330932512294 0.8182678902847699 0.744319946117226 0.7851907704884058 0.434845577652391 0.8244537406787652 0.8916653729767448 0.2689520951973026 0.7265688880755395 1.075595337895866 0.913454991656459 0.8273696036330064 0.6662403597309702 0.6533237193944451 0.630493305875405 0.5525668176248141 0.4993604990727769 0.3900951462632513 0.7072276401924852 0.5291765312020849 0.2291400324667567 0.5586715686676198 0.6045924547280034 0.5827067536544169 1.212727537273887 0.720708374627964 0.785510797225339 1.044546458136183 0.5689927772133697 0.7638639365383096 0.7199868632051767 0.9592315159667678 0.618805906442004 0.1906595406099659 0.5373598077559332 0.4585905831069702 0.7738209240923989 0.7820002383558369 0.6717925288139199 0.7002404365780849 0.7333486591449582 0.4221945697180972 0.5999970918642324 0.4723347335920445 0.6000695906033076 0.7337762631089011 0.1832111250906973 0.4124286837125964 0.638559995107967 0.5459956835091756 0:15 
0.8906184505033271 0.8060284902284119 0.7026766600486702 0.8350143849249327 0.8115182845003776 0.5768275720849002 0.9128776595620172 0.7136632851148835 0.4800050475408635 0.8942074694691509 0.9627754563749904 0.9814161645080329 0.8047797487657532 0.4004731771648613 0.3897011255453685 0.3979871990240453 0.4197204306146337 0.4905477262527379 0.4377591806985596 0.5511081800595684 0.4263220313673582 0.3571423159843006 0.5860175858465834 0.576389795494305 0.6251860846575189 1.337188154712014 0.6612409510149289 0.684239931548153 0.7119749322581584 0.6080774027657727 0.7314232964775641 0.5207887885459854 0.837654016186874 0.4375338412520378 0.3793384470439678 0.6246945150085356 0.581483619533168 0.9071508025289596 1.34934342170938 0.8107434793301392 0.6318824602547906 0.7941325928282806 0.583628781496648 0.7395235223721183 0.593294327077392 0.8766926118148662 0.7639274212766408 0.4996981882277933 0.9124486457293935 0.8746311359674053 0.953836052700218 0:16 
0.240555498581174 0.06212480876415494 0.1297907254728057 0.1088304675309711 0 0 0.1548511443659186 0.1698300054020846 0.003020278777054487 0.1001883226839439 0.2894065113063004 0.08188982246285273 0.2310435482867647 0.1360310604955634 0.1205677800166671 0.1970639296301258 0.134582864912757 0.05896031976163914 0.1211954257123865 0.1221072701843517 0.1317764728481618 0.0970874914098933 0.02886141312341381 0.1336139444160291 0.107100529720402 0.5050533833479083 0.02537018446154831 0.04744738367361261 0.1414113396462785 0 0 0.08972420454611468 0 0.05959882026487317 0 0 0.1210352892018133 0.01045362587344085 0.09578269248878478 0 0 0 0 0 0 0 0 0 0 0.0798947209953596 0 0:17 
0.5690444968064743 0.6343923884121677 0.6582157959741242 0.5235340958943397 0.4748738847326376 0.3256361974813757 0.5945501707693919 0.5012528390698882 0.2014394065204465 0.5657710570680622 0.6541751447682721 0.561058625532237 0.4838643408419576 0.2191081216201842 0.2506846714054146 0.286404404270106 0.2534506442006472 0.2637410250735082 0.171094643933859 0.332393054087684 0.1830065156629498 0.1302232289056965 0.3472826728761791 0.2927631127551504 0.2491294654244527 1.299458371034453 0.5348428214039008 0.5288637815285337 0.6059037213578625 0.473507964540649 0.5396026893463809 0.3772441121683059 0.6742129940996128 0.4914178893613639 0.2264302141866635 0.4795398649707879 0.3504655066963934 0.7210288068982074 0.8668312155680848 0.4293632473555362 0.439397040304089 0.5753183228818523 0.34054823496072 0.3871916557097044 0.4136912005343897 0.4886882538679335 0.4928461419388367 0.2403827645541666 0.5373571133742527 0.4386475481940436 0.4807569823797883 0:18 
0.1982937933173902 0.09392849918104942 0.1805156406308178 0.1205063970588175 0.1410067768288909 0.09658882108910385 0.41057500183938 0.2228414225240442 0.1889706979765715 0.1974357581033048 0.3351662202645191 0.2399990193224284 0.1010145337935244 0.1280739345159352 0.01713852652491024 0.007220920005667262 0 0.1026004453220268 0.04310626674767162 0.08959870235585295 0.04594264110469849 0.06181308479941369 0.03372631684066852 0.1064553277151043 0.1238008197115054 0.7700700280770367 0.1443433983995366 0.1365198204631135 0.2398472768568737 0.03581676590242325 0.1425431851429538 0.1359842552073804 0.1964063093059029 0.1418623236472126 0.1498529524174693 0.101631661119657 0.2306705305326069 0.3542763077451797 0.509842604471484 0.1585642942013121 0.09271503016002672 0.1191398890672943 0.1201540345250732 0.1703708120231693 0.1208720695737376 0.2037447748694605 0.08566399401076766 0.1251649560653413 0.1139639635114234 0.2309514123995129 0.2429095314083448 0:19 
1.049579736937231 0.9813580751901593 0.9527546474345442 0.9514881332390938 0.737431966946862 0.4800637678520255 1.042142688104938 0.9338599075997118 0.3182538882770678 0.8298863689160435 0.9953750857947316 1.102375086992204 0.8154010774403717 0.530663265149429 0.693342315365496 0.6164742299123285 0.5761024170792296 0.5212379517603878 0.4238858363257931 0.6840934090723875 0.465595666784392 0.318809399313771 0.5266687599827178 0.552012381782961 0.6077106481336254 1.372773256999643 0.5976451951030297 0.8642120855328876 1.044658629961567 0.6088911905844973 0.7804681289196362 0.7044041435205274 0.9943486911404703 0.563545126657588 0.2424795370498365 0.522240022935185 0.5450901569828868 0.866651903109505 0.7882791029344451 0.6611570722864993 0.655329030146222 0.7892292305475704 0.4605251587501715 0.5273275403475461 0.4952376742986939 0.6363627476320332 0.6232327726184703 0.3089853549525254 0.5360024880937492 0.5517861610878592 0.6813449327958842 0:20 
0.9591987696638752 0.9288227619651125 0.8082983229820678 0.9578722993328719 0.893412127071741 0.8959587002692611 1.093866498510198 0.9998680795233691 0.4623226211500567 0.7628324330167172 1.030157891866242 1.288417802713681 1.154963518452287 0.5688707838212402 0.6309894729081402 0.3867256909834956 0.4957650677057345 0.6025954424292909 0.6087143491469191 0.5848522796993342 0.5097446551517854 0.3475764175833879 0.5754446075560203 0.6872991099530432 0.6888312054046033 1.133707866049532 0.6465212060581268 0.7725448628297283 0.7208745407131435 0.6087987103039993 0.8500731378332754 0.6808108677362773 0.9458229129278093 0.5430390894374655 0.3979804819780977 0.5634165256970984 0.6477191762577407 0.9425290777988116 1.536487596739985 0.9774625809078633 0.827436527328717 0.9215461019173333 0.6450731974726198 0.8176038724758478 0.7506935550246794 0.9527564053492099 0.8217704631259588 0.5543903808822772 1.096858480214195 0.9637713249369644 1.12439837381973 0:21 
0.4069035535952036 0.2912126428263316 0.1832026754931373 0.1979807762752656 0.27115380572963 0.018304775035659 0.1667561063650765 0.2088724443476309 0.09391416174809872 0.2321397189390003 0.3801085746587538 0.2345770186423279 0.345306102681813 0.177518424133958 0.1933872841488694 0.2392141116951424 0.2353542583913084 0.1500578704410987 0.1795733460065492 0.135570214356012 0.2217473157920553 0.1722479470574005 0.1381809356288451 0.2382236402863813 0.28981680936402 0.2622542985912544 0.1423629549669806 0.1832745987290927 0.216943855851456 0.121297705785471 0.05392500326221076 0.2865695303419643 0.0783146126163911 0.08434301370312716 0.007363093382463864 0 0.1018394805951787 0.1868173015716786 0.3866785111692743 0.05302616400545808 0.1094567652824741 0 0.007885615359954815 0.03935538822385073 0.07300761881959404 0.0974529598641118 0.07031887768380181 0.04115734021470886 0.01305752508327571 0.147019705920944 0.1219878294657431 0:22 
0.5832514953094614 0.754303679229626 0.7485454403461378 0.6378299672890848 0.5669976058389382 0.5800172048951184 0.6714799328631595 0.6423532372831361 0.2078431444911278 0.5151658119144351 0.7377420546473751 0.9188392472052173 0.8210014431663093 0.4291450570558436 0.5448584957816838 0.3707342562697835 0.3866515311447054 0.3958597156421804 0.3920573279150285 0.4208271956066365 0.3929685700442463 0.1989095188041452 0.4030151118324524 0.4197268629214052 0.4807239015865198 1.323936269320369 0.6897331019139483 0.6468881933270137 0.739619478293827 0.6822892330139836 0.6476829923050423 0.5116027298294673 0.805414017106003 0.5406628738024024 0.3058114241178552 0.5557315011479306 0.4431035384266055 0.8978385622373261 0.9556822620381163 0.6077252868974837 0.580315545825667 0.7695139816389647 0.5197250668058626 0.4753478338833836 0.5636368767832985 0.4992239119228174 0.5550028355151835 0.308284611791847 0.7123707986783456 0.6056513208059306 0.7049998535575829 0:23 
0.2239922169879724 0.1653734551412578 0.09170866386525398 0.1189595386902689 0.1782819415772186 0.1076628864814089 0.4343119893034424 0.2180131305072966 0.2266689744476906 0.2852533196289197 0.3106156389997295 0.3095302161772993 0.1970155229592618 0.1118306721701267 0.02193525836869353 0.04311514480689051 0.02049587728898149 0.1432563135768516 0 0.1748073288311993 0.04804145301361768 0.09126909978254505 0.1066510272543172 0.24631042741524 0.1644151729725095 0.4448308196216139 0.1807267922375143 0.1960269545914196 0.1585532955225656 0.03421355119323556 0.161581207476403 0.156812196288011 0.208751048503638 0.1848494109552745 0.1432459018123918 0.1326768942588942 0.177902002323609 0.2970570484564999 0.8125447136038716 0.2329361340324417 0.1719098174322839 0.1810207549211346 0.1690640588212838 0.2269428015209867 0.2000228586835004 0.3338309154661379 0.2073199864985345 0.2287263576071525 0.1517060735782357 0.3006940540872133 0.3124143024798235 0:24 
1.206365954929627 1.21458736698429 1.308456498556304 1.182329422207332 1.04487968115873 0.857175311894218 1.213149566871369 1.124450804270904 0.4489238156876862 0.9459341622659803 1.066131529537882 1.545400955819284 1.358165220816539 0.817570266911596 0.9936050668027983 0.714204178294565 0.7489841668033541 0.7229676991902484 0.6563875268497879 0.8264762587197391 0.7405693379782384 0.4496027050639505 0.6935643189346463 0.7606900299788493 0.7140198621830899 1.460583098675565 0.8235085159913237 1.044265053905731 1.269045697080203 0.9749137140975573 1.07635417977841 0.8796225041860017 1.271267272401884 0.7068223979420493 0.3524683465974477 0.6789468683881055 0.5811656760397187 1.082472401122673 1.017321742967313 0.8490757817664704 0.8856771399813835 1.036648376968047 0.6043813059542165 0.7081587183156287 0.642184382898928 0.7944010901113676 0.6667252513086372 0.3794131059863918 0.7259345160774687 0.6747630233534367 0.8671961650860326 0:25 
-0.9110272369146201 0.9828661352159741 0.8738546136170154 0.9602097985620351 0.9413967587150532 0.5720715542443865 1.240945499927995 1.474665764178268 0.384843176064571 0.6552418493631743 0.8812817809102487 0.8473258213314094 0.6966069370457858 0.9424626624928568 0.8243658028783883 0.7445851572246853 0.7721640112623347 0.9001961304946273 0.6798634246496388 0.8707680797281938 0.8213566472580305 0.4391176289934539 0.5967304939777874 0.6768077884284555 0.7404154989306415 0.7903699387668847 1.219051784607838 1.01390239757335 1.02732655903967 0.8435989951075371 0.9561641835453708 0.8155573577229989 1.004985048081134 1.004310270656463 0.3682257972394999 0.5721830717380099 0.5674205595808436 0.8657646354036919 0.757814518351219 1.636680264318751 0.9292092811291681 0.8816273620375003 0.8783880703389275 1.008487948924016 0.7868736514994585 1.175839029384315 1.137730402393528 0.4136794701145985 0.6045324139993777 0.7001608170471046 0.8884048365794369 0:26 
-0 0.08171836142571841 0.003995008927658928 0.2277206060503554 0 0.07901471206361504 0.3200724134405565 0.1044459649712885 0.02732363155424666 0.1619606677925713 0.1156491382691688 0 0 0.3291228849048305 0.03425711916847213 0 0 0.06782139975428365 0 0.08831252653938941 0.02227004214202764 0.002995542283357576 0.03884700495893934 0 0.0373824348695171 0.2163528211150572 0.5356398588645509 0.411977437070238 0.03323503402276522 0.2339476673295396 0.1606709312392661 0.1391196609269194 0.2789531142084747 0.2054396201688968 0.01948269036447147 0.1606935363045716 0 0.04906948010144419 0.002034364323032991 0.5639418823408202 0.2781975482741742 0.08206455233506887 0.1977376374722701 0.1876563870706671 0.1539617722250552 0.2455508737509555 0.2356985397909303 0.05192132255611984 0.08206573015793452 0.01057962369776145 0.06408433581280826 0:27 
-0.6332230460525757 0.8908247204281267 0.5940572999702909 0.3694773874374805 0.6794769933663064 0.4584898370511514 0.8892006323263699 1.006536091325765 0.2393595117091454 0.5124077948263907 0.5110124093124894 0.5451116198423078 0.4703607976323345 0.6112105084641404 0.5970354711679322 0.4549538473869274 0.4292784189024457 0.6194284814591458 0.526556013154415 0.6364330101599271 0.5082506751109591 0.2380767794569451 0.4427544041352912 0.380414280084131 0.6423060234075766 0.7414181116721857 0.8983933073709874 0.8840740421887989 0.6504970856240773 0.4883662294235795 0.7616899077121314 0.5610507729885817 0.9236546105648706 0.6747719880533166 0.2641909934764314 0.3917636764708357 0.3179777027934072 0.6416370461994806 0.5553457671185407 1.182886143000037 0.7968481580713713 0.6293438438727441 0.5874475278596003 0.839718319939763 0.5269570461473607 1.067738086492885 0.9912556868175799 0.3380138767512999 0.5076242842772838 0.4823300343482073 0.6515259032906782 0:28 
-0.3653011925789462 0.4416272774523032 0.1345446432851592 0.4265216172151255 0.2454681247098109 0.2121393211644361 0.3344350217516047 0.4954797034110893 0.1196591207740198 0.2930605722823503 0.1484128657800567 0.2675120322232573 0.2131526101253006 0.5193187434104345 0.3926009034104733 0.1452152790773967 0.2125424169937477 0.3350680088783625 0.1875228630119521 0.2334681014478762 0.2191272961205001 0.09732520829031811 0.1633552514285451 0.0895242808116346 0.1816250439265292 0.2123402238530176 0.4023356412470671 0.5975401314991209 0.09261246194047724 0.3355928128425621 0.4217192781876224 0.3100731543007733 0.3276964971597107 0.1833818955393142 0.08497399549211254 0.1813255496610778 0.07085819935959249 0.09111502998237835 0.1257455362938949 0.7484687785241149 0.4554274051136478 0.1400375799895775 0.2442079316835178 0.3003993443463581 0.2334363491396625 0.2985053344701681 0.2253680487262124 0.1488434376569122 0.1053566209581162 0.07467634042256624 0.147238534640878 0:29 
-0.4803117710926584 0.8854985344770941 0.4250381130001586 0.4345696029787458 0.671746886575288 0.4546634611563296 0.6868140984807494 0.6069968731025125 0.1680366634808176 0.4603099318493042 0.4627229735960378 0.4883586245608905 0.5058734995593496 0.7364473703843224 0.7002610858552127 0.6268542419457673 0.6255478064144232 0.6510255399902575 0.5213558088737377 0.6517187782475991 0.5977935341476759 0.2734046584431805 0.3650240019505828 0.3069838642218902 0.6487165453409398 0.6305238837157763 0.7435531108570065 0.8571410674565736 0.6563366964329319 0.4975559967406895 0.6911026998246972 0.5078475083616768 0.5832017433981429 0.5428827737288866 0.1137595982478027 0.2383022965257008 0.2577892331327564 0.4910513931626896 0.443784747308865 0.5836246449082487 0.6870123022135587 0.4745462489989082 0.4432586138211465 0.6715152873149554 0.422875473947697 0.5594467330195513 0.5323002351854823 0.1796103926127046 0.1871789464337955 0.2677352595218929 0.504809017451551 0:30 
-0.9565010775328864 1.338844840858155 0.8416876874895425 1.187246192097557 0.9669835234452412 0.5982363654007754 1.144456581330148 1.503259897238404 0.3777798875319394 0.6427616906120067 0.8956918346763345 0.7239083351981915 0.5249706102241202 0.9182631620626116 0.7027263148188703 0.5009798844233547 0.6804156361630411 0.6218453210319662 0.5458360178822006 0.7004588053125799 0.6362070869244189 0.3370570423177 0.4547509738141404 0.5461261904140255 0.4454335397965258 0.6497989451324304 1.101356110482251 0.9840325235122324 0.9421786113183139 0.6911958914072619 0.862730619261097 0.737026624063811 0.8791344242394439 0.6492093485154079 0.3312177258364145 0.4615698574052346 0.4528821896755704 0.6483621089804861 0.673316563878481 1.619292016227579 0.9235822471077691 0.7147111471994505 0.7436569846400749 0.8734254680783631 0.8008331777750678 1.047063505296838 1.071193104342196 0.3571589514758238 0.612133549833027 0.6826320348373495 0.6887594155100524 0:31 
-0 0.196748730000024 0.04313325866216512 0.1857991161024155 0 0 0.2065243341275495 0.2783884105385204 0.006277865259379125 0.006619264695350211 0.06100768259443966 0 0 0.08229490813492731 0 0 0 0 0 0 0 0 0 0 0 0.1714586904436549 0.5641046142853426 0.3596566629361002 0 0.0786477376894273 0.1151569368806344 0.05398408469550372 0.2220369097015952 0.1656303297405588 0.01915606262755219 0.09354418186045411 0 0.009505100103282912 0 0.4915998101180016 0.09299748961629345 0 0.0292935927727661 0.02180829673667273 0.0464150828124349 0 0.0632047902571426 0.007191658621303653 0.003331555180893778 0 0 0:32 
-0.6556888325218698 1.172643256798935 0.4861139220709592 0.7569525109813919 0.6134425233757629 0.4531425709981812 0.9629170396717389 1.017840838882636 0.1853184656725977 0.5222535964323635 0.5601701660968439 0.3389998706387692 0.3522785332361072 0.6062874790128355 0.5340177647790796 0.2206917945209537 0.3573185843485683 0.3867286162556944 0.3669088920595049 0.5247047449650906 0.359966929463626 0.1426546052489605 0.3110077450975273 0.3194898284392411 0.3391849179242756 0.667479946876617 0.7717191003327014 1.028455639528005 0.7191483047424891 0.5787559131765073 0.6995283350554496 0.6056869419265524 1.048761363481057 0.5987002785829547 0.2657743410776677 0.3632645123796892 0.3283968302534434 0.6003971550786573 0.5375428603691322 0.9529287222631183 0.7787433697330575 0.6060018258009716 0.5528595992588361 0.7943946318417135 0.6337471449282368 1.04134244084158 0.9285546779860211 0.2734590135774405 0.5305032581025367 0.530462477318323 0.5545674875169818 0:33 
-0.3999984818170263 0.3614171167932041 0.1506058389760563 0.2721329460358651 0.1429049323132464 0.2150673138203681 0.3369856923140824 0.5593494574802619 0.10714582546947 0.2094649033604948 0.08191235448967374 0.1797738457860471 0.06622905721018617 0.05646518151075863 0.0956182732720337 0 0 0.04237053529087539 0.01199963952957945 0.0958232599326216 0.04048207972944125 0.03749866868032886 0.02462512697707257 0.03237622967673714 0 0.1800935878616209 0.4965233731024264 0.3139169632875193 0.02839610124032431 0.1108312878481646 0.2730685871222337 0.1719167387643803 0.3315253031705956 0.04118131502046309 0.04004499732972539 0.06646768553909681 0 0.006991827374926835 0.0114091573032053 0.7934224279873604 0.1689937919354237 0 0.08379784981409617 0.1359608000811317 0.05389680096110465 0.1215192643733808 0.05223172592299518 0.0790034225722271 0.01343254066696736 0.05705460504178401 0 0:34 
-0.6369101026924536 1.246540497044 0.5500786662229852 0.904194697714198 0.7238664365770958 0.4480733885011609 0.8506190975018524 0.8076143703168043 0.1518326722446076 0.5541626295995496 0.6462880365632964 0.4548714463472596 0.4921547506596912 0.8221572292511805 0.7719846866416391 0.5429588746760209 0.6515323250504714 0.5487507344301222 0.5445625762520445 0.6859087968017307 0.5336565232929156 0.2412520795428797 0.4050942980522198 0.4357072235460973 0.492966154104939 0.6573369144069445 0.6067058720749001 1.114902018304611 0.7809606324674285 0.570315011083118 0.73248911690952 0.5513055294515233 0.9751091531060073 0.5490207938010351 0.1561442937377323 0.2706617915298652 0.3407486850736811 0.5435179366955381 0.4779456173606099 0.6109854332776172 0.708846455508657 0.5784246069812548 0.4533649657791005 0.6365794185698583 0.50852197855089 0.5627025912097867 0.5642570683873911 0.1548216685295651 0.2921138771982461 0.345564138487182 0.470623415507229 0:35 
-0.9365014327113322 1.414070931347958 0.8168569356534017 1.187996937675645 1.108514143910315 0.5970405157478949 1.178705887853742 1.547710070372464 0.313773507311959 0.5629054855123082 0.8548878125299765 0.6748335382024617 0.6337593631906959 1.100383392502864 0.6982257684114312 0.5212032874177591 0.6368565429312568 0.6784640517934354 0.5307068972940395 0.8547977038495158 0.6500604405096048 0.3019377243851365 0.5650189021271577 0.6125933559778403 0.4432456175371917 0.7121350880784544 1.126443958713045 1.081200405082543 0.9976925252715994 0.5898282638590576 0.9934048316569537 0.6612352858224828 1.093514935401614 0.7063742445417815 0.2626213358270309 0.4664492099986021 0.5294663512558182 0.6661360120360056 0.6961353603326282 1.94645711562211 1.101232754658093 0.845796097822837 0.586878125244526 1.089006876323782 0.7753061184912172 1.236271521561257 1.382025126412799 0.3461689896017012 0.7231490178360057 0.7528102750781694 0.7922675627237689 0:36 
-0 0.4477011450072514 0 0.1554553055074771 0.05011619158555545 0 0.2555851577170367 0.2776924430081091 0.003764935678409212 0 0 0 0 0.08671621755237396 0 0 0 0 0 0 0 0 0 0 0 0.09827849446814879 0.3005148706835974 0.3667681000099632 0 0.03324899933932837 0.2459263678354038 0.1150222029810629 0.2493650320946953 0.01142867609319826 0 0.03434744046559992 0 0.05580119671253235 0 0.4737911977766031 0.2565913591416181 0 0 0.1121805056839829 0.004770421663788075 0.03807713413635111 0.08670993107707542 0 0.004890708658956147 0 0 0:37 
-0.5834757356530712 1.088369960665015 0.5450314634416247 0.6635418834566801 0.6245469953115217 0.4152780748094578 1.024034097332001 1.127811035025804 0.148368641859138 0.3340971103011315 0.4969550685594003 0.3815100614517627 0.2946476254998974 0.7014558735314073 0.4300025050753933 0.1407887025290875 0.3344686027340081 0.3993253673885175 0.2012473501249044 0.6160772833061118 0.3022781947214364 0.1113813450996808 0.2967119303386999 0.3253331855742431 0.2755799464172642 0.6911999568739433 0.9231711005370653 0.9253888487555498 0.7260531174198462 0.3848185033550399 0.8459864921051872 0.4307365799115255 1.149467904930173 0.6563818180542302 0.2192608043867438 0.3790505758698532 0.3877173516256316 0.6480987570553152 0.4934872811122163 1.378802530809463 0.8285715303026537 0.7492650964758365 0.4061438375318086 0.8909837608654431 0.4457266606218081 1.0910360746662 1.112594677066681 0.2481980402680596 0.5252079934568099 0.4645857230876908 0.6048804246722954 0:38 
-0.3713869294611239 0.4573994729728028 0.1337312266401142 0.2974825554409987 0.2160029085789153 0.246380931828397 0.3397850105906551 0.4177203051527291 0.110542129270651 0.1412286537665901 0.04111047175721763 0.180384503594687 0.07138564768358628 0.007185656442874788 0.06316106052131575 0 0 0 0.03482358933874294 0.01449963602670141 0.006470291749028655 0.01232712588344899 0.02682927020397429 0.01656947572126904 0 0.1134722310287187 0.4104524691405122 0.3786795722819041 0 0.1116444868688089 0.3469606528109492 0.2797717992708537 0.3482395063151072 0 0.02569565046443902 0.014236515484819 0 0 0.04292359828856693 0.7637216118717108 0.1844303789610993 0 0 0.05621282550920028 0.1043621024888651 0.1119119487237536 0 0.05123456921244607 0.05293109450927221 0 0 0:39 
-0.5143193817875895 1.196775922782808 0.6028867234119364 0.9548600827630711 0.7699879779057268 0.3626545412842155 0.9196188853513747 0.9499572038786229 0.1092993018710176 0.4423326354031801 0.5578530508063978 0.5344900419911167 0.4765550632084916 0.8747003439410503 0.7794885547940771 0.4801996678311632 0.6388299084727752 0.5712830668096673 0.4028310062403903 0.8465900829890627 0.4764778206131758 0.2324288661841261 0.4084702156525192 0.474754838957182 0.4807930925757142 0.6986564013202607 0.7977649404079553 1.232810443541856 0.8905277633647531 0.50444663741912 0.9848338467146772 0.5336613201814293 1.024716825657447 0.6137958785983065 0.1501102764150327 0.3059308044234471 0.4400860120340221 0.674900128805914 0.4880451820462742 1.115804926814622 0.983438105268195 0.7055148262918972 0.4710413131412799 0.7983105622735808 0.4255643244925895 0.7805900079419733 0.7689561736124544 0.1743697704885084 0.3602178256225921 0.3938234455682911 0.5355645197285923 0:40 
-0.9352761001872718 1.436418824646307 0.7084116978626884 1.040820507548812 1.17945499232531 0.6186972336614138 1.207690198922524 1.243278657679515 0.2463799344821158 0.6070980650803554 0.8718224381035351 0.6830570333885931 0.5273253665826808 0.988727128608056 0.6603929389143103 0.5267956973950966 0.4715418805458362 0.5289688901986933 0.4178447323709425 0.7302422804443546 0.5633642352729212 0.205846764147834 0.5449333476688371 0.4935566897642199 0.395725434574615 0.5074595807900812 1.49836071948699 1.059738942965446 0.9926066704734502 0.6304581527210158 0.8669605853677899 0.7199110230911777 1.062672838096204 0.6025143417879923 0.1918285848367195 0.527630724580514 0.495185551780561 0.5849905243913646 0.54547602754805 1.908646862108924 1.050627220352259 0.7102467316117943 0.5716823760151994 0.8354202603673607 0.6886918426111247 1.108284839537244 1.072561569512522 0.2571594457376217 0.5625420522624904 0.6996790987519985 0.67720936801231 0:41 
-0 0.3802422293478961 0 0.09170750312204463 0.2574285253493029 0.08552297322641841 0.348185053445156 0.1159388399150796 0.04029717711278152 0.06031686443985602 0.1479189613805934 0.02036140486401539 0 0.08194158293634894 0 0 0 0 0 0 0 0 0 0 0 0.1434720918554146 0.9007180416352395 0.4031942678606379 0 0.1218358162535491 0.2233254395396699 0.06889041779973169 0.3982515517099646 0.08868459824204045 0.01954394006199405 0.1223170613719995 0 0.1235248782625214 0 0.476397953308999 0.139623921995567 0 0.009445148633216834 0.05470358143853045 0 0.05968642541019372 0.1038723399685835 0.01139111669943155 0.06898200079286594 0.04183427802771815 0 0:42 
-0.6383315421126308 1.213392289493421 0.5824687261510311 0.7364184674037292 0.7508634007804774 0.3421780868172121 1.212170462212133 1.201500612837247 0.1866458787617378 0.4310774043668433 0.5871752083735299 0.4028169784732 0.3681313333128923 0.5864904093852384 0.577524538935578 0.2907411045545622 0.3021749418809342 0.4334713995026457 0.2092283239388484 0.5608962073810112 0.3290050141707264 0.1131936161672675 0.2972035527471104 0.3856162944906168 0.2846116217585009 0.6103739717614702 1.084020270862823 1.151392872193005 0.9818473339848279 0.5489447699581249 1.02917735399315 0.6745387344238063 1.148810695867117 0.6881825426381873 0.2433341093868752 0.5152852969157279 0.4633281039711042 0.629429259451891 0.470714869262824 1.194215816013923 0.982411546629388 0.7304000616128982 0.5368630731281312 0.8747008411464358 0.5564158144530109 1.012199927707362 0.9706983599843246 0.2592681740581246 0.4529714606124332 0.5078148902990622 0.6101204402948686 0:43 
-0.4244763779599207 0.4027174238485514 0.1852392932906147 0.318633025654341 0.4918166627941892 0.2744648582360811 0.3438435683171914 0.1405618190001714 0.1434244529285534 0.2637513730457193 0.1842208300321067 0.2203411443750821 0.04513084662282579 0.1398599018736385 0 0 0 0.05530481136956801 0 0.03480077554840624 0 0.01372323225401701 0.08479445884766458 0 0.03757308969929764 0.1089236046561947 0.9490403011238712 0.3544201429342165 0.06715042504753251 0.1923570026863292 0.2979668169433234 0.1808732505839239 0.5030970383510484 0 0.02513651044222764 0.1362494349786292 0 0.07721469815895396 0.02181710629287276 1.01882333543846 0.1890701951418504 0 0 0.0785325648237538 0.02382836331319474 0.129992274987095 0 0.03298042390824682 0.07548236563931608 0.04787827817740735 0.003796754685072569 0:44 
-0.7173871599184072 1.331595394728021 0.6277855802315951 1.013714844630518 0.9669215965927144 0.2810188030420931 1.074016914429177 1.099137418412419 0.1970686119137557 0.5248588195934406 0.6760472262585707 0.5812137522815847 0.5420620975767446 0.83996662280225 0.9175333311837616 0.5363729513365727 0.5541412382864039 0.6242991297940019 0.3877034814607075 0.7293899340578786 0.5392182414105706 0.2135920356855554 0.4611264134357128 0.4907400362850693 0.330185543451855 0.5636384319561999 0.903656876890597 1.287744246994121 1.061389822277299 0.6663422907518836 1.048538612737012 0.6176800666339867 1.023918376081563 0.4802546379766975 0.1786925146465762 0.4056586144963024 0.3885563628166276 0.6243659902218687 0.4734293007671585 0.7278275433006008 0.9652190787037607 0.7513388537975337 0.4061990788074609 0.6831631004120527 0.4377000071959553 0.6398187676703824 0.7336221982408119 0.2039683881746219 0.3605711021812689 0.4069656787004766 0.5120097436273346 0:45 
-1.090302638227787 1.4961475864097 0.8678070075343747 1.147130660891476 1.432566074881907 0.890810622563443 1.444018978060648 1.480402659204685 0.3566265720843626 0.7166148357135584 0.970177888377507 0.9321287937199183 0.8008692876661626 1.377806078548533 0.8252456829066945 0.7001326016254992 0.7557267710957811 0.8631307942531465 0.7603529959089688 1.029667325815572 0.806836552162975 0.281837821572024 0.7126582948004377 0.6248269092613469 0.6149837722668615 0.7764714381372469 1.626832782945517 1.079584224692765 1.108260529567359 0.6624719513152775 0.9073757240344192 0.7274319268958499 1.257922838067167 0.7759840557540817 0.2343763169933545 0.5680475628609395 0.5471753677602903 0.7516010055343072 0.7023258563512805 1.996494815252953 1.199541537167728 0.861185711451483 0.7587714933458229 1.093357238391824 0.9329749001353027 1.295559961835333 1.122593573575508 0.2636434292701373 0.7606867014866578 0.8577807323425012 0.9391672233551986 0:46 
-0 0.677869486624316 0 0 0.3983290960835038 0.1422868264697256 0.325907954003052 0.1113989870929335 0.01540857926901908 0.0725825042941487 0.09728578865011711 0.1457486049692576 0 0.3629860603184371 0.1202326671359731 0 0 0 0 0.05460219444072983 0 0 0.1378837391699767 0 0.04568110688907769 0.2013162259649099 1.021534442297367 0.4680685534427117 0.004081453014356143 0.1478023891037509 0.2346330199915894 0.1466524151998655 0.3529418800080711 0.1130640093588318 0.02243460083955155 0.1914937722158766 0.02918329484932175 0.261514014862204 0.0439219072978235 0.7049502284550837 0.2187478276385347 0 0.07181554670886102 0.1989260223435434 0.08261282076229955 0.1181746915633323 0.1247706722542948 0 0.1683273961296161 0.04637598671516951 0.1051438427053862 0:47 
-0.7992587564192321 1.404951107144839 0.8897639622212192 0.9458134648584507 1.19913581582867 0.7035830975905384 1.583888376600737 1.30265261487572 0.2699902530740234 0.6670504187886603 0.8216146978642955 0.7539429948020211 0.6123253199726989 0.9260790521415745 0.8015896374622634 0.5758309245652335 0.726804954458425 0.8227149603509785 0.6000612962117045 0.9694158426488484 0.6660416136445653 0.1870462582772281 0.5389294995722694 0.5258770414694596 0.5931639028900207 0.8004991532882894 1.622126907429882 1.256070095668495 1.05789476293977 0.8921548103841138 1.14173497541399 0.7675343930724006 1.450455939760118 0.8630278829486168 0.2737532709399269 0.6857919133894473 0.5241810025121686 0.8752306107348689 0.7032177212795798 1.667802544036065 1.267424981366771 1.001523927982509 0.9153024435895293 1.097053127262692 0.8793744879549905 1.369432622918195 1.108245637974949 0.2879355376947946 0.7117217662394439 0.7930417725265134 1.023515720449482 0:48 
-0.2319459663818362 0.484597344862074 0.086408781282465 0.1306325722856927 0.3678582902337417 0.252846363442883 0.5733780185737829 0.3454147177284144 0.1444923789554021 0.2391818657806352 0.11528291413003 0.2658814294873365 0.04991861115714016 0.2573381519374182 0.1256808116072182 0.01262053898380813 0 0 0.04972331211230974 0.085496446855994 0.02316771250676782 0.003638557331839936 0.1223437199840231 0 0 0.0373365844465019 1.096645076200439 0.4663309762938976 0 0.119129673621917 0.2408314271433526 0.1704442443621146 0.4152233328413912 0 0 0.1278182407365742 0 0.09116197469835098 0 0.8031866465253302 0.1493267821086709 0 0.04850888465868028 0.03515679926205589 0.04626329674903121 0.1374805570969287 0 0.0288851391320036 0.07906691249784428 0 0.01177706884239931 0:49 
-0.672432310284941 1.787595416578482 0.9340353965893901 1.289287062307829 1.337058268636625 0.7054727484485041 1.352900995278413 1.005548453414241 0.2383079945726473 0.7465529825215148 0.8206281739483584 0.8590596650206622 0.7448272966247738 1.092664322496057 1.123979502060381 0.7503525265826615 0.8682822357833224 0.8561245417796755 0.5889070284734006 0.9531527316615065 0.5955759775807095 0.2353662407167199 0.7147075885476696 0.5782464149792386 0.5451338959908597 0.8076636759960973 1.181686820350819 1.619842396876726 1.292202036413405 1.050045574658155 1.198372067802782 0.8598852179319093 1.36119088829332 0.7162386948761403 0.2422554670879475 0.6951001768467236 0.4968748594646115 0.7971216125339173 0.5780968202837585 0.9423245013163921 1.310558390606942 0.9713379703216451 0.7698821167568153 0.9565326380044068 0.7083205794406597 0.9746696918395115 0.6270746529411756 0.1804754177731994 0.4956136371971164 0.5011225758017759 0.7064824650630067 0:50 
-1.152977366180505 -1.160928713418555 1.00239799436479 1.637212653510904 1.997775768185352 1.067124587362383 1.536315955181439 1.290271573616786 0.4648386596264379 0.6518273390718863 1.308025206881719 0.9658994941938552 0.4664677433030519 0.8851361599406129 0.8184175193510167 0.7179750087619023 0.8526955217742261 1.015502222423505 0.7386473917617388 1.012078437568185 1.009030999668821 0.3656329392645559 0.5242233631337416 0.5590554476527041 0.7592441202875375 0.5339219298686197 1.431848534992536 0.9862275160412377 0.9985803934989241 1.447434365785794 0.9275676980629528 1.10207121351231 1.21119875927353 0.9841225455818118 0.287402061223193 0.7156817081341825 0.4999139406753864 0.9910768178751629 0.6910780254885581 1.039345077035607 2.080775995706422 0.7491717964171065 1.147424137255328 1.118973238311653 1.001801635509166 1.068308089535482 1.217031065226359 0.3690372981020337 0.5371727683495665 0.6725520121542662 0.8878037975270088 0:51 
-0.2951079934389169 -0.6043885347860878 0.328211459727443 0.1999137290857694 0.5429217728572906 0.07054948988068981 0.2948640953369546 0.1484297596515298 0.1827765887048338 0.1113952341349085 0.2624372510496568 0.3479851383836384 0.1444020137449265 0.3334122071593311 0.4090935517407726 0.181790047087769 0.1313609229317536 0.180007077074913 0.06027555970821288 0.208698658806296 0.1829569826072953 0.11304659518481 0.2202298777883253 0.1585283712798854 0.2585905439246628 0.1852104305249044 0.4546023238704604 0.6160301984071068 0.3792818523257066 0.3119452776538986 0.2273760672464899 0.3482545392549803 0.1779298375243507 0.3337367805107407 0.1577511553234268 0.1994643236454337 0.1393680869445954 0.2747077551054328 0.2383695471889918 0.2018873717099062 0.7051851161392897 0.1945321554279714 0.3895166094366406 0.1889026711825731 0.2338707479986741 0.1040633015992576 0.4843011225648264 0.1543314469782987 0.1556230492792827 0.3845573502093861 0.3240356498092899 0:52 
-0.6163560446837971 -0.9595387660144293 0.3728804399229083 0.7394936869617328 1.147720021185838 0.7462381763902409 1.103396657210001 0.5835210253301799 0.2575038808075371 0.5001400934150445 0.7544909333471681 0.5580550346000014 0.3685501506924846 0.6793259118434997 0.7276109358773303 0.3844273304971768 0.5727981681613458 0.7148640352930268 0.5294013915946445 0.7938864725800159 0.7051318942920134 0.2506512592478359 0.4323212342977747 0.2656739936102575 0.4204025041920632 0.4723068582880507 1.062081043677845 0.7892152922561211 0.6777040559883321 1.13942352038747 0.5541753000530024 0.8121949393179585 0.8513173248275101 0.6501114066035717 0.1793054306244036 0.4408038804577681 0.2798334482014428 0.6111067352908982 0.4221383141717226 0.7291460217756254 1.422634586545795 0.390135694026174 0.640148099566198 0.7322342437115789 0.6394033060162693 0.7739306906405343 0.6363330226213452 0.256755666262962 0.3056887610851232 0.2003459351836433 0.3142042565164517 0:53 
-0.5698731603070032 -0.523210286981253 0.4878307195829235 0.7938509274667631 0.9837538965103836 0.310235468702551 0.7285725614899987 0.8014192349772595 0.2764622998393158 0.392158936410733 0.5160267845309988 0.2779129620239494 0.2404076441651874 0.3873221842753121 0.3349534641583929 0.2837980312551878 0.287134135032816 0.4172895046592698 0.1978631569008273 0.4199029262494976 0.320567631686327 0.14787487614348 0.3122452213756992 0.3279933779572221 0.2998493588312366 0.3272883927713741 0.5356604526854382 0.7717308523877985 0.5010037782957398 0.5912373803565069 0.5738462639914836 0.4235843700862718 0.6540864990697529 0.4823694419150761 0.2238875361977934 0.4173849938464907 0.2325086945898938 0.4151484370986367 0.380879521949119 0.4834990434191495 1.298024814213273 0.5032291951993429 0.5976227391178079 0.825699385927428 0.4393921725898977 0.6497274260447902 0.8248985535628627 0.2621021222274484 0.3910191440862063 0.5818780182959109 0.532343346792952 0:54 
-0.923992999304344 -1.341310525832831 0.9476655639054465 0.9087819092321523 1.737697337042458 0.7261841029955411 1.025457608166237 0.8732282931034266 0.3197148742783816 0.5621426164366996 0.8778336755915547 0.9441342332331646 0.5689528704413593 0.9865692505413182 1.120098694740759 0.8144975747524246 0.8135657919210975 0.8933533072097108 0.5850390224659556 0.87401844513587 1.056226907262505 0.3314516442238071 0.5348927434486158 0.3841654387476338 0.6357097310887727 0.4989308371825813 1.089041082959464 0.5454751806457158 1.022256320911944 1.13827994280108 0.4654930405010504 0.8251312500624401 0.5828571776327497 0.7571097789688311 0.1454014647505613 0.4516189652937527 0.3860872704332741 0.7298282638694124 0.6240315452536789 0.4392502335676569 1.188220262960247 0.5603124077384817 0.6879725531162401 0.45591837790245 0.6170015919774577 0.3557669940216515 0.6836304631333998 0.2385786322187614 0.2129243742066005 0.375589069824506 0.4477354476511168 0:55 
-0.8339510002345621 -1.221745525268507 0.8067282572866381 1.665132610600608 1.357953526897195 0.770772928412417 1.362403813079464 1.502220096163218 0.2739858611685457 0.487135303085109 0.7578333877910957 0.6226481923414553 0.3822310607629215 0.6844125589845754 0.8604066216921713 0.4070422523357289 0.6850901523809777 0.7312744593221088 0.4334522209910293 0.7491451188776791 0.5991659238498978 0.1961667618548472 0.429971424615963 0.3929694637793699 0.4741703553907574 0.6348008436640883 1.030846573193366 1.364847380882183 0.7928224861296633 0.9028228300772612 0.8110120985543737 0.733333831168437 1.256179699306163 0.6617035437488681 0.2300207004866476 0.4639954185898764 0.3085819732177029 0.6310314231419185 0.5366164950321037 1.054576126006175 2.248549512435797 0.7335762363575401 0.9025204493253602 1.214602819449573 0.8476872830385855 1.32818111929015 1.154956034140452 0.2621486557429156 0.5729144716255599 0.5973546660599329 0.7601920565884566 0:56 
-0.08593153617429995 -0.4713420021431989 0 0.2928221819992997 0.4811893531595924 0 0.2079651698237183 0.286648204492366 0.06357218329246865 0 0.1089381597146821 0.140053113439319 0 0.03983157420291417 0.2043904275489791 0 0.01351237756467048 0.08638443480865084 0 0 0.006709792365444247 0.006920743359116281 0.01119065121577632 0.09748800996825201 0 0.06025721129923296 0.1688297761646237 0.6845527465280881 0.06490041279587114 0.1577532884965155 0.1975632790165127 0.05430131775989704 0.1184421189273093 0.1638361058938499 0.09315317028518083 0.05403182061556135 0 0.1110363595256115 0.08393171682970291 0.0396742527209893 0.5578848925506431 0 0.2065084389721638 0.250183970500402 0.04482232792216975 0.01059328419362671 0.4157276001612109 0.07191946996998931 0.06411416679867213 0.2087237275914732 0.09408489996905962 0:57 
-0.5732183959038046 -0.9666111078245264 0.3743566301431014 0.9773193134563545 0.8735902040118021 0.4485399402166593 1.260976300807134 1.050714743621871 0.1328299462510373 0.3986617378935213 0.5718295569826295 0.3268128008818973 0.2839511270375514 0.5616291792636732 0.6412683206930478 0.1758293276135688 0.5052119278652534 0.4717373222441807 0.3071170016286367 0.6764797771917389 0.3693292495710408 0.1220007179689961 0.3005440437881864 0.2670055774761148 0.2526756775301739 0.5846808100971914 0.8900223969921891 1.078870256198807 0.5046939156275052 0.7004453834562215 0.6388001248712853 0.5695473858744537 1.127067252907374 0.5200759443140409 0.1413154482028736 0.3032021632364738 0.2609264569754681 0.482426575109328 0.3388954139841274 0.8191838803919719 1.456736665580095 0.5100888579375172 0.5017431241743213 0.794802332777155 0.5994792545615293 0.8042254170573331 0.5898692234166738 0.1459423987104731 0.2835139033979339 0.2130665259710271 0.3480367655627942 0:58 
-0.2396827507725712 -0.4688399440310797 0.1565895636185513 0.8558035407915016 0.42599300095099 0.07111308726978419 0.5210362891770125 0.7130320036762694 0.1264681002689158 0.1574645950523898 0.171137306517794 0 0.02296536258946165 0.02030289053170165 0.02999771789324852 0 0.05544104589368213 0.1004722079398739 0 0.03479222339661641 0.01583420950617427 0 0.0905505658895408 0.1079135410907661 0 0.1988998316355652 0.1682051724315265 0.7169793991539509 0.2722754152485713 0.4547620094685023 0.4361770180481677 0.1686130227650178 0.6172479328344442 0.2029509718403147 0.1242314681130552 0.2265635230255794 0.03431709397733179 0.1331838528717375 0.159610531994502 0.208652254631032 0.9064779214157374 0.2216149110557689 0.3828931192488881 0.5974988952702187 0.2019078521091548 0.6608976798636544 0.6157890592326776 0.1018771307387087 0.3218064100630957 0.4049909175743204 0.2892657223551039 0:59 
-0.6230521272735321 -1.251712073096942 0.8503498715834609 1.345090431393316 1.405541320262695 0.4788230565329106 0.9525185200291931 1.376593527733017 0.176772774361015 0.4348460243414374 0.6908795401487823 0.5547539659700208 0.4045775639214997 0.660918226764287 0.8944003122501227 0.526170136752001 0.7354162928492853 0.6533306093466573 0.3780959577042214 0.7981957947283228 0.5392216686478497 0.1704981441409778 0.3815882948694657 0.4542151055118208 0.4044417504258651 0.6171673790256034 0.8640757052580391 1.120670769589199 0.8219641685021153 0.7523157947932204 0.6806908801133342 0.5755076747624938 0.9331397506953906 0.6100382147065251 0.1398292317524343 0.3466533276330344 0.2921518545504806 0.5939070255435258 0.453740434989666 0.6903885056415819 1.346530568237649 0.7086960918205781 0.4946716251713562 0.6975439183277183 0.4795283506144516 0.4717934864197806 0.7675403012502736 0.1645362475459166 0.2501592771385309 0.3015384806009218 0.3852973733155023 0:60 
-0.8658652339423389 -1.596091192331324 0.833919161999139 2.219538443081856 1.430629730989576 0.7138975551785526 1.419071318536513 1.551461209003027 0.2328451284422278 0.7081366967764001 0.6892719633852474 0.6899776515744835 0.5388737393031552 0.687593330096661 0.9287615490689219 0.4176351481931047 0.7863296607494926 0.6744481620082602 0.4863439039782708 0.7092565893990302 0.5520237646720548 0.2256682150391373 0.4882616234772749 0.4880836800895756 0.5094698531195787 0.6431421905843424 0.9070617006784356 1.835041926881817 0.8618152510134575 0.8144531045838117 1.275812219860274 0.8421158969582966 1.409861981661066 0.7055092206079506 0.1913632278144355 0.5366288759675163 0.5040141436500123 0.6809647858212391 0.5629977987087911 1.320423424245382 2.359674322137567 0.8330293902923532 0.9360768092469476 1.366494633547141 0.765494143289396 1.518748669355826 1.380147363999501 0.3149751660523752 0.7815072551548777 0.6403249929770123 0.844621830279948 0:61 
-0 -0.2912702643304826 0 0.3453245982434323 0.4381371548551817 0 0.1495299395488905 0.2688217461994977 0.02885869019391608 0 0.08397507514738968 0.06964801885202894 0 0 0.1224192178242384 0 0 0.01176197102402067 0 0 0 0 0.02265155474028996 0 0 0 0.03632884351920283 0.7915420539874519 0 0.179968865678432 0.2179392447461982 0 0.03725390724419676 0.04253974466662188 0.06355395419116619 0.02747007294383294 0 0.09521096158134616 0 0.1251849257217528 0.5305111750541217 0 0.01050096415011068 0.1817452140411517 0 0 0.2360799887969652 0.05953689021595019 0.02621675402247347 0.1491886127752489 0.09820562710737954 0:62 
-0.745287233044402 -1.380477227002729 0.2326739563313418 1.271824973206553 0.9147280715316793 0.3901498946319865 1.465627073218504 1.117391444401378 0.2098869532866618 0.5941497816804155 0.5810955981233535 0.4850306022360884 0.4161123408049185 0.5519471834179229 0.7084974352173218 0.1679978845817108 0.5235016155425467 0.4796706704119942 0.2607824694204909 0.6627486456317742 0.3104652028021577 0.1742890992043338 0.3646601682828545 0.4131105266617098 0.3188300553090591 0.6497200648686907 0.8556594925571739 1.665204360732443 0.5963725785565119 0.6945140715662373 1.126844055040011 0.7275759129631484 1.27144839594247 0.5998416795354303 0.1564346705813578 0.4282850562419339 0.492014341878758 0.5571067327359032 0.4035106912699635 0.931706049950319 1.632238821135175 0.4787771848639722 0.6340710576296984 0.9209576903819247 0.5369001150621697 1.128830402930141 0.7653052911351694 0.2366154370910965 0.5011754326046399 0.3870762775660984 0.4120112031186935 0:63 
-0.1804018489732648 -0.3734095815085082 0.1552032982290969 0.7604665189108721 0.5715139668363274 0.1289179523990826 0.4867652510826214 0.5668987733873415 0.03942141766401472 0.1598940792928314 0.0641129908745844 0.08619631566947189 0 0.04473550601030116 0 0 0 0.07723831893331037 0 0 0.05226982867263048 0.0009186217317655445 0.05662684086501873 0.02600153772850459 0 0.08980993588654064 0.01740449628393024 0.7955311455237642 0.122370052134187 0.3620300115359692 0.5205802858456344 0.101439978711217 0.4415041453224328 0.1357902927393151 0.07332924640467813 0.1781890471066317 0.03122671759659778 0.09315005062047443 0.09701559856096323 0.171117450615102 0.8545352182540188 0.1333909193637808 0.2080668554797958 0.4648339051446447 0.1271939454004174 0.3992337200124362 0.4611523974481557 0.06535793953409223 0.2432990235349027 0.202919911169903 0.1801809629674244 0:64 
-0.8579067369341459 -1.45765662650074 0.7558902723263944 1.864994261791175 1.298725114336021 0.3892417510066942 1.062361647270515 1.434493062447459 0.2355296440540373 0.629871457906928 0.7384551023013917 0.6858469091432852 0.613275489533305 0.7498239186766175 1.178776971566536 0.5287264389441481 0.776526667624854 0.6739630720202261 0.4440177782756328 0.7409876736750834 0.5460838550350701 0.2873780346928549 0.5477716808272082 0.5589828356540326 0.459056436958333 0.7121392280546008 0.8346367391092142 1.872903856325687 0.9276515323015534 0.8248778205019113 1.188484152110534 0.7139290939230531 1.104477632132884 0.6900473696820032 0.1943151859190506 0.5078752079365458 0.5295342518479809 0.597040171913407 0.5590151755668628 0.8946427361145143 1.559394965662089 0.8135457295304944 0.5327661123957882 0.7587723695962726 0.5134784669273382 0.7168526612048303 0.8320217391518815 0.241259521099738 0.4714780889665016 0.478534446232565 0.4595623817976927 0:65 
-0.677075323463616 -1.452429951364572 0.7292996224120131 1.59300287735164 1.385074113297321 0.58809521143971 1.436324238322191 1.36150426495997 0.2723002608916414 0.7820050373342657 0.6664691190667492 0.5817463688344385 0.4737397609627977 0.4968616551809574 0.679808572035297 0.3947408933596789 0.6088651656504187 0.624564951202937 0.4658196670483491 0.7228239917465561 0.4362576194363035 0.2068612618969945 0.3811185865283042 0.3581295916657956 0.4520984596133502 0.5583084612976529 0.7761436926131401 1.525736431091046 0.7571845982820242 0.6716727534232216 0.9664182528637074 0.5456860464721193 1.179166044059066 0.6213332679294267 0.2127255280257259 0.5064305755062758 0.3838218303929773 0.5696897336233325 0.4523800135741837 0.9787211009916865 1.926636725639495 0.5969140628842852 0.9680990096745166 0.9845076772095019 0.7367987286433466 1.35358815346728 1.082148215094562 0.2912951282039101 0.6814110946046138 0.5395296185627019 0.6583507519767094 0:66 
-0.03604643645499045 -0.6357498487016968 0 0.6723277423583568 0.6924894248444267 0 0.3651449192055632 0.2626956280699505 0.03182628119947851 0 0.15822505353179 0.1852227791848966 0 0.1620179371283146 0.2734067007621879 0 0.1391593922761824 0.1664930381645874 0 0.05003014306247394 0.1059592886330631 0 0.06849835716894161 0.03581946339115864 0 0 0.2714059018855374 0.806711895278785 0.01749344020032759 0.3441658334511015 0.2767616791698078 0.1108315024281674 0.09908283519046289 0.2475666219374253 0.05416698916628607 0.110738395106244 0.05135511038785669 0.07162464505813038 0 0.1722712688878447 0.5108119043875581 0 0.2499150026730566 0.4151721641344602 0.01579180785141438 0.01363808636802456 0.2445388259888167 0.02671353860024822 0 0.1378340491371946 0.02226647179514759 0:67 
-0.4726288242874451 -1.113725580662759 0.2550723589201 0.8300181529880551 0.7724197628417447 0.3106690852479101 1.329432334101923 0.8697124342224322 0.2197741776541458 0.6642916701252041 0.5803264831263047 0.3824569038508827 0.3161266919676672 0.3084354485944896 0.4320462229804189 0.2476724071000544 0.4781079708295752 0.4013513695297982 0.2774262524055843 0.5960301984523136 0.2350260340410486 0.1659007649275177 0.2428100209008918 0.3050315938080153 0.2871082062291386 0.5581820704493279 0.5755502128373893 1.333701781824248 0.4819648114097402 0.611973070541842 0.7443058855088869 0.4618749655758901 1.021832649401613 0.4657528572317636 0.186947847638923 0.3956955892937148 0.3916294111888763 0.4852989294069637 0.3310389391150795 0.5847885877835828 1.088592475044011 0.4599141753335306 0.6906107625278953 0.6522364988994617 0.5383711317444594 1.037961743145536 0.6222112980815383 0.2170447063797293 0.4513162679556263 0.3439277971229424 0.3653219746828772 0:68 
-0.1577096366969231 -0.5415790653762159 0.3279048294768668 0.8959013613734117 0.8827259147464781 0.1109295457858182 0.7217217022642125 0.4062515228433065 0.08289060981343661 0.2808328074779849 0.1476764598185612 0.1227148765659975 0.01597029308405192 0.04530958516579543 0.1141506406845774 0.08033012636735981 0.02857914780472905 0.1904619395403031 0.02493384874075445 0.05530400401011575 0.07212834235854904 0 0.09810843406682561 0.01609871446271 0.07052518483710132 0.07271748230845614 0.3109787277916834 1.097940681136506 0.2424928218495805 0.4601691478857384 0.543644502227915 0.222244600237858 0.5398090821852859 0.2276513745161377 0.07847222048865232 0.2575616068442649 0.02829659593891238 0.1319744071375659 0.1418220560185529 0.2765497397803196 0.9140704552314116 0.1445523384722527 0.385117473685178 0.6010316324123997 0.2230426015700896 0.4435781025534887 0.3879783355589005 0.05291092824121666 0.1493256486634407 0.222127978904334 0.1765875720063267 0:69 
-0.6052323422768071 -1.421713080922241 0.791572402663646 1.477541608061382 1.235073878374344 0.4101693614168853 1.106643012450835 1.211665091072056 0.2587116959958792 0.6462639591526013 0.7591523306906733 0.6639276280494957 0.4630823163834427 0.5477288282452852 0.8970226992474268 0.5332881855314194 0.6972120988291596 0.5849219865054339 0.3602767738445259 0.6872477269769924 0.4930370555688962 0.195642658038005 0.4178442112157674 0.3954391199655358 0.3446868258285143 0.6367551106693757 0.5672850486337384 1.579984370767373 0.8962514266740774 0.7580282124535638 0.8242688419833389 0.5238414626284276 0.8941077388585347 0.6306017335474795 0.2043950748240452 0.4148331528578355 0.3801401964180693 0.5036290164602705 0.4408091572027096 0.6784392656885062 1.17583694440275 0.7578704404056719 0.5676999231296463 0.6475184335517772 0.5034189947312397 0.6610791943625715 0.7403143649403492 0.1896001503818508 0.3339599530964014 0.3131974792493365 0.4170141717158519 0:70 
-0.8093967063937505 -1.043214239035065 0.9942784667855149 1.555959397040959 1.295422732958637 1.001209936254201 1.238701471137416 1.269970944779014 0.2149053297571422 0.7074565638837432 0.5756915557325072 0.8911486240841393 0.6290963337807928 0.7449640841071817 0.7520882349438474 0.5626724851936963 0.5602677031912329 0.5500812330425023 0.6877109789535312 0.8042589750315526 0.5050566689835272 0.2297389314168438 0.6002545140821184 0.5219845079063111 0.4963457211238616 0.7121983572555436 0.6138093346097093 0.9064326863718627 1.019472017142344 0.3539219516514871 0.9078643582292306 0.5797447666153184 1.183211460310462 0.494313575479425 0.1884846226335335 0.5864526193753458 0.4079793549791804 0.8243629582415396 0.5376894559653057 1.109755221620014 1.245025991231432 0.8744072253506138 0.4449796632948812 0.8421492999066076 0.653330686297256 1.08381440002215 0.8493349144450413 0.2277011744197125 0.687131646619018 0.5542396161041638 0.8992072690206436 0:71 
-0.1132140034466977 -0.3511472448576801 0.007353662108201829 0.6231228806213882 0.9929349869089943 0.01450833983220968 0.3216284644061567 0.1862433696847751 0.04756204416349922 0 0.06514305817266783 0.3803527094297179 0.150891427447842 0.3392920144499932 0.4974220986725394 0.02748076651474069 0.2558338367490977 0.3026263163073052 0.06111113109379785 0.2530858942515152 0.2703525914943143 0.01488885833600326 0.1800110580978039 0.09363295748606196 0.1390107780878917 0 0.3549771651422335 0.3917232861802066 0 0.4600351044621083 0.4411040724406794 0.1207914011859423 0.2956503644744746 0.2383953114860724 0.03114353624410156 0.02080543025974246 0.04685580416031351 0.2668081594166684 0.09133362772689076 0.404849376687546 0.7042373392143763 0.1336181269339251 0.2701952424131634 0.4105317235699911 0.1337749899266118 0.06194412888279504 0.1093598315411482 0.02115550819465632 0.04756791624743845 0.1830389286980366 0.3855371212160989 0:72 
-0.6313277705193554 -0.8055471486627409 0.705422153722674 1.163133711412551 0.8996950897289133 0.6239655224288401 1.015511439741946 0.9621797786874006 0.1790881680582991 0.6119670110872205 0.6263601902564394 0.5831938430002653 0.5653682489136652 0.5950613888415456 0.6128927566695107 0.4784536373769411 0.6031284666757475 0.4345632022263521 0.4987481550231356 0.6811546025608592 0.4427722583698496 0.2389122769740965 0.4678411262622441 0.4931470763057515 0.3987778860339213 0.6929573874749355 0.5499591694010629 0.7848558472019379 0.8161314061265839 0.8201530069497085 0.9039180100395475 0.6183031254568377 1.025431655884161 0.4400054996305363 0.1894894747579615 0.4720021246943559 0.453623097128297 0.7688587995642104 0.4199214612658071 0.5928199739529143 0.7134084927432783 0.6056893293193479 0.4291620883707364 0.4640530986896039 0.3988870235446938 0.7385206871937535 0.3942952138301658 0.1942493341022961 0.5372234570882727 0.4283348375394633 0.4857351494131538 0:73 
-0.03737818084722937 -0.2945843161190767 0.05576976432556124 0.412511813985437 1.076014906412941 0.1990174801007158 0.5481376888613912 0.2063167001094095 0 0.1411312956483771 0 0.31756302037879 0.02833847852377426 0.2138698340561223 0.3410109905972081 0 0.1043661134089857 0.2553123164258574 0.05867090515168873 0.1798373140255089 0.07708909682171243 0 0.1643631326151294 0 0.01978469296642386 0 0.2251522880232092 0.4344446956459158 0 0.2672630492685336 0.5197253599440691 0.03403824369220843 0.4754180970316203 0.07640470363466689 0.007540978288659305 0.1085256630416977 0 0.2164933315959155 0.1148166857550274 0.3567203809247467 0.9094387871758641 0.1365624587155569 0.2559991554280502 0.5007315960147463 0.1589683852929473 0.4087973969058752 0.2290681007486307 0.02487172747411163 0.1863429555707121 0.2426829236796314 0.4799805492952866 0:74 
-0.7646297591777497 -1.090351160179738 1.123696206469118 2.047812067760311 1.286407549885083 0.8412501322510176 0.9198903148312241 1.111117792994874 0.2452132351038837 0.6286094426303617 0.9236040191006308 0.7923398169483351 0.8171912670441688 0.8891381617622848 1.165981649137937 0.6883406604191312 0.9068449913860255 0.7218845470466166 0.6892460869022294 0.8188186191293438 0.6750149136564872 0.2920008708876674 0.6445440227837681 0.6870948368045127 0.4028713161099055 0.7566300039028947 0.8440813191228475 1.141299156672457 1.204705617316653 1.177561016630104 1.253497595545434 0.8610364820684449 1.174510330069124 0.6892959003269319 0.2392230643998081 0.5145094082626864 0.5223273824720601 0.7038698461203913 0.5713677107182311 0.896761379519874 0.962499825817916 0.857796399633349 0.41777409373438 0.5120503892445448 0.5414926328818805 0.3556774674764905 0.3637051333789118 0.2005661249135136 0.4370330194935201 0.5013271161367834 0.3921091165209544 0:75 
-1.130772767108995 -0.7766721699293766 -0.8597509490055157 0.9032160147569767 1.014134996132766 0.7538070936203364 1.045430469897076 1.039991149834136 0.6467042776523414 0.6757038876650945 1.268438149980597 0.9640573039761942 0.5429425575939869 0.5769904621054854 0.5366589135230782 0.8735079661537557 0.642098923349831 0.7519132657281411 0.5542883020483794 0.674216922215269 0.881576236792463 0.5158360645280491 0.6262648227356087 0.7935433091321992 0.7562999292820822 0.7064674255093559 0.892861563091243 0.4672822299568902 0.9561147075665766 0.9463703359296414 0.5364823211957267 0.6596800248705809 0.5819769267033688 0.8211218286571784 0.4741060918592278 0.7822969043269262 0.8434372714235002 0.8975157724477084 1.021087311333947 0.6722887808370355 0.7753377922115176 1.068130606707759 0.9021455140385537 0.6555596471751007 0.8421242116015593 0.6996228259223604 0.6763128686554662 0.5295376851594682 0.6114387043967398 0.9617479700665369 0.7243724591957369 0:76 
-0.1754907989631855 -0.2271505759842735 -0.2834605454890414 0.06377846528097644 0.1077334927464344 0.08959856571392205 0.1210262771152656 0.2832360252913466 0 0 0.0809733003443604 0.06888881889804724 0.05371011027600855 0.1822983315497628 0.1516820616499153 0.1160788490055943 0.07047603871443593 0.05909229291696413 0.04694279718770289 0.104001159461195 0.1431023953143363 0 0.07890913773089102 0.04203367867572655 0.0694459779938091 0.123198992815094 0.3322554784287711 0.2219763246505185 0.513215855866717 0.1912076283408023 0.110705576388544 0.1474597745388641 0.1857392273278539 0.2865370018525953 0 0.1153165757628843 0.07587632784003211 0.2036061541290941 0 0.1997939426931443 0.1655644227384848 0.3391326861373202 0.1672502516953779 0.101012942341261 0.1113978524307057 0.1985703156089672 0.260856423508494 0 0.08716807989566921 0.02099168393757232 0.1579659460365356 0:77 
-0.711660613783371 -0.5012908906884569 -0.5157875645062546 0.4485321139097559 0.5310100684279591 0.553979661119736 0.6447994918327808 0.3129241238747197 0.3489816578186212 0.5475179344921197 0.7821614478186504 0.4468069180483623 0.3907259748684291 0.3774358040427266 0.3393832842812931 0.5652887273265172 0.318071802810921 0.4626125467712102 0.4026265253342931 0.4780839344946347 0.4647463875775057 0.2962527077758377 0.3660856273289448 0.4885725983995516 0.3538956358688488 0.7235567350050459 0.6577383353679963 0.3493809361767757 0.8228071544447917 0.6306952152116699 0.334150226023233 0.5173840533115864 0.486816414250456 0.5175919374904749 0.3015835778705622 0.3776707718874386 0.4793097944072655 0.4471766482215967 0.6632212757804762 0.329012701302942 0.4028378070838236 0.5622727253360684 0.3896238314050769 0.4067143377900311 0.5063488913198051 0.4467379883804666 0.3843186809379688 0.3425668570994703 0.3870132621220764 0.5425125022914081 0.2944400137801061 0:78 
-0.2900110439904308 -0.2998388552438515 -0.1911633515768811 0.2230836281519657 0.1611967262628068 0.05597034532352001 0.3792434882130966 0.5186946587684416 0.1134505644234238 0.185804665449936 0.3020822349668341 0.1122166973455018 0.1757356236948157 0.2824917091922932 0.1957655959194942 0.2667835461421333 0.2114776565406948 0.2529583456129063 0.1533120147820977 0.3296628409966109 0.3140469438124091 0.09635232258318055 0.1726993003193836 0.198671368022715 0.1646284348610243 0.2066654014831102 0.3357379971688144 0.244236634330345 0.5459133141786199 0.3322356208886448 0.1955019690847959 0.1494939999543616 0.3917120630114523 0.3894565489831928 0.09041073439850077 0.2697558298300554 0.1289343226236908 0.2416533200898544 0.1891300438188648 0.3783089308820922 0.3612022677021289 0.6954681852947232 0.492647242799707 0.2874402599230496 0.2714715955216156 0.3979223402989142 0.3445192793442121 0.1580277214034488 0.2370398440150481 0.1773256828712643 0.2257719290073581 0:79 
-0.8888065806829458 -0.6583129299364391 -0.9718310250545382 0.69355579150591 0.7622392146642367 0.7825708991171669 0.6874279827379569 0.4281041062246152 0.4387178272610082 0.6049718285628811 0.7207026629028457 0.577278672942438 0.5382669377724776 0.6054970103593841 0.6027240571216019 0.6540524232152943 0.5136615678525998 0.6170028375750085 0.5308160310253284 0.5563680459289241 0.6769444882498826 0.3016538961241522 0.3159162680250795 0.355115533043043 0.4876052869594296 0.5819251196816907 0.8536962470456431 0.5331498268000995 0.8575907686131715 0.7827091768542784 0.4503401725394161 0.6380723409751194 0.5099550674135753 0.5894148068305336 0.2407414926402325 0.3823726883670254 0.3131439504162407 0.422604289446117 0.48089707980938 0.3610033255496197 0.565643105097693 0.5342555580746911 0.45830072007138 0.4705953656903343 0.4757504267631866 0.3828392021503998 0.4335529967136521 0.2731512357197364 0.2693035578627824 0.3637515362350032 0.3527129084317386 0:80 
-0.8176928909917459 -0.6583144960899249 -0.7249806915868682 0.787664022105809 0.8468677893699543 0.5848967549965588 0.7768130193519508 0.9205794909766847 0.3998625187376073 0.620226439280042 0.9180597095583317 0.6548882875306565 0.5266325798949381 0.514039500321155 0.4746379458404431 0.7930490073062492 0.5039045500904594 0.5146869719064077 0.357912713542449 0.545579838147591 0.569904216899523 0.3618016073178394 0.6341247356219484 0.6231916323610391 0.4531850955794185 0.6400584056103606 0.684357247738427 0.5342746985489812 1.030475145166209 0.5776644515624543 0.4381148381718836 0.4486428028541303 0.5024179819450153 0.5874002856958467 0.3544149506053246 0.7986226579668478 0.601552268482948 0.6067729264295157 0.8552700155551045 0.6135502466523899 0.6684530682437135 1.169192270488025 0.6811118747925019 0.5352364886689335 0.6036393298049835 0.6918247768856168 0.6713443652947554 0.4044604025142949 0.677279420918641 0.7755590305740107 0.5934374869972222 0:81 
-0.1635085658304116 -0.1230968654822516 -0.1704763792830943 0.1286802091600809 0 0 0.1237391246512525 0.320261861607652 0 0 0.1038933512252198 0 0 0 0 0 0 0 0 0.004761738884018056 0 0 0 0.02317344502342533 0 0.05657866540975413 0.03195160208767275 0.0449544930481688 0.0550934508735905 0 0 0 0.02130980442064926 0.1714947689468192 0 0.01258533901927781 0.05719214983182894 0.01861936503155812 0 0.0623288493224315 0.02384963249341022 0.1167808041223056 0 0 0.009538888537251482 0.06374517767299169 0.1092865242362034 0 0.01443090545016748 0.007695228804299451 0 0:82 
-0.4957464070112657 -0.3028881521393565 -0.3759306462395963 0.4335240419042378 0.3545395475019881 0.3560586548909526 0.4737468069551735 0.352702936972292 0.1592163814105899 0.4459552837380087 0.6303734181932165 0.1697833774079928 0.3112883642787728 0.2967761164004486 0.2292711936488162 0.4232468860807966 0.2230254022944146 0.2098832300448517 0.2114359062724748 0.2948587370090614 0.2594892419375679 0.1922580251393251 0.2890741484113962 0.4108422249513961 0.1660612912453564 0.6079574643829097 0.5122316199484476 0.3998764863892078 0.982930192073652 0.4483084300517527 0.3138534845175201 0.4159527618878949 0.4998172197781997 0.4070033332098998 0.2267055654737053 0.4196844992558957 0.3900096630229281 0.3012808939580127 0.5589090538496007 0.3527901702801809 0.3509044219299129 0.8087531589898465 0.2124073496363311 0.3079886469467112 0.3719927006164453 0.4339769157580172 0.3410533691002888 0.2139719424308806 0.296209271591995 0.4914266701203275 0.2589196588547437 0:83 
-0.2284476429630662 -0.1921456107353651 -0.01978667323524622 0.06037374211141854 0.07215908574513112 0.01546813645586977 0.2434984437176008 0.3689360366210345 0.0585851500696597 0.1295314895817093 0.1914929976705865 0.09645805271936093 0 0.07873342643442158 0 0.02424919619041311 0.04869224511207374 0.06914674765582855 0.007490676685156045 0.1288830478214783 0.06822544456324603 0.03145188813239552 0.09912045174706077 0.09625202938686822 0.08873300304485271 0.1577207051492424 0.1523419247671953 0.1277571491906945 0.259157350861151 0.1068747645464573 0.05957727692699512 0.07928488168896274 0.2348749490242169 0.2493838089278467 0.07826080930163432 0.1927853166671451 0.09257763375253265 0.2007694035981506 0.05329892672912313 0.1712860882547241 0.1343340449339215 0.3358053124458105 0.2656919812243249 0.1219574007824688 0.1266045944866055 0.2299349947892771 0.1779397516562638 0.1054427848536283 0.2078896863716564 0.1181473813164341 0.1397939228871072 0:84 
-0.6883166682455021 -0.6372203809373044 -0.9021449595104082 0.9340954071850393 0.7015916808290532 0.7000033546618245 0.7837461554317212 0.7088762354453276 0.2161955154296084 0.5830477252971771 0.8262773813338135 0.4684655280197016 0.4584374521589448 0.5772667796992719 0.5628547638545126 0.6083028777969899 0.4775138257349631 0.447313764473281 0.4201987426847946 0.5520266836253063 0.5445430698278101 0.2270249142893089 0.4045473573560627 0.410811691648264 0.3264014145164675 0.6344821811627408 0.7139246734039153 0.5790998374446643 1.030521697911703 0.7250866928114816 0.4874297547350044 0.6033980053148299 0.6920316377973967 0.5657042002814697 0.1704694993933379 0.4624177955112205 0.3599229074014841 0.3859609016363899 0.5044313210463022 0.4699847933572913 0.5658598346613077 0.9336895814099986 0.4497534459584369 0.4569166810833041 0.463834248678564 0.4721474414577163 0.4814317436427585 0.2007700642618584 0.283288337145179 0.4559980324925115 0.3560031123724517 0:85 
-0.7424393374714321 -0.6227191660291092 -0.7952122218928394 0.651513786415018 0.7812002924524528 0.423076886181284 0.6640325780867888 0.7032100518260075 0.3544843901681375 0.6488574777753587 0.8169920153809481 0.5517048900335501 0.422814984176046 0.4462348215769798 0.4687929265254423 0.7747114865201192 0.407296456014945 0.4021640489488907 0.2711172297647629 0.4392286440984831 0.5497636748442529 0.2452959510146241 0.6366071098590473 0.5232811257547277 0.3692804695330709 0.5021273265029464 0.5779217759111069 0.4870846939074184 1.216004830860173 0.5782779291510681 0.4274899340297909 0.46377990005841 0.4776064468845397 0.5238371728010324 0.2514892812311945 0.7529257179655542 0.5597233174173517 0.5635916787250065 0.6659553505969326 0.5837535070200718 0.6682212716264371 1.284024766306221 0.5861016515022966 0.4895921188129602 0.4735152054798391 0.6629248917759425 0.6441186126220556 0.3554128009009871 0.6710266328513614 0.7279376306329428 0.426843288435828 0:86 
-0.1110368315507036 -0.1691247833183138 -0.0980118206113301 0.01593800843699456 0 0 0.005773065882501093 0.1609230950958014 0 0 0.05158881023575042 0 0 0.06259724580028581 0.02289703063323153 0 0.01380222519105427 0 0 0 0.006832625789008846 0 0 0 0 0 0.08564952027823872 0.01147453704190185 0.1978633832194162 0 0 0.04547652907816942 0.04582539150507139 0.152884698590911 0 0.005127371652223608 0 0 0 0.2034222993799658 0.04472202423204027 0.1328669599804197 0 0 0 0.00321452854303432 0.1454261669042211 0 0 0 0 0:87 
-0.3908215989582269 -0.2940672761170895 -0.2481373423563045 0.2275723627714652 0.250139617937531 0.226057761920945 0.4202175917497959 0.202616608785517 0.1181843050170574 0.3337417472267808 0.440608682391191 0.1232219711958774 0.2280682156275363 0.1885273501298061 0.2110197894936884 0.3747778036508508 0.1146759654459447 0.1330855656456611 0.06698464250486343 0.205185417144606 0.1748980870272912 0.09449939770309462 0.2085549347824339 0.2921915716947027 0.07086122755953445 0.4175724268215976 0.3452610723217061 0.3350710131678976 0.9043225410204025 0.3679146372707751 0.3241073482933305 0.3500882866975964 0.3321925543572246 0.2986679079321893 0.08859080853096897 0.2878031881283979 0.3265873133909055 0.2781263803713893 0.2994942638925442 0.2358263448570144 0.3642353114993757 0.6998371031983361 0.196809422724288 0.2527673574169471 0.2353742077121784 0.3386130816377423 0.2801959385736112 0.1331018281428834 0.2532809288315386 0.3910020146814309 0.1607782869069173 0:88 
-0.3029335624368332 -0.2439888322276609 -0.06547598265895502 0.03521649004601121 0.1360342009704887 0.01034564941764601 0.2156255191276518 0.3058935228171665 0.06818825883543808 0.1531433929720838 0.1922566945460411 0.1348648994636856 0 0.1546888445012292 0.0139547038040546 0 0 0.1155546357566712 0.0122908906499284 0.09476468894174239 0.1030958464353655 0.003843075710452068 0.1410266345130452 0.03534156475000655 0.03262992496294227 0.04928695091270634 0.2266343140165992 0.1037694990397814 0.2416070700429252 0.1133853387030572 0.06134026146371629 0.08037655339439305 0.2483084918015479 0.199153464839478 0.08097515643439974 0.2379764885636962 0.0438468358943733 0.245352000052738 0.07561416863234027 0.2392352003652507 0.1432636104931259 0.3380599408924376 0.2437770603342606 0.1303255390939939 0.06836155107790655 0.1718720303163672 0.1478037945012839 0.07120107083106134 0.2130443192586271 0.08994376454615831 0.1414467398185762 0:89 
-0.6906659088003988 -0.8058345676210739 -0.9192818305576194 0.8385779502901305 0.7604394755210838 0.5529837539591924 0.8291861124701917 0.7327656747812016 0.2340367944157555 0.522424216838932 0.705807056505857 0.5140237839970678 0.4907298962714791 0.5470551337852683 0.6241199007089043 0.5379046652533215 0.4089456060881811 0.439753471425019 0.3121412102488559 0.51710393445751 0.4892344745674133 0.1712927561748297 0.4094602016396447 0.3193715799247047 0.3124416263444618 0.5678021946284211 0.6960620525924937 0.6960376239841769 1.098882238076778 0.6588025680054654 0.5254916942703696 0.6219770313822237 0.6506631158493159 0.5393277801526717 0.1156708650771506 0.4271796739978182 0.3420147815908401 0.4339565380477873 0.4106133070198452 0.5389120378023221 0.6800796366446679 0.896948726919818 0.4276779466086827 0.3901723923175475 0.487643127717918 0.4430919249549087 0.555251591386658 0.1780508065854775 0.4257593858124442 0.4164417477211443 0.3699611801807317 0:90 
-0.752363451698666 -0.5230300919236494 -0.7470034639652888 0.6658504142085803 0.5524473600160013 0.3535308041071034 0.6613239144271724 0.6909269333502021 0.3111856795819555 0.7983544746135897 0.8983273675938424 0.5878796410888969 0.5291372587323796 0.3248782146261054 0.3103922694745642 0.7604867045851507 0.3370384661995057 0.387038027374361 0.2876323836944168 0.4962324883599133 0.3000604747185399 0.2448889171578174 0.6239601105871329 0.482278901812526 0.39364562476322 0.5949565802099247 0.4428662476811157 0.4459742530018497 1.2789080476156 0.4082050246699763 0.3836767704812015 0.296530238061243 0.4702763567052005 0.409197512101579 0.2667205001978121 0.7842455616852488 0.5559546454642902 0.4484025497589504 0.7760971705088127 0.5259645194283394 0.4599647066118078 1.387912143683508 0.5011009203287923 0.464075786831543 0.4128654673650258 0.6315331332527973 0.5060603412201949 0.2998195971944941 0.6017954762306733 0.6817860137087408 0.4518999844852085 0:91 
-0.1422229848029059 -0.2216924156004966 -0.103517216598776 0.2316619972659462 0.0336292240045372 0 0.09817120813017699 0.1356191617732751 0 0 0.1812350605954755 0 0.01878255150160825 0.0652007332917313 0.06589624074133556 0.08509761310131257 0.1045652886484636 0.002540924885391735 0.001790630490307109 0.03125425408258658 0.1232093495238476 0 0 0.01627019096973619 0 0 0.1035388701213965 0.1165591238443997 0.1878438501731328 0.013692064220013 0 0.05367336029681762 0.009239217799307788 0.05390924873127687 0 0 0.02706516994946313 0.05238591063337691 0 0.07758348823365877 0.06148006127069668 0.08871785210213487 0.05225038393484251 0.002849011641087344 0.08561839745469101 0.0313388066483657 0.1453303520371038 0 0 0.0959398163662022 0 0:92 
-0.4692252442309584 -0.3118119360004651 -0.3240186089488503 0.2290537229496915 0.256259188175965 0.2932099500696129 0.4324435212871562 0.2589106904360097 0.111876501528783 0.38427772830183 0.5569456263315485 0.2361368946622771 0.3798552064838561 0.218724918245227 0.2029251184611681 0.5353022940582185 0.1480267311106449 0.2337131907681921 0.2260500408947798 0.3303225436373054 0.1186268017547928 0.128206218962487 0.2845162843296799 0.2877687459166809 0.2010593504578627 0.4572308915039978 0.4517529049095022 0.334833107095598 1.067488569460663 0.3593590693362791 0.2950966368554972 0.3349577914334197 0.3992239429674869 0.3617288993570157 0.1100871437169074 0.4136360634326657 0.3937453233909316 0.2841874472814403 0.4950556258170315 0.2765539296231201 0.2524760794643792 0.7557404083555986 0.2504115725560329 0.2838948085862312 0.3306114785882658 0.4072768749559025 0.2519551019236052 0.1269374571818219 0.216544451518916 0.4139271256976617 0.2162024260788508 0:93 
-0.3780713421646112 -0.3916242920274295 -0.2708654617018506 0.3346273838627831 0.2118272100188127 0.02575676890899164 0.3821362930355288 0.4894307077736803 0.1713605106658767 0.4144680194413869 0.5378094662525414 0.2031496060823284 0.0871707872265354 0.1620337369621934 0.07852988711552883 0.1162066170816754 0.09212402113387555 0.1465114143262629 0.05334966159092236 0.1628776475906495 0.1055065515456817 0.04504898380908422 0.1625426912673382 0.2210607673538663 0.055801380204998 0.2771306729811618 0.2271131500595455 0.2796777731176691 0.602948328874347 0.1954897909829215 0.1886361053039346 0.132423787095065 0.3019004388567894 0.1982254746765535 0.1405024066923073 0.3991473776755327 0.1796177538246785 0.3000964933606989 0.1897922956995141 0.2697178380803613 0.2478527633520106 0.5821359432750843 0.317305638293242 0.2496554044700362 0.2189466145897323 0.3433228010892307 0.2564645416221294 0.1675549357552631 0.2816744492031147 0.2106701377500077 0.2097144443189807 0:94 
-0.7612947760255372 -0.7591110398931598 -0.943668135155127 0.8634328690762846 0.7219902952020176 0.5088962841941902 0.8487984886517715 0.8141634747422605 0.2176895284369682 0.5385363017645958 0.7288782779204677 0.5528155673389681 0.5178996886880345 0.4805580442455221 0.5481140895078374 0.6929671112446085 0.432399115315335 0.4137973905887388 0.3900936279007678 0.5233815341746867 0.4137743307715872 0.152297765011411 0.3944062241923967 0.3274605874950405 0.3494076598968125 0.5790077274027868 0.6115398751777958 0.6180221581725064 1.187871722770126 0.6314834382817951 0.5219838748918969 0.5367843572099333 0.6095039324395423 0.576091966391386 0.1234240156460896 0.5029450158832733 0.3220852945819832 0.4176956923575756 0.5170541893196162 0.5044376818846145 0.5828560216209664 0.9505448435883969 0.4527538054631163 0.4710791382667393 0.5332085601167299 0.4543020206136676 0.5634179075779963 0.1358954124310143 0.2605630865239653 0.3999058856209052 0.3093059763559614 0:95 
