svm_type nu_svc
kernel_type precomputed
nr_class 302
total_sv 1550
rho -0.572431 -0.516335 -0.314746 -0.453286 -0.564236 -0.250376 -0.650088 -0.639803 -0.155073 -0.291403 -0.161353 -0.0171695 -0.46481 -0.549519 -0.462798 -0.504914 -0.483646 -0.550077 -0.402613 -0.543025 -0.478967 -0.28946 -0.356617 -0.346525 -0.549207 -0.270308 -0.284586 -0.483018 -0.417919 -0.290034 -0.425734 -0.350719 -0.433916 -0.346513 -0.215615 -0.130139 -0.194433 -0.21769 -0.814463 -0.72167 -0.854578 -0.63664 -0.687559 -0.749964 -0.529176 -0.6687 -0.919594 -0.395985 -0.474949 -0.571701 -0.715618 -nan -nan -nan -nan -nan -nan -nan -nan -nan -nan -nan -nan -nan -nan -nan -nan -nan -nan -nan -nan -nan -nan -nan -nan -nan -nan -nan -nan -nan -nan -nan -nan -nan -nan -nan -nan -nan -nan -nan -nan -nan -nan -nan -nan -nan -nan -nan -nan -nan -nan -nan -nan -nan -nan -nan -nan -nan -nan -nan -nan -nan -nan -nan -nan -nan -nan -nan -nan -nan -nan -nan -nan -nan -nan -nan -nan -nan -nan -nan -nan -nan -nan -nan -nan -nan -nan -nan -nan -nan -nan -nan -nan -nan -nan -nan -nan -nan -nan -nan -nan -nan -nan -nan -nan -nan -nan -nan -nan -nan -nan -nan -nan -nan -nan -nan -nan -nan -nan -nan -nan -nan -nan -nan -nan -nan -nan -nan -nan -nan -nan -nan -nan -nan -nan -nan -nan -nan -nan -nan -nan -nan -nan -nan -nan -nan -nan -nan -nan -nan -nan -nan -nan -nan -nan -nan -nan -nan -nan -nan -nan -nan -nan -nan -nan -nan -nan -nan -nan -nan -nan -nan -nan -nan -nan -nan -nan -nan -nan -nan -nan -nan -nan -nan -nan -nan -nan -nan -nan -nan -nan -nan -nan -nan -nan -nan -nan -nan -nan -nan -nan -nan -nan -nan -nan -nan -nan -nan -nan -nan -nan -nan -nan -nan -nan -nan -nan -nan -nan -nan -nan -nan -nan -nan -nan -nan -nan -nan -nan -nan -nan -nan -nan -nan -nan -nan -nan -nan -nan -nan -nan -nan -nan -nan -nan -nan -nan -nan -nan -nan -nan 0.0731813 0.22854 0.0514323 -0.142916 0.156373 0.00896694 -0.233538 0.0896405 0.186708 0.412613 0.431147 0.0404274 -0.402152 -0.204973 -0.12533 -0.185546 -0.299118 -0.129514 -0.228371 -0.1977 -0.0437257 -0.0211468 0.0329643 -0.137065 0.357557 0.264343 -0.12225 0.121721 0.10548 -0.112094 0.082741 0.0750163 0.0924514 0.0124255 0.23454 0.151214 0.300338 0.025894 -0.781483 -0.661468 -0.172427 -0.394118 -0.651969 -0.109831 -0.375437 -0.73904 -0.0749782 -0.049335 -0.0363065 -0.274586 -nan -nan -nan -nan -nan -nan -nan -nan -nan -nan -nan -nan -nan -nan -nan -nan -nan -nan -nan -nan -nan -nan -nan -nan -nan -nan -nan -nan -nan -nan -nan -nan -nan -nan -nan -nan -nan -nan -nan -nan -nan -nan -nan -nan -nan -nan -nan -nan -nan -nan -nan -nan -nan -nan -nan -nan -nan -nan -nan -nan -nan -nan -nan -nan -nan -nan -nan -nan -nan -nan -nan -nan -nan -nan -nan -nan -nan -nan -nan -nan -nan -nan -nan -nan -nan -nan -nan -nan -nan -nan -nan -nan -nan -nan -nan -nan -nan -nan -nan -nan -nan -nan -nan -nan -nan -nan -nan -nan -nan -nan -nan -nan -nan -nan -nan -nan -nan -nan -nan -nan -nan -nan -nan -nan -nan -nan -nan -nan -nan -nan -nan -nan -nan -nan -nan -nan -nan -nan -nan -nan -nan -nan -nan -nan -nan -nan -nan -nan -nan -nan -nan -nan -nan -nan -nan -nan -nan -nan -nan -nan -nan -nan -nan -nan -nan -nan -nan -nan -nan -nan -nan -nan -nan -nan -nan -nan -nan -nan -nan -nan -nan -nan -nan -nan -nan -nan -nan -nan -nan -nan -nan -nan -nan -nan -nan -nan -nan -nan -nan -nan -nan -nan -nan -nan -nan -nan -nan -nan -nan -nan -nan -nan -nan -nan -nan -nan -nan -nan -nan -nan -nan -nan -nan -nan -nan -nan -nan -nan -nan -nan -nan -nan -nan -nan -nan -nan -nan -nan -nan -nan -nan -nan -nan -nan -nan -nan -nan -nan -nan -nan 0.200541 0.0142612 -0.308823 0.105026 -0.0949358 -0.199347 0.089516 0.162829 0.415021 0.399002 0.00521326 -0.33537 -0.3167 -0.147243 -0.287654 -0.384032 -0.176573 -0.292246 -0.256128 -0.0777392 -0.0569402 -0.0089517 -0.1562 0.278796 0.186782 -0.226574 0.0950549 0.0694599 -0.173917 0.0632943 0.0314903 0.0373829 0.0029642 0.21443 0.117739 0.293048 0.00132167 -0.49169 -1.27851 -0.210181 -0.56749 -0.750149 -0.157712 -0.385816 -0.748865 -0.0949102 -0.0669976 -0.0459732 -0.313527 -nan -nan -nan -nan -nan -nan -nan -nan -nan -nan -nan -nan -nan -nan -nan -nan -nan -nan -nan -nan -nan -nan -nan -nan -nan -nan -nan -nan -nan -nan -nan -nan -nan -nan -nan -nan -nan -nan -nan -nan -nan -nan -nan -nan -nan -nan -nan -nan -nan -nan -nan -nan -nan -nan -nan -nan -nan -nan -nan -nan -nan -nan -nan -nan -nan -nan -nan -nan -nan -nan -nan -nan -nan -nan -nan -nan -nan -nan -nan -nan -nan -nan -nan -nan -nan -nan -nan -nan -nan -nan -nan -nan -nan -nan -nan -nan -nan -nan -nan -nan -nan -nan -nan -nan -nan -nan -nan -nan -nan -nan -nan -nan -nan -nan -nan -nan -nan -nan -nan -nan -nan -nan -nan -nan -nan -nan -nan -nan -nan -nan -nan -nan -nan -nan -nan -nan -nan -nan -nan -nan -nan -nan -nan -nan -nan -nan -nan -nan -nan -nan -nan -nan -nan -nan -nan -nan -nan -nan -nan -nan -nan -nan -nan -nan -nan -nan -nan -nan -nan -nan -nan -nan -nan -nan -nan -nan -nan -nan -nan -nan -nan -nan -nan -nan -nan -nan -nan -nan -nan -nan -nan -nan -nan -nan -nan -nan -nan -nan -nan -nan -nan -nan -nan -nan -nan -nan -nan -nan -nan -nan -nan -nan -nan -nan -nan -nan -nan -nan -nan -nan -nan -nan -nan -nan -nan -nan -nan -nan -nan -nan -nan -nan -nan -nan -nan -nan -nan -nan -nan -nan -nan -nan -nan -nan -nan -nan -nan -nan -nan -nan -0.217065 -0.271328 -0.062183 -0.267799 -0.371462 -0.00105265 -0.0269664 0.173601 0.150994 -0.116048 -0.351492 -0.277071 -0.381381 -0.265314 -0.34008 -0.229959 -0.337094 -0.292831 -0.148897 -0.166851 -0.143379 -0.226333 0.0815524 -0.00692023 -0.263725 -0.161124 -0.0756543 -0.226087 -0.0897013 -0.161286 -0.119957 -0.0783879 0.0884291 -0.00619433 0.0963907 -0.174494 -0.480758 -0.576423 -0.664064 -0.465138 -0.515639 -0.248335 -0.430135 -0.631633 -0.200867 -0.214942 -0.244698 -0.347717 -nan -nan -nan -nan -nan -nan -nan -nan -nan -nan -nan -nan -nan -nan -nan -nan -nan -nan -nan -nan -nan -nan -nan -nan -nan -nan -nan -nan -nan -nan -nan -nan -nan -nan -nan -nan -nan -nan -nan -nan -nan -nan -nan -nan -nan -nan -nan -nan -nan -nan -nan -nan -nan -nan -nan -nan -nan -nan -nan -nan -nan -nan -nan -nan -nan -nan -nan -nan -nan -nan -nan -nan -nan -nan -nan -nan -nan -nan -nan -nan -nan -nan -nan -nan -nan -nan -nan -nan -nan -nan -nan -nan -nan -nan -nan -nan -nan -nan -nan -nan -nan -nan -nan -nan -nan -nan -nan -nan -nan -nan -nan -nan -nan -nan -nan -nan -nan -nan -nan -nan -nan -nan -nan -nan -nan -nan -nan -nan -nan -nan -nan -nan -nan -nan -nan -nan -nan -nan -nan -nan -nan -nan -nan -nan -nan -nan -nan -nan -nan -nan -nan -nan -nan -nan -nan -nan -nan -nan -nan -nan -nan -nan -nan -nan -nan -nan -nan -nan -nan -nan -nan -nan -nan -nan -nan -nan -nan -nan -nan -nan -nan -nan -nan -nan -nan -nan -nan -nan -nan -nan -nan -nan -nan -nan -nan -nan -nan -nan -nan -nan -nan -nan -nan -nan -nan -nan -nan -nan -nan -nan -nan -nan -nan -nan -nan -nan -nan -nan -nan -nan -nan -nan -nan -nan -nan -nan -nan -nan -nan -nan -nan -nan -nan -nan -nan -nan -nan -nan -nan -nan -nan -nan -nan -nan -nan -nan -nan -nan -nan -nan -0.306726 0.0674897 -0.0664678 -0.237583 0.0694535 0.186364 0.396536 0.331019 -0.0197222 -0.247646 -0.253726 -0.13871 -0.319952 -0.337872 -0.163589 -0.253224 -0.227819 -0.0766175 -0.0593574 -0.0306583 -0.138264 0.24745 0.123959 -0.170293 0.11288 0.0664554 -0.161237 0.0262472 0.0283145 0.0574682 -0.0149557 0.212019 0.115849 0.243587 -0.0134425 -0.394357 -0.725392 -0.176663 -0.699472 -0.631588 -0.143365 -0.352888 -0.608131 -0.112167 -0.106221 -0.0866896 -0.291355 -nan -nan -nan -nan -nan -nan -nan -nan -nan -nan -nan -nan -nan -nan -nan -nan -nan -nan -nan -nan -nan -nan -nan -nan -nan -nan -nan -nan -nan -nan -nan -nan -nan -nan -nan -nan -nan -nan -nan -nan -nan -nan -nan -nan -nan -nan -nan -nan -nan -nan -nan -nan -nan -nan -nan -nan -nan -nan -nan -nan -nan -nan -nan -nan -nan -nan -nan -nan -nan -nan -nan -nan -nan -nan -nan -nan -nan -nan -nan -nan -nan -nan -nan -nan -nan -nan -nan -nan -nan -nan -nan -nan -nan -nan -nan -nan -nan -nan -nan -nan -nan -nan -nan -nan -nan -nan -nan -nan -nan -nan -nan -nan -nan -nan -nan -nan -nan -nan -nan -nan -nan -nan -nan -nan -nan -nan -nan -nan -nan -nan -nan -nan -nan -nan -nan -nan -nan -nan -nan -nan -nan -nan -nan -nan -nan -nan -nan -nan -nan -nan -nan -nan -nan -nan -nan -nan -nan -nan -nan -nan -nan -nan -nan -nan -nan -nan -nan -nan -nan -nan -nan -nan -nan -nan -nan -nan -nan -nan -nan -nan -nan -nan -nan -nan -nan -nan -nan -nan -nan -nan -nan -nan -nan -nan -nan -nan -nan -nan -nan -nan -nan -nan -nan -nan -nan -nan -nan -nan -nan -nan -nan -nan -nan -nan -nan -nan -nan -nan -nan -nan -nan -nan -nan -nan -nan -nan -nan -nan -nan -nan -nan -nan -nan -nan -nan -nan -nan -nan -nan -nan -nan -nan -nan -nan -nan -nan -nan -nan -nan -nan 0.164371 0.124823 0.0461619 0.17587 0.224091 0.503424 0.525943 0.0774526 -0.228145 -0.115033 -0.0743255 -0.193377 -0.3793 -0.0979361 -0.166397 -0.168683 -0.0515859 0.0124759 0.0433647 -0.115399 0.307912 0.375836 0.0492103 0.187509 0.295544 0.0868932 0.17436 0.266732 0.126585 0.0296678 0.293482 0.161542 0.411103 0.0792146 -0.230525 -0.56558 -0.0605072 -0.491739 -0.674896 -0.0490295 -0.185868 -0.497291 -0.0670018 0.0250015 0.0283251 -0.22826 -nan -nan -nan -nan -nan -nan -nan -nan -nan -nan -nan -nan -nan -nan -nan -nan -nan -nan -nan -nan -nan -nan -nan -nan -nan -nan -nan -nan -nan -nan -nan -nan -nan -nan -nan -nan -nan -nan -nan -nan -nan -nan -nan -nan -nan -nan -nan -nan -nan -nan -nan -nan -nan -nan -nan -nan -nan -nan -nan -nan -nan -nan -nan -nan -nan -nan -nan -nan -nan -nan -nan -nan -nan -nan -nan -nan -nan -nan -nan -nan -nan -nan -nan -nan -nan -nan -nan -nan -nan -nan -nan -nan -nan -nan -nan -nan -nan -nan -nan -nan -nan -nan -nan -nan -nan -nan -nan -nan -nan -nan -nan -nan -nan -nan -nan -nan -nan -nan -nan -nan -nan -nan -nan -nan -nan -nan -nan -nan -nan -nan -nan -nan -nan -nan -nan -nan -nan -nan -nan -nan -nan -nan -nan -nan -nan -nan -nan -nan -nan -nan -nan -nan -nan -nan -nan -nan -nan -nan -nan -nan -nan -nan -nan -nan -nan -nan -nan -nan -nan -nan -nan -nan -nan -nan -nan -nan -nan -nan -nan -nan -nan -nan -nan -nan -nan -nan -nan -nan -nan -nan -nan -nan -nan -nan -nan -nan -nan -nan -nan -nan -nan -nan -nan -nan -nan -nan -nan -nan -nan -nan -nan -nan -nan -nan -nan -nan -nan -nan -nan -nan -nan -nan -nan -nan -nan -nan -nan -nan -nan -nan -nan -nan -nan -nan -nan -nan -nan -nan -nan -nan -nan -nan -nan -nan -nan -nan -nan -nan -nan -nan -0.140027 -0.190179 0.0678433 0.0170019 0.174095 0.272251 -0.0477681 -0.278085 -0.210403 -0.139567 -0.2023 -0.283049 -0.332195 -0.23519 -0.198585 -0.116736 -0.0882328 -0.0660005 -0.216167 0.118653 0.0363899 -0.178025 -0.00643114 -0.00835751 -0.161441 -0.110821 -0.100087 -0.0442914 -0.0315129 0.123972 0.0386133 0.173883 -0.0608477 -0.365134 -0.460914 -0.203977 -0.370499 -0.447386 -0.397271 -0.286392 -0.409189 -0.148128 -0.134506 -0.0963763 -0.33802 -nan -nan -nan -nan -nan -nan -nan -nan -nan -nan -nan -nan -nan -nan -nan -nan -nan -nan -nan -nan -nan -nan -nan -nan -nan -nan -nan -nan -nan -nan -nan -nan -nan -nan -nan -nan -nan -nan -nan -nan -nan -nan -nan -nan -nan -nan -nan -nan -nan -nan -nan -nan -nan -nan -nan -nan -nan -nan -nan -nan -nan -nan -nan -nan -nan -nan -nan -nan -nan -nan -nan -nan -nan -nan -nan -nan -nan -nan -nan -nan -nan -nan -nan -nan -nan -nan -nan -nan -nan -nan -nan -nan -nan -nan -nan -nan -nan -nan -nan -nan -nan -nan -nan -nan -nan -nan -nan -nan -nan -nan -nan -nan -nan -nan -nan -nan -nan -nan -nan -nan -nan -nan -nan -nan -nan -nan -nan -nan -nan -nan -nan -nan -nan -nan -nan -nan -nan -nan -nan -nan -nan -nan -nan -nan -nan -nan -nan -nan -nan -nan -nan -nan -nan -nan -nan -nan -nan -nan -nan -nan -nan -nan -nan -nan -nan -nan -nan -nan -nan -nan -nan -nan -nan -nan -nan -nan -nan -nan -nan -nan -nan -nan -nan -nan -nan -nan -nan -nan -nan -nan -nan -nan -nan -nan -nan -nan -nan -nan -nan -nan -nan -nan -nan -nan -nan -nan -nan -nan -nan -nan -nan -nan -nan -nan -nan -nan -nan -nan -nan -nan -nan -nan -nan -nan -nan -nan -nan -nan -nan -nan -nan -nan -nan -nan -nan -nan -nan -nan -nan -nan -nan -nan -nan -nan -nan -nan -nan -nan -nan -nan -0.219303 0.116978 0.186478 0.515254 0.506316 0.0392989 -0.260503 -0.214849 -0.116101 -0.235087 -0.369389 -0.132464 -0.28459 -0.211674 -0.0548063 -0.0237937 0.0212641 -0.144215 0.331991 0.264386 -0.127077 0.134108 0.142523 -0.142703 0.0964735 0.119509 0.12311 0.0137161 0.273173 0.169891 0.322232 0.0407829 -0.434763 -0.743135 -0.212837 -0.55001 -0.763184 -0.0915224 -0.456382 -0.689888 -0.0887132 -0.0368806 -0.0174418 -0.251865 -nan -nan -nan -nan -nan -nan -nan -nan -nan -nan -nan -nan -nan -nan -nan -nan -nan -nan -nan -nan -nan -nan -nan -nan -nan -nan -nan -nan -nan -nan -nan -nan -nan -nan -nan -nan -nan -nan -nan -nan -nan -nan -nan -nan -nan -nan -nan -nan -nan -nan -nan -nan -nan -nan -nan -nan -nan -nan -nan -nan -nan -nan -nan -nan -nan -nan -nan -nan -nan -nan -nan -nan -nan -nan -nan -nan -nan -nan -nan -nan -nan -nan -nan -nan -nan -nan -nan -nan -nan -nan -nan -nan -nan -nan -nan -nan -nan -nan -nan -nan -nan -nan -nan -nan -nan -nan -nan -nan -nan -nan -nan -nan -nan -nan -nan -nan -nan -nan -nan -nan -nan -nan -nan -nan -nan -nan -nan -nan -nan -nan -nan -nan -nan -nan -nan -nan -nan -nan -nan -nan -nan -nan -nan -nan -nan -nan -nan -nan -nan -nan -nan -nan -nan -nan -nan -nan -nan -nan -nan -nan -nan -nan -nan -nan -nan -nan -nan -nan -nan -nan -nan -nan -nan -nan -nan -nan -nan -nan -nan -nan -nan -nan -nan -nan -nan -nan -nan -nan -nan -nan -nan -nan -nan -nan -nan -nan -nan -nan -nan -nan -nan -nan -nan -nan -nan -nan -nan -nan -nan -nan -nan -nan -nan -nan -nan -nan -nan -nan -nan -nan -nan -nan -nan -nan -nan -nan -nan -nan -nan -nan -nan -nan -nan -nan -nan -nan -nan -nan -nan -nan -nan -nan -nan -nan -nan -nan -nan -nan -nan -nan 0.122746 0.295496 0.694129 0.460589 0.111522 -0.18361 -0.0820089 -0.0506191 -0.109628 -0.202915 -0.052806 -0.139182 -0.178383 -0.0129955 0.0471485 0.111915 -0.0466967 0.414359 0.313298 0.0576681 0.228924 0.213199 0.0445545 0.148583 0.235125 0.294203 0.0561086 0.336026 0.277792 0.387942 0.126806 -0.323668 -0.515224 -0.0885509 -0.36089 -0.492702 -0.00504647 -0.211458 -0.957581 -0.0392422 0.0291415 0.0621806 -0.154933 -nan -nan -nan -nan -nan -nan -nan -nan -nan -nan -nan -nan -nan -nan -nan -nan -nan -nan -nan -nan -nan -nan -nan -nan -nan -nan -nan -nan -nan -nan -nan -nan -nan -nan -nan -nan -nan -nan -nan -nan -nan -nan -nan -nan -nan -nan -nan -nan -nan -nan -nan -nan -nan -nan -nan -nan -nan -nan -nan -nan -nan -nan -nan -nan -nan -nan -nan -nan -nan -nan -nan -nan -nan -nan -nan -nan -nan -nan -nan -nan -nan -nan -nan -nan -nan -nan -nan -nan -nan -nan -nan -nan -nan -nan -nan -nan -nan -nan -nan -nan -nan -nan -nan -nan -nan -nan -nan -nan -nan -nan -nan -nan -nan -nan -nan -nan -nan -nan -nan -nan -nan -nan -nan -nan -nan -nan -nan -nan -nan -nan -nan -nan -nan -nan -nan -nan -nan -nan -nan -nan -nan -nan -nan -nan -nan -nan -nan -nan -nan -nan -nan -nan -nan -nan -nan -nan -nan -nan -nan -nan -nan -nan -nan -nan -nan -nan -nan -nan -nan -nan -nan -nan -nan -nan -nan -nan -nan -nan -nan -nan -nan -nan -nan -nan -nan -nan -nan -nan -nan -nan -nan -nan -nan -nan -nan -nan -nan -nan -nan -nan -nan -nan -nan -nan -nan -nan -nan -nan -nan -nan -nan -nan -nan -nan -nan -nan -nan -nan -nan -nan -nan -nan -nan -nan -nan -nan -nan -nan -nan -nan -nan -nan -nan -nan -nan -nan -nan -nan -nan -nan -nan -nan -nan -nan -nan -nan -nan -nan -nan -nan -0.0133062 0.138534 0.117632 -0.0910857 -0.183602 -0.141119 -0.140696 -0.168035 -0.237666 -0.17855 -0.15911 -0.185191 -0.44056 -0.127349 -0.114453 -0.223077 0.0384834 -0.0184499 -0.0976022 -0.0419362 -0.0409331 -0.108373 -0.0819211 -0.0786847 -0.0710523 -0.357248 0.050893 0.00711929 0.0341155 -0.137356 -0.193861 -0.251515 -0.153994 -0.287951 -0.271044 -0.173786 -0.184269 -0.277017 -0.812816 -0.170023 -0.202927 -0.259176 -nan -nan -nan -nan -nan -nan -nan -nan -nan -nan -nan -nan -nan -nan -nan -nan -nan -nan -nan -nan -nan -nan -nan -nan -nan -nan -nan -nan -nan -nan -nan -nan -nan -nan -nan -nan -nan -nan -nan -nan -nan -nan -nan -nan -nan -nan -nan -nan -nan -nan -nan -nan -nan -nan -nan -nan -nan -nan -nan -nan -nan -nan -nan -nan -nan -nan -nan -nan -nan -nan -nan -nan -nan -nan -nan -nan -nan -nan -nan -nan -nan -nan -nan -nan -nan -nan -nan -nan -nan -nan -nan -nan -nan -nan -nan -nan -nan -nan -nan -nan -nan -nan -nan -nan -nan -nan -nan -nan -nan -nan -nan -nan -nan -nan -nan -nan -nan -nan -nan -nan -nan -nan -nan -nan -nan -nan -nan -nan -nan -nan -nan -nan -nan -nan -nan -nan -nan -nan -nan -nan -nan -nan -nan -nan -nan -nan -nan -nan -nan -nan -nan -nan -nan -nan -nan -nan -nan -nan -nan -nan -nan -nan -nan -nan -nan -nan -nan -nan -nan -nan -nan -nan -nan -nan -nan -nan -nan -nan -nan -nan -nan -nan -nan -nan -nan -nan -nan -nan -nan -nan -nan -nan -nan -nan -nan -nan -nan -nan -nan -nan -nan -nan -nan -nan -nan -nan -nan -nan -nan -nan -nan -nan -nan -nan -nan -nan -nan -nan -nan -nan -nan -nan -nan -nan -nan -nan -nan -nan -nan -nan -nan -nan -nan -nan -nan -nan -nan -nan -nan -nan -nan -nan -nan -nan -nan -nan -nan -nan -nan -nan 0.224743 0.173473 -0.107482 -0.248508 -0.247563 -0.212537 -0.259896 -0.287473 -0.191959 -0.25308 -0.235026 -0.160539 -0.199556 -0.134243 -0.208398 0.111069 -0.0167751 -0.257158 -0.0637462 -0.101656 -0.212161 -0.0709294 -0.14572 -0.0742798 -0.0918597 0.1304 0.0357002 0.0808433 -0.143564 -0.381962 -0.508619 -0.344699 -0.483254 -0.45462 -0.221757 -0.373867 -0.543881 -0.259229 -0.531916 -0.267864 -0.312975 -nan -nan -nan -nan -nan -nan -nan -nan -nan -nan -nan -nan -nan -nan -nan -nan -nan -nan -nan -nan -nan -nan -nan -nan -nan -nan -nan -nan -nan -nan -nan -nan -nan -nan -nan -nan -nan -nan -nan -nan -nan -nan -nan -nan -nan -nan -nan -nan -nan -nan -nan -nan -nan -nan -nan -nan -nan -nan -nan -nan -nan -nan -nan -nan -nan -nan -nan -nan -nan -nan -nan -nan -nan -nan -nan -nan -nan -nan -nan -nan -nan -nan -nan -nan -nan -nan -nan -nan -nan -nan -nan -nan -nan -nan -nan -nan -nan -nan -nan -nan -nan -nan -nan -nan -nan -nan -nan -nan -nan -nan -nan -nan -nan -nan -nan -nan -nan -nan -nan -nan -nan -nan -nan -nan -nan -nan -nan -nan -nan -nan -nan -nan -nan -nan -nan -nan -nan -nan -nan -nan -nan -nan -nan -nan -nan -nan -nan -nan -nan -nan -nan -nan -nan -nan -nan -nan -nan -nan -nan -nan -nan -nan -nan -nan -nan -nan -nan -nan -nan -nan -nan -nan -nan -nan -nan -nan -nan -nan -nan -nan -nan -nan -nan -nan -nan -nan -nan -nan -nan -nan -nan -nan -nan -nan -nan -nan -nan -nan -nan -nan -nan -nan -nan -nan -nan -nan -nan -nan -nan -nan -nan -nan -nan -nan -nan -nan -nan -nan -nan -nan -nan -nan -nan -nan -nan -nan -nan -nan -nan -nan -nan -nan -nan -nan -nan -nan -nan -nan -nan -nan -nan -nan -nan -nan -nan -nan -nan -nan -nan -nan 0.0491862 -0.305802 -0.481759 -0.419314 -0.38919 -0.45147 -0.531571 -0.347746 -0.482863 -0.470222 -0.300955 -0.393926 -0.490539 -0.415495 -0.0784452 -0.196746 -0.417128 -0.309665 -0.260955 -0.390914 -0.243192 -0.361012 -0.298618 -0.205588 -0.0706298 -0.151227 -0.0807717 -0.415342 -0.607766 -0.771551 -0.545328 -0.734918 -0.705423 -0.415001 -0.604753 -0.910453 -0.419375 -0.49428 -1.03707 -0.550836 -nan -nan -nan -nan -nan -nan -nan -nan -nan -nan -nan -nan -nan -nan -nan -nan -nan -nan -nan -nan -nan -nan -nan -nan -nan -nan -nan -nan -nan -nan -nan -nan -nan -nan -nan -nan -nan -nan -nan -nan -nan -nan -nan -nan -nan -nan -nan -nan -nan -nan -nan -nan -nan -nan -nan -nan -nan -nan -nan -nan -nan -nan -nan -nan -nan -nan -nan -nan -nan -nan -nan -nan -nan -nan -nan -nan -nan -nan -nan -nan -nan -nan -nan -nan -nan -nan -nan -nan -nan -nan -nan -nan -nan -nan -nan -nan -nan -nan -nan -nan -nan -nan -nan -nan -nan -nan -nan -nan -nan -nan -nan -nan -nan -nan -nan -nan -nan -nan -nan -nan -nan -nan -nan -nan -nan -nan -nan -nan -nan -nan -nan -nan -nan -nan -nan -nan -nan -nan -nan -nan -nan -nan -nan -nan -nan -nan -nan -nan -nan -nan -nan -nan -nan -nan -nan -nan -nan -nan -nan -nan -nan -nan -nan -nan -nan -nan -nan -nan -nan -nan -nan -nan -nan -nan -nan -nan -nan -nan -nan -nan -nan -nan -nan -nan -nan -nan -nan -nan -nan -nan -nan -nan -nan -nan -nan -nan -nan -nan -nan -nan -nan -nan -nan -nan -nan -nan -nan -nan -nan -nan -nan -nan -nan -nan -nan -nan -nan -nan -nan -nan -nan -nan -nan -nan -nan -nan -nan -nan -nan -nan -nan -nan -nan -nan -nan -nan -nan -nan -nan -nan -nan -nan -nan -nan -nan -nan -nan -nan -nan -nan -0.322035 -0.440833 -0.440952 -0.313319 -0.472742 -0.542982 -0.405608 -0.462848 -0.384976 -0.283494 -0.262812 -0.271669 -0.745356 -0.144225 -0.211798 -0.482932 -0.248257 -0.258261 -0.50662 -0.334745 -0.385466 -0.270782 -0.207698 -0.0686696 -0.144361 -0.231873 -0.485628 -0.648645 -0.769083 -0.463958 -0.710055 -0.825062 -0.48042 -0.606295 -0.699583 -0.379671 -0.363907 -0.394632 -1.55774 -nan -nan -nan -nan -nan -nan -nan -nan -nan -nan -nan -nan -nan -nan -nan -nan -nan -nan -nan -nan -nan -nan -nan -nan -nan -nan -nan -nan -nan -nan -nan -nan -nan -nan -nan -nan -nan -nan -nan -nan -nan -nan -nan -nan -nan -nan -nan -nan -nan -nan -nan -nan -nan -nan -nan -nan -nan -nan -nan -nan -nan -nan -nan -nan -nan -nan -nan -nan -nan -nan -nan -nan -nan -nan -nan -nan -nan -nan -nan -nan -nan -nan -nan -nan -nan -nan -nan -nan -nan -nan -nan -nan -nan -nan -nan -nan -nan -nan -nan -nan -nan -nan -nan -nan -nan -nan -nan -nan -nan -nan -nan -nan -nan -nan -nan -nan -nan -nan -nan -nan -nan -nan -nan -nan -nan -nan -nan -nan -nan -nan -nan -nan -nan -nan -nan -nan -nan -nan -nan -nan -nan -nan -nan -nan -nan -nan -nan -nan -nan -nan -nan -nan -nan -nan -nan -nan -nan -nan -nan -nan -nan -nan -nan -nan -nan -nan -nan -nan -nan -nan -nan -nan -nan -nan -nan -nan -nan -nan -nan -nan -nan -nan -nan -nan -nan -nan -nan -nan -nan -nan -nan -nan -nan -nan -nan -nan -nan -nan -nan -nan -nan -nan -nan -nan -nan -nan -nan -nan -nan -nan -nan -nan -nan -nan -nan -nan -nan -nan -nan -nan -nan -nan -nan -nan -nan -nan -nan -nan -nan -nan -nan -nan -nan -nan -nan -nan -nan -nan -nan -nan -nan -nan -nan -nan -nan -nan -nan -nan -nan -nan -0.3158 -0.268838 -0.246768 -0.23506 -0.399441 -0.201069 -0.34382 -0.293722 -0.0946227 -0.0694626 -0.00586005 -0.227881 0.448193 0.0990819 -0.112277 0.061521 0.0637111 -0.108836 0.0373991 0.000319218 0.0104073 -0.0106366 0.155083 0.128241 0.228402 0.0207592 -0.282836 -0.356987 -0.187843 -0.282115 -0.375275 -0.0956272 -0.218615 -0.414272 -0.122746 -0.058499 -0.0537204 -0.254691 -nan -nan -nan -nan -nan -nan -nan -nan -nan -nan -nan -nan -nan -nan -nan -nan -nan -nan -nan -nan -nan -nan -nan -nan -nan -nan -nan -nan -nan -nan -nan -nan -nan -nan -nan -nan -nan -nan -nan -nan -nan -nan -nan -nan -nan -nan -nan -nan -nan -nan -nan -nan -nan -nan -nan -nan -nan -nan -nan -nan -nan -nan -nan -nan -nan -nan -nan -nan -nan -nan -nan -nan -nan -nan -nan -nan -nan -nan -nan -nan -nan -nan -nan -nan -nan -nan -nan -nan -nan -nan -nan -nan -nan -nan -nan -nan -nan -nan -nan -nan -nan -nan -nan -nan -nan -nan -nan -nan -nan -nan -nan -nan -nan -nan -nan -nan -nan -nan -nan -nan -nan -nan -nan -nan -nan -nan -nan -nan -nan -nan -nan -nan -nan -nan -nan -nan -nan -nan -nan -nan -nan -nan -nan -nan -nan -nan -nan -nan -nan -nan -nan -nan -nan -nan -nan -nan -nan -nan -nan -nan -nan -nan -nan -nan -nan -nan -nan -nan -nan -nan -nan -nan -nan -nan -nan -nan -nan -nan -nan -nan -nan -nan -nan -nan -nan -nan -nan -nan -nan -nan -nan -nan -nan -nan -nan -nan -nan -nan -nan -nan -nan -nan -nan -nan -nan -nan -nan -nan -nan -nan -nan -nan -nan -nan -nan -nan -nan -nan -nan -nan -nan -nan -nan -nan -nan -nan -nan -nan -nan -nan -nan -nan -nan -nan -nan -nan -nan -nan -nan -nan -nan -nan -nan -nan -nan -nan -nan -nan -nan -nan 0.122195 0.0458372 -0.00770019 -0.0957956 0.04809 0.129653 0.0409292 0.0338836 0.198316 0.25758 0.076182 0.446 0.782747 0.205784 0.353275 0.343902 0.190901 0.349896 0.378109 0.362035 0.0880601 0.346475 0.260346 0.463716 0.200046 -0.00182631 -0.211221 0.059121 -0.12422 -0.186805 0.137899 0.0513875 -0.20379 0.0233974 0.140361 0.173963 -0.00151246 -nan -nan -nan -nan -nan -nan -nan -nan -nan -nan -nan -nan -nan -nan -nan -nan -nan -nan -nan -nan -nan -nan -nan -nan -nan -nan -nan -nan -nan -nan -nan -nan -nan -nan -nan -nan -nan -nan -nan -nan -nan -nan -nan -nan -nan -nan -nan -nan -nan -nan -nan -nan -nan -nan -nan -nan -nan -nan -nan -nan -nan -nan -nan -nan -nan -nan -nan -nan -nan -nan -nan -nan -nan -nan -nan -nan -nan -nan -nan -nan -nan -nan -nan -nan -nan -nan -nan -nan -nan -nan -nan -nan -nan -nan -nan -nan -nan -nan -nan -nan -nan -nan -nan -nan -nan -nan -nan -nan -nan -nan -nan -nan -nan -nan -nan -nan -nan -nan -nan -nan -nan -nan -nan -nan -nan -nan -nan -nan -nan -nan -nan -nan -nan -nan -nan -nan -nan -nan -nan -nan -nan -nan -nan -nan -nan -nan -nan -nan -nan -nan -nan -nan -nan -nan -nan -nan -nan -nan -nan -nan -nan -nan -nan -nan -nan -nan -nan -nan -nan -nan -nan -nan -nan -nan -nan -nan -nan -nan -nan -nan -nan -nan -nan -nan -nan -nan -nan -nan -nan -nan -nan -nan -nan -nan -nan -nan -nan -nan -nan -nan -nan -nan -nan -nan -nan -nan -nan -nan -nan -nan -nan -nan -nan -nan -nan -nan -nan -nan -nan -nan -nan -nan -nan -nan -nan -nan -nan -nan -nan -nan -nan -nan -nan -nan -nan -nan -nan -nan -nan -nan -nan -nan -nan -nan -nan -nan -nan -nan -nan -nan -0.00346531 -0.105768 -0.355833 0.000113479 -0.0925993 -0.164463 0.015441 0.143794 0.201483 0.0257203 0.398903 0.374033 0.181541 0.306265 0.307085 0.15943 0.250475 0.348844 0.264603 0.0657988 0.312297 0.233894 0.427308 0.156203 -0.134286 -0.395473 0.0126063 -0.212344 -0.321843 0.0806683 -0.0276778 -0.34967 -0.00629865 0.0995225 0.11599 -0.0590262 -nan -nan -nan -nan -nan -nan -nan -nan -nan -nan -nan -nan -nan -nan -nan -nan -nan -nan -nan -nan -nan -nan -nan -nan -nan -nan -nan -nan -nan -nan -nan -nan -nan -nan -nan -nan -nan -nan -nan -nan -nan -nan -nan -nan -nan -nan -nan -nan -nan -nan -nan -nan -nan -nan -nan -nan -nan -nan -nan -nan -nan -nan -nan -nan -nan -nan -nan -nan -nan -nan -nan -nan -nan -nan -nan -nan -nan -nan -nan -nan -nan -nan -nan -nan -nan -nan -nan -nan -nan -nan -nan -nan -nan -nan -nan -nan -nan -nan -nan -nan -nan -nan -nan -nan -nan -nan -nan -nan -nan -nan -nan -nan -nan -nan -nan -nan -nan -nan -nan -nan -nan -nan -nan -nan -nan -nan -nan -nan -nan -nan -nan -nan -nan -nan -nan -nan -nan -nan -nan -nan -nan -nan -nan -nan -nan -nan -nan -nan -nan -nan -nan -nan -nan -nan -nan -nan -nan -nan -nan -nan -nan -nan -nan -nan -nan -nan -nan -nan -nan -nan -nan -nan -nan -nan -nan -nan -nan -nan -nan -nan -nan -nan -nan -nan -nan -nan -nan -nan -nan -nan -nan -nan -nan -nan -nan -nan -nan -nan -nan -nan -nan -nan -nan -nan -nan -nan -nan -nan -nan -nan -nan -nan -nan -nan -nan -nan -nan -nan -nan -nan -nan -nan -nan -nan -nan -nan -nan -nan -nan -nan -nan -nan -nan -nan -nan -nan -nan -nan -nan -nan -nan -nan -nan -nan -nan -nan -nan -nan -nan -nan -0.0336215 -0.119338 -0.0152743 -0.0144588 -0.0159635 0.0112704 0.171617 0.189004 -0.032386 0.339781 0.257643 0.0623255 0.371829 0.183266 0.063599 0.175585 0.157569 0.180555 0.0499049 0.290293 0.224122 0.291239 0.153749 -0.109227 -0.215954 0.0428695 -0.162687 -0.187373 0.0431504 -0.0387137 -0.231283 -0.0214659 0.0838752 0.0746018 -0.0650386 -nan -nan -nan -nan -nan -nan -nan -nan -nan -nan -nan -nan -nan -nan -nan -nan -nan -nan -nan -nan -nan -nan -nan -nan -nan -nan -nan -nan -nan -nan -nan -nan -nan -nan -nan -nan -nan -nan -nan -nan -nan -nan -nan -nan -nan -nan -nan -nan -nan -nan -nan -nan -nan -nan -nan -nan -nan -nan -nan -nan -nan -nan -nan -nan -nan -nan -nan -nan -nan -nan -nan -nan -nan -nan -nan -nan -nan -nan -nan -nan -nan -nan -nan -nan -nan -nan -nan -nan -nan -nan -nan -nan -nan -nan -nan -nan -nan -nan -nan -nan -nan -nan -nan -nan -nan -nan -nan -nan -nan -nan -nan -nan -nan -nan -nan -nan -nan -nan -nan -nan -nan -nan -nan -nan -nan -nan -nan -nan -nan -nan -nan -nan -nan -nan -nan -nan -nan -nan -nan -nan -nan -nan -nan -nan -nan -nan -nan -nan -nan -nan -nan -nan -nan -nan -nan -nan -nan -nan -nan -nan -nan -nan -nan -nan -nan -nan -nan -nan -nan -nan -nan -nan -nan -nan -nan -nan -nan -nan -nan -nan -nan -nan -nan -nan -nan -nan -nan -nan -nan -nan -nan -nan -nan -nan -nan -nan -nan -nan -nan -nan -nan -nan -nan -nan -nan -nan -nan -nan -nan -nan -nan -nan -nan -nan -nan -nan -nan -nan -nan -nan -nan -nan -nan -nan -nan -nan -nan -nan -nan -nan -nan -nan -nan -nan -nan -nan -nan -nan -nan -nan -nan -nan -nan -nan -nan -nan -nan -nan -nan -nan -0.154386 0.0181991 0.0267221 -0.0334326 0.0309588 0.12632 0.218836 0.0459915 0.365416 0.345405 0.150869 0.266107 0.393995 0.199021 0.24146 0.290428 0.300611 0.0802068 0.305393 0.279894 0.407826 0.173798 -0.0891112 -0.239223 0.0187394 -0.236938 -0.230829 0.0959294 -0.00390546 -0.252593 0.00556929 0.117056 0.118832 -0.0245703 -nan -nan -nan -nan -nan -nan -nan -nan -nan -nan -nan -nan -nan -nan -nan -nan -nan -nan -nan -nan -nan -nan -nan -nan -nan -nan -nan -nan -nan -nan -nan -nan -nan -nan -nan -nan -nan -nan -nan -nan -nan -nan -nan -nan -nan -nan -nan -nan -nan -nan -nan -nan -nan -nan -nan -nan -nan -nan -nan -nan -nan -nan -nan -nan -nan -nan -nan -nan -nan -nan -nan -nan -nan -nan -nan -nan -nan -nan -nan -nan -nan -nan -nan -nan -nan -nan -nan -nan -nan -nan -nan -nan -nan -nan -nan -nan -nan -nan -nan -nan -nan -nan -nan -nan -nan -nan -nan -nan -nan -nan -nan -nan -nan -nan -nan -nan -nan -nan -nan -nan -nan -nan -nan -nan -nan -nan -nan -nan -nan -nan -nan -nan -nan -nan -nan -nan -nan -nan -nan -nan -nan -nan -nan -nan -nan -nan -nan -nan -nan -nan -nan -nan -nan -nan -nan -nan -nan -nan -nan -nan -nan -nan -nan -nan -nan -nan -nan -nan -nan -nan -nan -nan -nan -nan -nan -nan -nan -nan -nan -nan -nan -nan -nan -nan -nan -nan -nan -nan -nan -nan -nan -nan -nan -nan -nan -nan -nan -nan -nan -nan -nan -nan -nan -nan -nan -nan -nan -nan -nan -nan -nan -nan -nan -nan -nan -nan -nan -nan -nan -nan -nan -nan -nan -nan -nan -nan -nan -nan -nan -nan -nan -nan -nan -nan -nan -nan -nan -nan -nan -nan -nan -nan -nan -nan -nan -nan -nan -nan -nan -nan 0.111564 0.404126 0.203441 0.0767171 0.233768 0.320143 0.125015 0.432815 0.560062 0.264455 0.34995 0.539522 0.393953 0.351225 0.502662 0.401397 0.116356 0.387702 0.303393 0.546941 0.252856 0.0148796 -0.12486 0.0959342 -0.118508 -0.191948 0.164288 0.133047 -0.169629 0.0503766 0.164236 0.207409 0.027634 -nan -nan -nan -nan -nan -nan -nan -nan -nan -nan -nan -nan -nan -nan -nan -nan -nan -nan -nan -nan -nan -nan -nan -nan -nan -nan -nan -nan -nan -nan -nan -nan -nan -nan -nan -nan -nan -nan -nan -nan -nan -nan -nan -nan -nan -nan -nan -nan -nan -nan -nan -nan -nan -nan -nan -nan -nan -nan -nan -nan -nan -nan -nan -nan -nan -nan -nan -nan -nan -nan -nan -nan -nan -nan -nan -nan -nan -nan -nan -nan -nan -nan -nan -nan -nan -nan -nan -nan -nan -nan -nan -nan -nan -nan -nan -nan -nan -nan -nan -nan -nan -nan -nan -nan -nan -nan -nan -nan -nan -nan -nan -nan -nan -nan -nan -nan -nan -nan -nan -nan -nan -nan -nan -nan -nan -nan -nan -nan -nan -nan -nan -nan -nan -nan -nan -nan -nan -nan -nan -nan -nan -nan -nan -nan -nan -nan -nan -nan -nan -nan -nan -nan -nan -nan -nan -nan -nan -nan -nan -nan -nan -nan -nan -nan -nan -nan -nan -nan -nan -nan -nan -nan -nan -nan -nan -nan -nan -nan -nan -nan -nan -nan -nan -nan -nan -nan -nan -nan -nan -nan -nan -nan -nan -nan -nan -nan -nan -nan -nan -nan -nan -nan -nan -nan -nan -nan -nan -nan -nan -nan -nan -nan -nan -nan -nan -nan -nan -nan -nan -nan -nan -nan -nan -nan -nan -nan -nan -nan -nan -nan -nan -nan -nan -nan -nan -nan -nan -nan -nan -nan -nan -nan -nan -nan -nan -nan -nan -nan -nan -nan -0.0209494 -0.0290612 0.0172342 0.112203 0.141644 -2.38055e-05 0.337883 0.292859 0.0789193 0.220923 0.238054 0.0836816 0.387715 0.179304 0.184287 0.0760038 0.284486 0.220022 0.385072 0.14026 -0.0954676 -0.176598 0.00374544 -0.128216 -0.201158 0.10765 -0.0394792 -0.19753 -0.00857052 0.0685127 0.0863912 -0.074124 -nan -nan -nan -nan -nan -nan -nan -nan -nan -nan -nan -nan -nan -nan -nan -nan -nan -nan -nan -nan -nan -nan -nan -nan -nan -nan -nan -nan -nan -nan -nan -nan -nan -nan -nan -nan -nan -nan -nan -nan -nan -nan -nan -nan -nan -nan -nan -nan -nan -nan -nan -nan -nan -nan -nan -nan -nan -nan -nan -nan -nan -nan -nan -nan -nan -nan -nan -nan -nan -nan -nan -nan -nan -nan -nan -nan -nan -nan -nan -nan -nan -nan -nan -nan -nan -nan -nan -nan -nan -nan -nan -nan -nan -nan -nan -nan -nan -nan -nan -nan -nan -nan -nan -nan -nan -nan -nan -nan -nan -nan -nan -nan -nan -nan -nan -nan -nan -nan -nan -nan -nan -nan -nan -nan -nan -nan -nan -nan -nan -nan -nan -nan -nan -nan -nan -nan -nan -nan -nan -nan -nan -nan -nan -nan -nan -nan -nan -nan -nan -nan -nan -nan -nan -nan -nan -nan -nan -nan -nan -nan -nan -nan -nan -nan -nan -nan -nan -nan -nan -nan -nan -nan -nan -nan -nan -nan -nan -nan -nan -nan -nan -nan -nan -nan -nan -nan -nan -nan -nan -nan -nan -nan -nan -nan -nan -nan -nan -nan -nan -nan -nan -nan -nan -nan -nan -nan -nan -nan -nan -nan -nan -nan -nan -nan -nan -nan -nan -nan -nan -nan -nan -nan -nan -nan -nan -nan -nan -nan -nan -nan -nan -nan -nan -nan -nan -nan -nan -nan -nan -nan -nan -nan -nan -nan -nan -nan -nan -nan -nan -nan -0.139944 0.019338 0.179735 0.280976 0.0369187 0.442948 0.442643 0.166504 0.333538 0.325077 0.195256 0.270414 0.425417 0.307286 0.0726483 0.351509 0.288349 0.458089 0.189262 -0.116832 -0.32926 0.027875 -0.206543 -0.332432 0.0920813 -0.0169515 -0.364411 -0.00992075 0.105687 0.12823 -0.0509496 -nan -nan -nan -nan -nan -nan -nan -nan -nan -nan -nan -nan -nan -nan -nan -nan -nan -nan -nan -nan -nan -nan -nan -nan -nan -nan -nan -nan -nan -nan -nan -nan -nan -nan -nan -nan -nan -nan -nan -nan -nan -nan -nan -nan -nan -nan -nan -nan -nan -nan -nan -nan -nan -nan -nan -nan -nan -nan -nan -nan -nan -nan -nan -nan -nan -nan -nan -nan -nan -nan -nan -nan -nan -nan -nan -nan -nan -nan -nan -nan -nan -nan -nan -nan -nan -nan -nan -nan -nan -nan -nan -nan -nan -nan -nan -nan -nan -nan -nan -nan -nan -nan -nan -nan -nan -nan -nan -nan -nan -nan -nan -nan -nan -nan -nan -nan -nan -nan -nan -nan -nan -nan -nan -nan -nan -nan -nan -nan -nan -nan -nan -nan -nan -nan -nan -nan -nan -nan -nan -nan -nan -nan -nan -nan -nan -nan -nan -nan -nan -nan -nan -nan -nan -nan -nan -nan -nan -nan -nan -nan -nan -nan -nan -nan -nan -nan -nan -nan -nan -nan -nan -nan -nan -nan -nan -nan -nan -nan -nan -nan -nan -nan -nan -nan -nan -nan -nan -nan -nan -nan -nan -nan -nan -nan -nan -nan -nan -nan -nan -nan -nan -nan -nan -nan -nan -nan -nan -nan -nan -nan -nan -nan -nan -nan -nan -nan -nan -nan -nan -nan -nan -nan -nan -nan -nan -nan -nan -nan -nan -nan -nan -nan -nan -nan -nan -nan -nan -nan -nan -nan -nan -nan -nan -nan -nan -nan -nan -nan -nan -nan 0.0101079 0.197964 0.280298 0.0057733 0.34138 0.443937 0.151863 0.306879 0.349934 0.157532 0.242854 0.303479 0.375175 0.0688316 0.336354 0.274058 0.396867 0.171502 -0.0226847 -0.174703 0.0755708 -0.191967 -0.189274 0.0716069 0.0277359 -0.181196 -0.00910515 0.121838 0.160369 -0.0256576 -nan -nan -nan -nan -nan -nan -nan -nan -nan -nan -nan -nan -nan -nan -nan -nan -nan -nan -nan -nan -nan -nan -nan -nan -nan -nan -nan -nan -nan -nan -nan -nan -nan -nan -nan -nan -nan -nan -nan -nan -nan -nan -nan -nan -nan -nan -nan -nan -nan -nan -nan -nan -nan -nan -nan -nan -nan -nan -nan -nan -nan -nan -nan -nan -nan -nan -nan -nan -nan -nan -nan -nan -nan -nan -nan -nan -nan -nan -nan -nan -nan -nan -nan -nan -nan -nan -nan -nan -nan -nan -nan -nan -nan -nan -nan -nan -nan -nan -nan -nan -nan -nan -nan -nan -nan -nan -nan -nan -nan -nan -nan -nan -nan -nan -nan -nan -nan -nan -nan -nan -nan -nan -nan -nan -nan -nan -nan -nan -nan -nan -nan -nan -nan -nan -nan -nan -nan -nan -nan -nan -nan -nan -nan -nan -nan -nan -nan -nan -nan -nan -nan -nan -nan -nan -nan -nan -nan -nan -nan -nan -nan -nan -nan -nan -nan -nan -nan -nan -nan -nan -nan -nan -nan -nan -nan -nan -nan -nan -nan -nan -nan -nan -nan -nan -nan -nan -nan -nan -nan -nan -nan -nan -nan -nan -nan -nan -nan -nan -nan -nan -nan -nan -nan -nan -nan -nan -nan -nan -nan -nan -nan -nan -nan -nan -nan -nan -nan -nan -nan -nan -nan -nan -nan -nan -nan -nan -nan -nan -nan -nan -nan -nan -nan -nan -nan -nan -nan -nan -nan -nan -nan -nan -nan -nan -nan -nan -nan -nan -nan -nan 0.0600408 0.139049 -0.0199647 0.208409 0.135278 0.0254936 0.111708 0.14511 0.026604 0.125341 0.0821859 0.0955704 0.29074 0.244172 0.227655 0.23238 0.0914058 -0.0601715 -0.0852823 -0.0136316 -0.105919 -0.114009 0.025874 -0.0337667 -0.119998 -0.0743123 0.0286642 0.0626643 -0.0669934 -nan -nan -nan -nan -nan -nan -nan -nan -nan -nan -nan -nan -nan -nan -nan -nan -nan -nan -nan -nan -nan -nan -nan -nan -nan -nan -nan -nan -nan -nan -nan -nan -nan -nan -nan -nan -nan -nan -nan -nan -nan -nan -nan -nan -nan -nan -nan -nan -nan -nan -nan -nan -nan -nan -nan -nan -nan -nan -nan -nan -nan -nan -nan -nan -nan -nan -nan -nan -nan -nan -nan -nan -nan -nan -nan -nan -nan -nan -nan -nan -nan -nan -nan -nan -nan -nan -nan -nan -nan -nan -nan -nan -nan -nan -nan -nan -nan -nan -nan -nan -nan -nan -nan -nan -nan -nan -nan -nan -nan -nan -nan -nan -nan -nan -nan -nan -nan -nan -nan -nan -nan -nan -nan -nan -nan -nan -nan -nan -nan -nan -nan -nan -nan -nan -nan -nan -nan -nan -nan -nan -nan -nan -nan -nan -nan -nan -nan -nan -nan -nan -nan -nan -nan -nan -nan -nan -nan -nan -nan -nan -nan -nan -nan -nan -nan -nan -nan -nan -nan -nan -nan -nan -nan -nan -nan -nan -nan -nan -nan -nan -nan -nan -nan -nan -nan -nan -nan -nan -nan -nan -nan -nan -nan -nan -nan -nan -nan -nan -nan -nan -nan -nan -nan -nan -nan -nan -nan -nan -nan -nan -nan -nan -nan -nan -nan -nan -nan -nan -nan -nan -nan -nan -nan -nan -nan -nan -nan -nan -nan -nan -nan -nan -nan -nan -nan -nan -nan -nan -nan -nan -nan -nan -nan -nan -nan -nan -nan -nan -nan -nan 0.123495 -0.10881 0.254717 0.152527 -0.0383372 0.131208 0.111205 -0.0369305 0.102645 0.0673258 0.0656508 0.0209462 0.440046 0.204695 0.245102 0.0498597 -0.205581 -0.317708 -0.125506 -0.237528 -0.293524 -0.0547758 -0.155155 -0.331899 -0.0978185 -0.0273473 0.0141979 -0.153804 -nan -nan -nan -nan -nan -nan -nan -nan -nan -nan -nan -nan -nan -nan -nan -nan -nan -nan -nan -nan -nan -nan -nan -nan -nan -nan -nan -nan -nan -nan -nan -nan -nan -nan -nan -nan -nan -nan -nan -nan -nan -nan -nan -nan -nan -nan -nan -nan -nan -nan -nan -nan -nan -nan -nan -nan -nan -nan -nan -nan -nan -nan -nan -nan -nan -nan -nan -nan -nan -nan -nan -nan -nan -nan -nan -nan -nan -nan -nan -nan -nan -nan -nan -nan -nan -nan -nan -nan -nan -nan -nan -nan -nan -nan -nan -nan -nan -nan -nan -nan -nan -nan -nan -nan -nan -nan -nan -nan -nan -nan -nan -nan -nan -nan -nan -nan -nan -nan -nan -nan -nan -nan -nan -nan -nan -nan -nan -nan -nan -nan -nan -nan -nan -nan -nan -nan -nan -nan -nan -nan -nan -nan -nan -nan -nan -nan -nan -nan -nan -nan -nan -nan -nan -nan -nan -nan -nan -nan -nan -nan -nan -nan -nan -nan -nan -nan -nan -nan -nan -nan -nan -nan -nan -nan -nan -nan -nan -nan -nan -nan -nan -nan -nan -nan -nan -nan -nan -nan -nan -nan -nan -nan -nan -nan -nan -nan -nan -nan -nan -nan -nan -nan -nan -nan -nan -nan -nan -nan -nan -nan -nan -nan -nan -nan -nan -nan -nan -nan -nan -nan -nan -nan -nan -nan -nan -nan -nan -nan -nan -nan -nan -nan -nan -nan -nan -nan -nan -nan -nan -nan -nan -nan -nan -nan -nan -nan -nan -nan -nan -nan -0.169428 0.249222 0.112426 -0.0776309 0.0640612 0.104882 -0.0662133 0.0678903 0.0190541 0.0427492 0.0102157 0.238574 0.355812 0.219133 0.0163137 -0.253339 -0.325379 -0.176666 -0.299449 -0.318552 -0.0603538 -0.193595 -0.407359 -0.150813 -0.0809466 -0.0509162 -0.188804 -nan -nan -nan -nan -nan -nan -nan -nan -nan -nan -nan -nan -nan -nan -nan -nan -nan -nan -nan -nan -nan -nan -nan -nan -nan -nan -nan -nan -nan -nan -nan -nan -nan -nan -nan -nan -nan -nan -nan -nan -nan -nan -nan -nan -nan -nan -nan -nan -nan -nan -nan -nan -nan -nan -nan -nan -nan -nan -nan -nan -nan -nan -nan -nan -nan -nan -nan -nan -nan -nan -nan -nan -nan -nan -nan -nan -nan -nan -nan -nan -nan -nan -nan -nan -nan -nan -nan -nan -nan -nan -nan -nan -nan -nan -nan -nan -nan -nan -nan -nan -nan -nan -nan -nan -nan -nan -nan -nan -nan -nan -nan -nan -nan -nan -nan -nan -nan -nan -nan -nan -nan -nan -nan -nan -nan -nan -nan -nan -nan -nan -nan -nan -nan -nan -nan -nan -nan -nan -nan -nan -nan -nan -nan -nan -nan -nan -nan -nan -nan -nan -nan -nan -nan -nan -nan -nan -nan -nan -nan -nan -nan -nan -nan -nan -nan -nan -nan -nan -nan -nan -nan -nan -nan -nan -nan -nan -nan -nan -nan -nan -nan -nan -nan -nan -nan -nan -nan -nan -nan -nan -nan -nan -nan -nan -nan -nan -nan -nan -nan -nan -nan -nan -nan -nan -nan -nan -nan -nan -nan -nan -nan -nan -nan -nan -nan -nan -nan -nan -nan -nan -nan -nan -nan -nan -nan -nan -nan -nan -nan -nan -nan -nan -nan -nan -nan -nan -nan -nan -nan -nan -nan -nan -nan -nan -nan -nan -nan -nan -nan -nan 0.403791 0.303763 0.0773817 0.216929 0.242496 0.0850512 0.275201 0.184259 0.171968 0.081461 0.290955 0.232214 0.612723 0.205939 -0.0804329 -0.170694 0.00255414 -0.15438 -0.193927 0.0967705 -0.0321944 -0.216156 -0.0148574 0.0812944 0.0988907 -0.0722095 -nan -nan -nan -nan -nan -nan -nan -nan -nan -nan -nan -nan -nan -nan -nan -nan -nan -nan -nan -nan -nan -nan -nan -nan -nan -nan -nan -nan -nan -nan -nan -nan -nan -nan -nan -nan -nan -nan -nan -nan -nan -nan -nan -nan -nan -nan -nan -nan -nan -nan -nan -nan -nan -nan -nan -nan -nan -nan -nan -nan -nan -nan -nan -nan -nan -nan -nan -nan -nan -nan -nan -nan -nan -nan -nan -nan -nan -nan -nan -nan -nan -nan -nan -nan -nan -nan -nan -nan -nan -nan -nan -nan -nan -nan -nan -nan -nan -nan -nan -nan -nan -nan -nan -nan -nan -nan -nan -nan -nan -nan -nan -nan -nan -nan -nan -nan -nan -nan -nan -nan -nan -nan -nan -nan -nan -nan -nan -nan -nan -nan -nan -nan -nan -nan -nan -nan -nan -nan -nan -nan -nan -nan -nan -nan -nan -nan -nan -nan -nan -nan -nan -nan -nan -nan -nan -nan -nan -nan -nan -nan -nan -nan -nan -nan -nan -nan -nan -nan -nan -nan -nan -nan -nan -nan -nan -nan -nan -nan -nan -nan -nan -nan -nan -nan -nan -nan -nan -nan -nan -nan -nan -nan -nan -nan -nan -nan -nan -nan -nan -nan -nan -nan -nan -nan -nan -nan -nan -nan -nan -nan -nan -nan -nan -nan -nan -nan -nan -nan -nan -nan -nan -nan -nan -nan -nan -nan -nan -nan -nan -nan -nan -nan -nan -nan -nan -nan -nan -nan -nan -nan -nan -nan -nan -nan -nan -nan -nan -nan -nan -nan -0.150629 -0.435264 -0.321209 -0.152532 -0.386594 -0.285334 -0.376016 -0.206994 -0.137742 -0.0267645 -0.0797583 -0.10353 -0.414779 -0.616355 -0.645867 -0.531789 -0.533031 -0.670142 -0.369546 -0.545523 -0.734668 -0.290434 -0.34453 -0.343665 -0.563168 -nan -nan -nan -nan -nan -nan -nan -nan -nan -nan -nan -nan -nan -nan -nan -nan -nan -nan -nan -nan -nan -nan -nan -nan -nan -nan -nan -nan -nan -nan -nan -nan -nan -nan -nan -nan -nan -nan -nan -nan -nan -nan -nan -nan -nan -nan -nan -nan -nan -nan -nan -nan -nan -nan -nan -nan -nan -nan -nan -nan -nan -nan -nan -nan -nan -nan -nan -nan -nan -nan -nan -nan -nan -nan -nan -nan -nan -nan -nan -nan -nan -nan -nan -nan -nan -nan -nan -nan -nan -nan -nan -nan -nan -nan -nan -nan -nan -nan -nan -nan -nan -nan -nan -nan -nan -nan -nan -nan -nan -nan -nan -nan -nan -nan -nan -nan -nan -nan -nan -nan -nan -nan -nan -nan -nan -nan -nan -nan -nan -nan -nan -nan -nan -nan -nan -nan -nan -nan -nan -nan -nan -nan -nan -nan -nan -nan -nan -nan -nan -nan -nan -nan -nan -nan -nan -nan -nan -nan -nan -nan -nan -nan -nan -nan -nan -nan -nan -nan -nan -nan -nan -nan -nan -nan -nan -nan -nan -nan -nan -nan -nan -nan -nan -nan -nan -nan -nan -nan -nan -nan -nan -nan -nan -nan -nan -nan -nan -nan -nan -nan -nan -nan -nan -nan -nan -nan -nan -nan -nan -nan -nan -nan -nan -nan -nan -nan -nan -nan -nan -nan -nan -nan -nan -nan -nan -nan -nan -nan -nan -nan -nan -nan -nan -nan -nan -nan -nan -nan -nan -nan -nan -nan -nan -nan -nan -nan -nan -nan -nan -nan -0.258231 -0.060885 -0.0790565 -0.26086 -0.120804 -0.150058 -0.188544 -0.077163 0.0817346 0.0304112 0.111636 -0.13686 -0.722549 -0.806354 -0.286924 -0.707986 -0.721562 -0.3054 -0.464218 -0.755255 -0.180888 -0.151311 -0.174379 -0.395059 -nan -nan -nan -nan -nan -nan -nan -nan -nan -nan -nan -nan -nan -nan -nan -nan -nan -nan -nan -nan -nan -nan -nan -nan -nan -nan -nan -nan -nan -nan -nan -nan -nan -nan -nan -nan -nan -nan -nan -nan -nan -nan -nan -nan -nan -nan -nan -nan -nan -nan -nan -nan -nan -nan -nan -nan -nan -nan -nan -nan -nan -nan -nan -nan -nan -nan -nan -nan -nan -nan -nan -nan -nan -nan -nan -nan -nan -nan -nan -nan -nan -nan -nan -nan -nan -nan -nan -nan -nan -nan -nan -nan -nan -nan -nan -nan -nan -nan -nan -nan -nan -nan -nan -nan -nan -nan -nan -nan -nan -nan -nan -nan -nan -nan -nan -nan -nan -nan -nan -nan -nan -nan -nan -nan -nan -nan -nan -nan -nan -nan -nan -nan -nan -nan -nan -nan -nan -nan -nan -nan -nan -nan -nan -nan -nan -nan -nan -nan -nan -nan -nan -nan -nan -nan -nan -nan -nan -nan -nan -nan -nan -nan -nan -nan -nan -nan -nan -nan -nan -nan -nan -nan -nan -nan -nan -nan -nan -nan -nan -nan -nan -nan -nan -nan -nan -nan -nan -nan -nan -nan -nan -nan -nan -nan -nan -nan -nan -nan -nan -nan -nan -nan -nan -nan -nan -nan -nan -nan -nan -nan -nan -nan -nan -nan -nan -nan -nan -nan -nan -nan -nan -nan -nan -nan -nan -nan -nan -nan -nan -nan -nan -nan -nan -nan -nan -nan -nan -nan -nan -nan -nan -nan -nan -nan -nan -nan -nan -nan -nan -nan 0.294235 0.232605 -0.0143256 0.12424 0.343871 0.205852 0.0310675 0.331254 0.222803 0.413862 0.0691094 -0.369647 -0.811242 -0.0989719 -0.426123 -0.656434 -0.0480088 -0.23957 -0.589263 -0.0612863 0.024637 0.0411293 -0.185334 -nan -nan -nan -nan -nan -nan -nan -nan -nan -nan -nan -nan -nan -nan -nan -nan -nan -nan -nan -nan -nan -nan -nan -nan -nan -nan -nan -nan -nan -nan -nan -nan -nan -nan -nan -nan -nan -nan -nan -nan -nan -nan -nan -nan -nan -nan -nan -nan -nan -nan -nan -nan -nan -nan -nan -nan -nan -nan -nan -nan -nan -nan -nan -nan -nan -nan -nan -nan -nan -nan -nan -nan -nan -nan -nan -nan -nan -nan -nan -nan -nan -nan -nan -nan -nan -nan -nan -nan -nan -nan -nan -nan -nan -nan -nan -nan -nan -nan -nan -nan -nan -nan -nan -nan -nan -nan -nan -nan -nan -nan -nan -nan -nan -nan -nan -nan -nan -nan -nan -nan -nan -nan -nan -nan -nan -nan -nan -nan -nan -nan -nan -nan -nan -nan -nan -nan -nan -nan -nan -nan -nan -nan -nan -nan -nan -nan -nan -nan -nan -nan -nan -nan -nan -nan -nan -nan -nan -nan -nan -nan -nan -nan -nan -nan -nan -nan -nan -nan -nan -nan -nan -nan -nan -nan -nan -nan -nan -nan -nan -nan -nan -nan -nan -nan -nan -nan -nan -nan -nan -nan -nan -nan -nan -nan -nan -nan -nan -nan -nan -nan -nan -nan -nan -nan -nan -nan -nan -nan -nan -nan -nan -nan -nan -nan -nan -nan -nan -nan -nan -nan -nan -nan -nan -nan -nan -nan -nan -nan -nan -nan -nan -nan -nan -nan -nan -nan -nan -nan -nan -nan -nan -nan -nan -nan -nan -nan -nan -nan -nan -nan -0.0299333 -0.214761 -0.0441301 -0.0742411 -0.0753044 -0.0519392 0.144271 0.0635613 0.203578 -0.0803203 -0.493229 -0.595493 -0.551108 -0.4341 -0.558915 -0.192348 -0.339542 -0.714376 -0.150864 -0.136546 -0.136947 -0.333087 -nan -nan -nan -nan -nan -nan -nan -nan -nan -nan -nan -nan -nan -nan -nan -nan -nan -nan -nan -nan -nan -nan -nan -nan -nan -nan -nan -nan -nan -nan -nan -nan -nan -nan -nan -nan -nan -nan -nan -nan -nan -nan -nan -nan -nan -nan -nan -nan -nan -nan -nan -nan -nan -nan -nan -nan -nan -nan -nan -nan -nan -nan -nan -nan -nan -nan -nan -nan -nan -nan -nan -nan -nan -nan -nan -nan -nan -nan -nan -nan -nan -nan -nan -nan -nan -nan -nan -nan -nan -nan -nan -nan -nan -nan -nan -nan -nan -nan -nan -nan -nan -nan -nan -nan -nan -nan -nan -nan -nan -nan -nan -nan -nan -nan -nan -nan -nan -nan -nan -nan -nan -nan -nan -nan -nan -nan -nan -nan -nan -nan -nan -nan -nan -nan -nan -nan -nan -nan -nan -nan -nan -nan -nan -nan -nan -nan -nan -nan -nan -nan -nan -nan -nan -nan -nan -nan -nan -nan -nan -nan -nan -nan -nan -nan -nan -nan -nan -nan -nan -nan -nan -nan -nan -nan -nan -nan -nan -nan -nan -nan -nan -nan -nan -nan -nan -nan -nan -nan -nan -nan -nan -nan -nan -nan -nan -nan -nan -nan -nan -nan -nan -nan -nan -nan -nan -nan -nan -nan -nan -nan -nan -nan -nan -nan -nan -nan -nan -nan -nan -nan -nan -nan -nan -nan -nan -nan -nan -nan -nan -nan -nan -nan -nan -nan -nan -nan -nan -nan -nan -nan -nan -nan -nan -nan -nan -nan -nan -nan -nan -nan -0.231992 -0.0398299 -0.0292341 -0.10103 -0.071888 0.178305 0.0399649 0.189408 -0.0876652 -0.377343 -0.674153 -0.20378 -1.02707 -0.672773 -0.202535 -0.365714 -0.577746 -0.187366 -0.112985 -0.132804 -0.332151 -nan -nan -nan -nan -nan -nan -nan -nan -nan -nan -nan -nan -nan -nan -nan -nan -nan -nan -nan -nan -nan -nan -nan -nan -nan -nan -nan -nan -nan -nan -nan -nan -nan -nan -nan -nan -nan -nan -nan -nan -nan -nan -nan -nan -nan -nan -nan -nan -nan -nan -nan -nan -nan -nan -nan -nan -nan -nan -nan -nan -nan -nan -nan -nan -nan -nan -nan -nan -nan -nan -nan -nan -nan -nan -nan -nan -nan -nan -nan -nan -nan -nan -nan -nan -nan -nan -nan -nan -nan -nan -nan -nan -nan -nan -nan -nan -nan -nan -nan -nan -nan -nan -nan -nan -nan -nan -nan -nan -nan -nan -nan -nan -nan -nan -nan -nan -nan -nan -nan -nan -nan -nan -nan -nan -nan -nan -nan -nan -nan -nan -nan -nan -nan -nan -nan -nan -nan -nan -nan -nan -nan -nan -nan -nan -nan -nan -nan -nan -nan -nan -nan -nan -nan -nan -nan -nan -nan -nan -nan -nan -nan -nan -nan -nan -nan -nan -nan -nan -nan -nan -nan -nan -nan -nan -nan -nan -nan -nan -nan -nan -nan -nan -nan -nan -nan -nan -nan -nan -nan -nan -nan -nan -nan -nan -nan -nan -nan -nan -nan -nan -nan -nan -nan -nan -nan -nan -nan -nan -nan -nan -nan -nan -nan -nan -nan -nan -nan -nan -nan -nan -nan -nan -nan -nan -nan -nan -nan -nan -nan -nan -nan -nan -nan -nan -nan -nan -nan -nan -nan -nan -nan -nan -nan -nan -nan -nan -nan -nan -nan -nan 0.0938856 0.431284 0.158047 0.0347399 0.293891 0.204614 0.424309 0.0711967 -0.315353 -0.574754 -0.0882982 -0.38753 -0.963051 -0.0486859 -0.245188 -0.583333 -0.0582288 0.010426 0.0391064 -0.205978 -nan -nan -nan -nan -nan -nan -nan -nan -nan -nan -nan -nan -nan -nan -nan -nan -nan -nan -nan -nan -nan -nan -nan -nan -nan -nan -nan -nan -nan -nan -nan -nan -nan -nan -nan -nan -nan -nan -nan -nan -nan -nan -nan -nan -nan -nan -nan -nan -nan -nan -nan -nan -nan -nan -nan -nan -nan -nan -nan -nan -nan -nan -nan -nan -nan -nan -nan -nan -nan -nan -nan -nan -nan -nan -nan -nan -nan -nan -nan -nan -nan -nan -nan -nan -nan -nan -nan -nan -nan -nan -nan -nan -nan -nan -nan -nan -nan -nan -nan -nan -nan -nan -nan -nan -nan -nan -nan -nan -nan -nan -nan -nan -nan -nan -nan -nan -nan -nan -nan -nan -nan -nan -nan -nan -nan -nan -nan -nan -nan -nan -nan -nan -nan -nan -nan -nan -nan -nan -nan -nan -nan -nan -nan -nan -nan -nan -nan -nan -nan -nan -nan -nan -nan -nan -nan -nan -nan -nan -nan -nan -nan -nan -nan -nan -nan -nan -nan -nan -nan -nan -nan -nan -nan -nan -nan -nan -nan -nan -nan -nan -nan -nan -nan -nan -nan -nan -nan -nan -nan -nan -nan -nan -nan -nan -nan -nan -nan -nan -nan -nan -nan -nan -nan -nan -nan -nan -nan -nan -nan -nan -nan -nan -nan -nan -nan -nan -nan -nan -nan -nan -nan -nan -nan -nan -nan -nan -nan -nan -nan -nan -nan -nan -nan -nan -nan -nan -nan -nan -nan -nan -nan -nan -nan -nan -nan -nan -nan -nan -nan -nan 0.00276485 -0.0184862 -0.0397287 0.176148 0.0720858 0.281985 -0.0633219 -0.35882 -0.553024 -0.196397 -0.426125 -0.481181 -0.453122 -0.274655 -0.496084 -0.166867 -0.112165 -0.118487 -0.358697 -nan -nan -nan -nan -nan -nan -nan -nan -nan -nan -nan -nan -nan -nan -nan -nan -nan -nan -nan -nan -nan -nan -nan -nan -nan -nan -nan -nan -nan -nan -nan -nan -nan -nan -nan -nan -nan -nan -nan -nan -nan -nan -nan -nan -nan -nan -nan -nan -nan -nan -nan -nan -nan -nan -nan -nan -nan -nan -nan -nan -nan -nan -nan -nan -nan -nan -nan -nan -nan -nan -nan -nan -nan -nan -nan -nan -nan -nan -nan -nan -nan -nan -nan -nan -nan -nan -nan -nan -nan -nan -nan -nan -nan -nan -nan -nan -nan -nan -nan -nan -nan -nan -nan -nan -nan -nan -nan -nan -nan -nan -nan -nan -nan -nan -nan -nan -nan -nan -nan -nan -nan -nan -nan -nan -nan -nan -nan -nan -nan -nan -nan -nan -nan -nan -nan -nan -nan -nan -nan -nan -nan -nan -nan -nan -nan -nan -nan -nan -nan -nan -nan -nan -nan -nan -nan -nan -nan -nan -nan -nan -nan -nan -nan -nan -nan -nan -nan -nan -nan -nan -nan -nan -nan -nan -nan -nan -nan -nan -nan -nan -nan -nan -nan -nan -nan -nan -nan -nan -nan -nan -nan -nan -nan -nan -nan -nan -nan -nan -nan -nan -nan -nan -nan -nan -nan -nan -nan -nan -nan -nan -nan -nan -nan -nan -nan -nan -nan -nan -nan -nan -nan -nan -nan -nan -nan -nan -nan -nan -nan -nan -nan -nan -nan -nan -nan -nan -nan -nan -nan -nan -nan -nan -nan -nan -nan -nan -nan -nan -nan -nan 0.0128812 -0.00537394 0.227914 0.112107 0.31212 -0.0234221 -0.576673 -0.849445 -0.248034 -0.530587 -0.977588 -0.146569 -0.595108 -0.80409 -0.110718 -0.0887442 -0.0614404 -0.330096 -nan -nan -nan -nan -nan -nan -nan -nan -nan -nan -nan -nan -nan -nan -nan -nan -nan -nan -nan -nan -nan -nan -nan -nan -nan -nan -nan -nan -nan -nan -nan -nan -nan -nan -nan -nan -nan -nan -nan -nan -nan -nan -nan -nan -nan -nan -nan -nan -nan -nan -nan -nan -nan -nan -nan -nan -nan -nan -nan -nan -nan -nan -nan -nan -nan -nan -nan -nan -nan -nan -nan -nan -nan -nan -nan -nan -nan -nan -nan -nan -nan -nan -nan -nan -nan -nan -nan -nan -nan -nan -nan -nan -nan -nan -nan -nan -nan -nan -nan -nan -nan -nan -nan -nan -nan -nan -nan -nan -nan -nan -nan -nan -nan -nan -nan -nan -nan -nan -nan -nan -nan -nan -nan -nan -nan -nan -nan -nan -nan -nan -nan -nan -nan -nan -nan -nan -nan -nan -nan -nan -nan -nan -nan -nan -nan -nan -nan -nan -nan -nan -nan -nan -nan -nan -nan -nan -nan -nan -nan -nan -nan -nan -nan -nan -nan -nan -nan -nan -nan -nan -nan -nan -nan -nan -nan -nan -nan -nan -nan -nan -nan -nan -nan -nan -nan -nan -nan -nan -nan -nan -nan -nan -nan -nan -nan -nan -nan -nan -nan -nan -nan -nan -nan -nan -nan -nan -nan -nan -nan -nan -nan -nan -nan -nan -nan -nan -nan -nan -nan -nan -nan -nan -nan -nan -nan -nan -nan -nan -nan -nan -nan -nan -nan -nan -nan -nan -nan -nan -nan -nan -nan -nan -nan -nan -nan -nan -nan -nan -nan -nan -0.0175806 0.197918 0.127587 0.192353 -0.0151561 -0.47191 -0.611799 -0.241474 -0.590252 -0.574818 -0.140788 -0.346783 -0.760778 -0.120502 -0.0710673 -0.069274 -0.235201 -nan -nan -nan -nan -nan -nan -nan -nan -nan -nan -nan -nan -nan -nan -nan -nan -nan -nan -nan -nan -nan -nan -nan -nan -nan -nan -nan -nan -nan -nan -nan -nan -nan -nan -nan -nan -nan -nan -nan -nan -nan -nan -nan -nan -nan -nan -nan -nan -nan -nan -nan -nan -nan -nan -nan -nan -nan -nan -nan -nan -nan -nan -nan -nan -nan -nan -nan -nan -nan -nan -nan -nan -nan -nan -nan -nan -nan -nan -nan -nan -nan -nan -nan -nan -nan -nan -nan -nan -nan -nan -nan -nan -nan -nan -nan -nan -nan -nan -nan -nan -nan -nan -nan -nan -nan -nan -nan -nan -nan -nan -nan -nan -nan -nan -nan -nan -nan -nan -nan -nan -nan -nan -nan -nan -nan -nan -nan -nan -nan -nan -nan -nan -nan -nan -nan -nan -nan -nan -nan -nan -nan -nan -nan -nan -nan -nan -nan -nan -nan -nan -nan -nan -nan -nan -nan -nan -nan -nan -nan -nan -nan -nan -nan -nan -nan -nan -nan -nan -nan -nan -nan -nan -nan -nan -nan -nan -nan -nan -nan -nan -nan -nan -nan -nan -nan -nan -nan -nan -nan -nan -nan -nan -nan -nan -nan -nan -nan -nan -nan -nan -nan -nan -nan -nan -nan -nan -nan -nan -nan -nan -nan -nan -nan -nan -nan -nan -nan -nan -nan -nan -nan -nan -nan -nan -nan -nan -nan -nan -nan -nan -nan -nan -nan -nan -nan -nan -nan -nan -nan -nan -nan -nan -nan -nan -nan -nan -nan -nan -nan -nan 0.18221 0.1344 0.146806 0.00695048 -0.117515 -0.144676 -0.0760996 -0.163162 -0.184495 -0.0453217 -0.101886 -0.179128 -0.525164 -0.0512197 -0.0364649 -0.133902 -nan -nan -nan -nan -nan -nan -nan -nan -nan -nan -nan -nan -nan -nan -nan -nan -nan -nan -nan -nan -nan -nan -nan -nan -nan -nan -nan -nan -nan -nan -nan -nan -nan -nan -nan -nan -nan -nan -nan -nan -nan -nan -nan -nan -nan -nan -nan -nan -nan -nan -nan -nan -nan -nan -nan -nan -nan -nan -nan -nan -nan -nan -nan -nan -nan -nan -nan -nan -nan -nan -nan -nan -nan -nan -nan -nan -nan -nan -nan -nan -nan -nan -nan -nan -nan -nan -nan -nan -nan -nan -nan -nan -nan -nan -nan -nan -nan -nan -nan -nan -nan -nan -nan -nan -nan -nan -nan -nan -nan -nan -nan -nan -nan -nan -nan -nan -nan -nan -nan -nan -nan -nan -nan -nan -nan -nan -nan -nan -nan -nan -nan -nan -nan -nan -nan -nan -nan -nan -nan -nan -nan -nan -nan -nan -nan -nan -nan -nan -nan -nan -nan -nan -nan -nan -nan -nan -nan -nan -nan -nan -nan -nan -nan -nan -nan -nan -nan -nan -nan -nan -nan -nan -nan -nan -nan -nan -nan -nan -nan -nan -nan -nan -nan -nan -nan -nan -nan -nan -nan -nan -nan -nan -nan -nan -nan -nan -nan -nan -nan -nan -nan -nan -nan -nan -nan -nan -nan -nan -nan -nan -nan -nan -nan -nan -nan -nan -nan -nan -nan -nan -nan -nan -nan -nan -nan -nan -nan -nan -nan -nan -nan -nan -nan -nan -nan -nan -nan -nan -nan -nan -nan -nan -nan -nan -nan -nan -nan -nan -nan -nan -0.0904458 -0.0217494 -0.20136 -0.436262 -0.549995 -0.398875 -0.550687 -0.5447 -0.285012 -0.430224 -0.60679 -0.327417 -0.397995 -0.310971 -0.363021 -nan -nan -nan -nan -nan -nan -nan -nan -nan -nan -nan -nan -nan -nan -nan -nan -nan -nan -nan -nan -nan -nan -nan -nan -nan -nan -nan -nan -nan -nan -nan -nan -nan -nan -nan -nan -nan -nan -nan -nan -nan -nan -nan -nan -nan -nan -nan -nan -nan -nan -nan -nan -nan -nan -nan -nan -nan -nan -nan -nan -nan -nan -nan -nan -nan -nan -nan -nan -nan -nan -nan -nan -nan -nan -nan -nan -nan -nan -nan -nan -nan -nan -nan -nan -nan -nan -nan -nan -nan -nan -nan -nan -nan -nan -nan -nan -nan -nan -nan -nan -nan -nan -nan -nan -nan -nan -nan -nan -nan -nan -nan -nan -nan -nan -nan -nan -nan -nan -nan -nan -nan -nan -nan -nan -nan -nan -nan -nan -nan -nan -nan -nan -nan -nan -nan -nan -nan -nan -nan -nan -nan -nan -nan -nan -nan -nan -nan -nan -nan -nan -nan -nan -nan -nan -nan -nan -nan -nan -nan -nan -nan -nan -nan -nan -nan -nan -nan -nan -nan -nan -nan -nan -nan -nan -nan -nan -nan -nan -nan -nan -nan -nan -nan -nan -nan -nan -nan -nan -nan -nan -nan -nan -nan -nan -nan -nan -nan -nan -nan -nan -nan -nan -nan -nan -nan -nan -nan -nan -nan -nan -nan -nan -nan -nan -nan -nan -nan -nan -nan -nan -nan -nan -nan -nan -nan -nan -nan -nan -nan -nan -nan -nan -nan -nan -nan -nan -nan -nan -nan -nan -nan -nan -nan -nan -nan -nan -nan -nan -nan -nan 0.0650876 -0.145474 -0.346077 -0.396966 -0.319972 -0.425441 -0.400888 -0.183272 -0.318103 -0.513955 -0.265632 -0.219178 -0.335714 -0.283 -nan -nan -nan -nan -nan -nan -nan -nan -nan -nan -nan -nan -nan -nan -nan -nan -nan -nan -nan -nan -nan -nan -nan -nan -nan -nan -nan -nan -nan -nan -nan -nan -nan -nan -nan -nan -nan -nan -nan -nan -nan -nan -nan -nan -nan -nan -nan -nan -nan -nan -nan -nan -nan -nan -nan -nan -nan -nan -nan -nan -nan -nan -nan -nan -nan -nan -nan -nan -nan -nan -nan -nan -nan -nan -nan -nan -nan -nan -nan -nan -nan -nan -nan -nan -nan -nan -nan -nan -nan -nan -nan -nan -nan -nan -nan -nan -nan -nan -nan -nan -nan -nan -nan -nan -nan -nan -nan -nan -nan -nan -nan -nan -nan -nan -nan -nan -nan -nan -nan -nan -nan -nan -nan -nan -nan -nan -nan -nan -nan -nan -nan -nan -nan -nan -nan -nan -nan -nan -nan -nan -nan -nan -nan -nan -nan -nan -nan -nan -nan -nan -nan -nan -nan -nan -nan -nan -nan -nan -nan -nan -nan -nan -nan -nan -nan -nan -nan -nan -nan -nan -nan -nan -nan -nan -nan -nan -nan -nan -nan -nan -nan -nan -nan -nan -nan -nan -nan -nan -nan -nan -nan -nan -nan -nan -nan -nan -nan -nan -nan -nan -nan -nan -nan -nan -nan -nan -nan -nan -nan -nan -nan -nan -nan -nan -nan -nan -nan -nan -nan -nan -nan -nan -nan -nan -nan -nan -nan -nan -nan -nan -nan -nan -nan -nan -nan -nan -nan -nan -nan -nan -nan -nan -nan -nan -nan -nan -nan -nan -nan -nan -0.279381 -0.584523 -0.726173 -0.419361 -0.654793 -0.754276 -0.394329 -0.524063 -0.761865 -0.310819 -0.290167 -0.340245 -1.31781 -nan -nan -nan -nan -nan -nan -nan -nan -nan -nan -nan -nan -nan -nan -nan -nan -nan -nan -nan -nan -nan -nan -nan -nan -nan -nan -nan -nan -nan -nan -nan -nan -nan -nan -nan -nan -nan -nan -nan -nan -nan -nan -nan -nan -nan -nan -nan -nan -nan -nan -nan -nan -nan -nan -nan -nan -nan -nan -nan -nan -nan -nan -nan -nan -nan -nan -nan -nan -nan -nan -nan -nan -nan -nan -nan -nan -nan -nan -nan -nan -nan -nan -nan -nan -nan -nan -nan -nan -nan -nan -nan -nan -nan -nan -nan -nan -nan -nan -nan -nan -nan -nan -nan -nan -nan -nan -nan -nan -nan -nan -nan -nan -nan -nan -nan -nan -nan -nan -nan -nan -nan -nan -nan -nan -nan -nan -nan -nan -nan -nan -nan -nan -nan -nan -nan -nan -nan -nan -nan -nan -nan -nan -nan -nan -nan -nan -nan -nan -nan -nan -nan -nan -nan -nan -nan -nan -nan -nan -nan -nan -nan -nan -nan -nan -nan -nan -nan -nan -nan -nan -nan -nan -nan -nan -nan -nan -nan -nan -nan -nan -nan -nan -nan -nan -nan -nan -nan -nan -nan -nan -nan -nan -nan -nan -nan -nan -nan -nan -nan -nan -nan -nan -nan -nan -nan -nan -nan -nan -nan -nan -nan -nan -nan -nan -nan -nan -nan -nan -nan -nan -nan -nan -nan -nan -nan -nan -nan -nan -nan -nan -nan -nan -nan -nan -nan -nan -nan -nan -nan -nan -nan -nan -nan -nan -nan -nan -nan -nan -nan -nan -0.314183 -0.404251 -0.236126 -0.395475 -0.454359 -0.126677 -0.294308 -0.524252 -0.180103 -0.0833054 -0.0959723 -0.369367 -nan -nan -nan -nan -nan -nan -nan -nan -nan -nan -nan -nan -nan -nan -nan -nan -nan -nan -nan -nan -nan -nan -nan -nan -nan -nan -nan -nan -nan -nan -nan -nan -nan -nan -nan -nan -nan -nan -nan -nan -nan -nan -nan -nan -nan -nan -nan -nan -nan -nan -nan -nan -nan -nan -nan -nan -nan -nan -nan -nan -nan -nan -nan -nan -nan -nan -nan -nan -nan -nan -nan -nan -nan -nan -nan -nan -nan -nan -nan -nan -nan -nan -nan -nan -nan -nan -nan -nan -nan -nan -nan -nan -nan -nan -nan -nan -nan -nan -nan -nan -nan -nan -nan -nan -nan -nan -nan -nan -nan -nan -nan -nan -nan -nan -nan -nan -nan -nan -nan -nan -nan -nan -nan -nan -nan -nan -nan -nan -nan -nan -nan -nan -nan -nan -nan -nan -nan -nan -nan -nan -nan -nan -nan -nan -nan -nan -nan -nan -nan -nan -nan -nan -nan -nan -nan -nan -nan -nan -nan -nan -nan -nan -nan -nan -nan -nan -nan -nan -nan -nan -nan -nan -nan -nan -nan -nan -nan -nan -nan -nan -nan -nan -nan -nan -nan -nan -nan -nan -nan -nan -nan -nan -nan -nan -nan -nan -nan -nan -nan -nan -nan -nan -nan -nan -nan -nan -nan -nan -nan -nan -nan -nan -nan -nan -nan -nan -nan -nan -nan -nan -nan -nan -nan -nan -nan -nan -nan -nan -nan -nan -nan -nan -nan -nan -nan -nan -nan -nan -nan -nan -nan -nan -nan -nan -nan -nan -nan -nan -nan -nan -0.235219 0.204774 -0.105268 -0.262172 0.206475 0.157301 -0.316571 0.046272 0.217482 0.233673 0.0610901 -nan -nan -nan -nan -nan -nan -nan -nan -nan -nan -nan -nan -nan -nan -nan -nan -nan -nan -nan -nan -nan -nan -nan -nan -nan -nan -nan -nan -nan -nan -nan -nan -nan -nan -nan -nan -nan -nan -nan -nan -nan -nan -nan -nan -nan -nan -nan -nan -nan -nan -nan -nan -nan -nan -nan -nan -nan -nan -nan -nan -nan -nan -nan -nan -nan -nan -nan -nan -nan -nan -nan -nan -nan -nan -nan -nan -nan -nan -nan -nan -nan -nan -nan -nan -nan -nan -nan -nan -nan -nan -nan -nan -nan -nan -nan -nan -nan -nan -nan -nan -nan -nan -nan -nan -nan -nan -nan -nan -nan -nan -nan -nan -nan -nan -nan -nan -nan -nan -nan -nan -nan -nan -nan -nan -nan -nan -nan -nan -nan -nan -nan -nan -nan -nan -nan -nan -nan -nan -nan -nan -nan -nan -nan -nan -nan -nan -nan -nan -nan -nan -nan -nan -nan -nan -nan -nan -nan -nan -nan -nan -nan -nan -nan -nan -nan -nan -nan -nan -nan -nan -nan -nan -nan -nan -nan -nan -nan -nan -nan -nan -nan -nan -nan -nan -nan -nan -nan -nan -nan -nan -nan -nan -nan -nan -nan -nan -nan -nan -nan -nan -nan -nan -nan -nan -nan -nan -nan -nan -nan -nan -nan -nan -nan -nan -nan -nan -nan -nan -nan -nan -nan -nan -nan -nan -nan -nan -nan -nan -nan -nan -nan -nan -nan -nan -nan -nan -nan -nan -nan -nan -nan -nan -nan -nan -nan -nan -nan -nan -nan -nan 0.321093 -0.0359838 -0.0713985 0.382642 0.452279 -0.142399 0.0792963 0.340434 0.345267 0.161293 -nan -nan -nan -nan -nan -nan -nan -nan -nan -nan -nan -nan -nan -nan -nan -nan -nan -nan -nan -nan -nan -nan -nan -nan -nan -nan -nan -nan -nan -nan -nan -nan -nan -nan -nan -nan -nan -nan -nan -nan -nan -nan -nan -nan -nan -nan -nan -nan -nan -nan -nan -nan -nan -nan -nan -nan -nan -nan -nan -nan -nan -nan -nan -nan -nan -nan -nan -nan -nan -nan -nan -nan -nan -nan -nan -nan -nan -nan -nan -nan -nan -nan -nan -nan -nan -nan -nan -nan -nan -nan -nan -nan -nan -nan -nan -nan -nan -nan -nan -nan -nan -nan -nan -nan -nan -nan -nan -nan -nan -nan -nan -nan -nan -nan -nan -nan -nan -nan -nan -nan -nan -nan -nan -nan -nan -nan -nan -nan -nan -nan -nan -nan -nan -nan -nan -nan -nan -nan -nan -nan -nan -nan -nan -nan -nan -nan -nan -nan -nan -nan -nan -nan -nan -nan -nan -nan -nan -nan -nan -nan -nan -nan -nan -nan -nan -nan -nan -nan -nan -nan -nan -nan -nan -nan -nan -nan -nan -nan -nan -nan -nan -nan -nan -nan -nan -nan -nan -nan -nan -nan -nan -nan -nan -nan -nan -nan -nan -nan -nan -nan -nan -nan -nan -nan -nan -nan -nan -nan -nan -nan -nan -nan -nan -nan -nan -nan -nan -nan -nan -nan -nan -nan -nan -nan -nan -nan -nan -nan -nan -nan -nan -nan -nan -nan -nan -nan -nan -nan -nan -nan -nan -nan -nan -nan -nan -nan -nan -nan -nan -nan -0.214571 -0.312762 0.0447008 -0.0756758 -0.419352 -0.0141044 0.120513 0.137713 -0.0915861 -nan -nan -nan -nan -nan -nan -nan -nan -nan -nan -nan -nan -nan -nan -nan -nan -nan -nan -nan -nan -nan -nan -nan -nan -nan -nan -nan -nan -nan -nan -nan -nan -nan -nan -nan -nan -nan -nan -nan -nan -nan -nan -nan -nan -nan -nan -nan -nan -nan -nan -nan -nan -nan -nan -nan -nan -nan -nan -nan -nan -nan -nan -nan -nan -nan -nan -nan -nan -nan -nan -nan -nan -nan -nan -nan -nan -nan -nan -nan -nan -nan -nan -nan -nan -nan -nan -nan -nan -nan -nan -nan -nan -nan -nan -nan -nan -nan -nan -nan -nan -nan -nan -nan -nan -nan -nan -nan -nan -nan -nan -nan -nan -nan -nan -nan -nan -nan -nan -nan -nan -nan -nan -nan -nan -nan -nan -nan -nan -nan -nan -nan -nan -nan -nan -nan -nan -nan -nan -nan -nan -nan -nan -nan -nan -nan -nan -nan -nan -nan -nan -nan -nan -nan -nan -nan -nan -nan -nan -nan -nan -nan -nan -nan -nan -nan -nan -nan -nan -nan -nan -nan -nan -nan -nan -nan -nan -nan -nan -nan -nan -nan -nan -nan -nan -nan -nan -nan -nan -nan -nan -nan -nan -nan -nan -nan -nan -nan -nan -nan -nan -nan -nan -nan -nan -nan -nan -nan -nan -nan -nan -nan -nan -nan -nan -nan -nan -nan -nan -nan -nan -nan -nan -nan -nan -nan -nan -nan -nan -nan -nan -nan -nan -nan -nan -nan -nan -nan -nan -nan -nan -nan -nan -nan -nan -nan -nan -nan -nan -nan -nan -0.0610259 0.328725 0.325238 -0.0552974 0.10518 0.349292 0.354061 0.118353 -nan -nan -nan -nan -nan -nan -nan -nan -nan -nan -nan -nan -nan -nan -nan -nan -nan -nan -nan -nan -nan -nan -nan -nan -nan -nan -nan -nan -nan -nan -nan -nan -nan -nan -nan -nan -nan -nan -nan -nan -nan -nan -nan -nan -nan -nan -nan -nan -nan -nan -nan -nan -nan -nan -nan -nan -nan -nan -nan -nan -nan -nan -nan -nan -nan -nan -nan -nan -nan -nan -nan -nan -nan -nan -nan -nan -nan -nan -nan -nan -nan -nan -nan -nan -nan -nan -nan -nan -nan -nan -nan -nan -nan -nan -nan -nan -nan -nan -nan -nan -nan -nan -nan -nan -nan -nan -nan -nan -nan -nan -nan -nan -nan -nan -nan -nan -nan -nan -nan -nan -nan -nan -nan -nan -nan -nan -nan -nan -nan -nan -nan -nan -nan -nan -nan -nan -nan -nan -nan -nan -nan -nan -nan -nan -nan -nan -nan -nan -nan -nan -nan -nan -nan -nan -nan -nan -nan -nan -nan -nan -nan -nan -nan -nan -nan -nan -nan -nan -nan -nan -nan -nan -nan -nan -nan -nan -nan -nan -nan -nan -nan -nan -nan -nan -nan -nan -nan -nan -nan -nan -nan -nan -nan -nan -nan -nan -nan -nan -nan -nan -nan -nan -nan -nan -nan -nan -nan -nan -nan -nan -nan -nan -nan -nan -nan -nan -nan -nan -nan -nan -nan -nan -nan -nan -nan -nan -nan -nan -nan -nan -nan -nan -nan -nan -nan -nan -nan -nan -nan -nan -nan -nan -nan -nan -nan -nan -nan -nan -nan -nan 0.360829 0.687513 -0.103715 0.117869 0.339729 0.370471 0.275811 -nan -nan -nan -nan -nan -nan -nan -nan -nan -nan -nan -nan -nan -nan -nan -nan -nan -nan -nan -nan -nan -nan -nan -nan -nan -nan -nan -nan -nan -nan -nan -nan -nan -nan -nan -nan -nan -nan -nan -nan -nan -nan -nan -nan -nan -nan -nan -nan -nan -nan -nan -nan -nan -nan -nan -nan -nan -nan -nan -nan -nan -nan -nan -nan -nan -nan -nan -nan -nan -nan -nan -nan -nan -nan -nan -nan -nan -nan -nan -nan -nan -nan -nan -nan -nan -nan -nan -nan -nan -nan -nan -nan -nan -nan -nan -nan -nan -nan -nan -nan -nan -nan -nan -nan -nan -nan -nan -nan -nan -nan -nan -nan -nan -nan -nan -nan -nan -nan -nan -nan -nan -nan -nan -nan -nan -nan -nan -nan -nan -nan -nan -nan -nan -nan -nan -nan -nan -nan -nan -nan -nan -nan -nan -nan -nan -nan -nan -nan -nan -nan -nan -nan -nan -nan -nan -nan -nan -nan -nan -nan -nan -nan -nan -nan -nan -nan -nan -nan -nan -nan -nan -nan -nan -nan -nan -nan -nan -nan -nan -nan -nan -nan -nan -nan -nan -nan -nan -nan -nan -nan -nan -nan -nan -nan -nan -nan -nan -nan -nan -nan -nan -nan -nan -nan -nan -nan -nan -nan -nan -nan -nan -nan -nan -nan -nan -nan -nan -nan -nan -nan -nan -nan -nan -nan -nan -nan -nan -nan -nan -nan -nan -nan -nan -nan -nan -nan -nan -nan -nan -nan -nan -nan -nan -nan -nan -nan -nan -nan -nan -nan -0.142669 -0.362674 -0.0523928 0.0361887 0.0432381 -0.160122 -nan -nan -nan -nan -nan -nan -nan -nan -nan -nan -nan -nan -nan -nan -nan -nan -nan -nan -nan -nan -nan -nan -nan -nan -nan -nan -nan -nan -nan -nan -nan -nan -nan -nan -nan -nan -nan -nan -nan -nan -nan -nan -nan -nan -nan -nan -nan -nan -nan -nan -nan -nan -nan -nan -nan -nan -nan -nan -nan -nan -nan -nan -nan -nan -nan -nan -nan -nan -nan -nan -nan -nan -nan -nan -nan -nan -nan -nan -nan -nan -nan -nan -nan -nan -nan -nan -nan -nan -nan -nan -nan -nan -nan -nan -nan -nan -nan -nan -nan -nan -nan -nan -nan -nan -nan -nan -nan -nan -nan -nan -nan -nan -nan -nan -nan -nan -nan -nan -nan -nan -nan -nan -nan -nan -nan -nan -nan -nan -nan -nan -nan -nan -nan -nan -nan -nan -nan -nan -nan -nan -nan -nan -nan -nan -nan -nan -nan -nan -nan -nan -nan -nan -nan -nan -nan -nan -nan -nan -nan -nan -nan -nan -nan -nan -nan -nan -nan -nan -nan -nan -nan -nan -nan -nan -nan -nan -nan -nan -nan -nan -nan -nan -nan -nan -nan -nan -nan -nan -nan -nan -nan -nan -nan -nan -nan -nan -nan -nan -nan -nan -nan -nan -nan -nan -nan -nan -nan -nan -nan -nan -nan -nan -nan -nan -nan -nan -nan -nan -nan -nan -nan -nan -nan -nan -nan -nan -nan -nan -nan -nan -nan -nan -nan -nan -nan -nan -nan -nan -nan -nan -nan -nan -nan -nan -nan -nan -nan -nan -nan -nan -0.625927 0.0197559 0.187562 0.219874 -0.0495744 -nan -nan -nan -nan -nan -nan -nan -nan -nan -nan -nan -nan -nan -nan -nan -nan -nan -nan -nan -nan -nan -nan -nan -nan -nan -nan -nan -nan -nan -nan -nan -nan -nan -nan -nan -nan -nan -nan -nan -nan -nan -nan -nan -nan -nan -nan -nan -nan -nan -nan -nan -nan -nan -nan -nan -nan -nan -nan -nan -nan -nan -nan -nan -nan -nan -nan -nan -nan -nan -nan -nan -nan -nan -nan -nan -nan -nan -nan -nan -nan -nan -nan -nan -nan -nan -nan -nan -nan -nan -nan -nan -nan -nan -nan -nan -nan -nan -nan -nan -nan -nan -nan -nan -nan -nan -nan -nan -nan -nan -nan -nan -nan -nan -nan -nan -nan -nan -nan -nan -nan -nan -nan -nan -nan -nan -nan -nan -nan -nan -nan -nan -nan -nan -nan -nan -nan -nan -nan -nan -nan -nan -nan -nan -nan -nan -nan -nan -nan -nan -nan -nan -nan -nan -nan -nan -nan -nan -nan -nan -nan -nan -nan -nan -nan -nan -nan -nan -nan -nan -nan -nan -nan -nan -nan -nan -nan -nan -nan -nan -nan -nan -nan -nan -nan -nan -nan -nan -nan -nan -nan -nan -nan -nan -nan -nan -nan -nan -nan -nan -nan -nan -nan -nan -nan -nan -nan -nan -nan -nan -nan -nan -nan -nan -nan -nan -nan -nan -nan -nan -nan -nan -nan -nan -nan -nan -nan -nan -nan -nan -nan -nan -nan -nan -nan -nan -nan -nan -nan -nan -nan -nan -nan -nan -nan -nan -nan -nan -nan -nan -nan 0.119642 0.417074 0.480819 0.244579 -nan -nan -nan -nan -nan -nan -nan -nan -nan -nan -nan -nan -nan -nan -nan -nan -nan -nan -nan -nan -nan -nan -nan -nan -nan -nan -nan -nan -nan -nan -nan -nan -nan -nan -nan -nan -nan -nan -nan -nan -nan -nan -nan -nan -nan -nan -nan -nan -nan -nan -nan -nan -nan -nan -nan -nan -nan -nan -nan -nan -nan -nan -nan -nan -nan -nan -nan -nan -nan -nan -nan -nan -nan -nan -nan -nan -nan -nan -nan -nan -nan -nan -nan -nan -nan -nan -nan -nan -nan -nan -nan -nan -nan -nan -nan -nan -nan -nan -nan -nan -nan -nan -nan -nan -nan -nan -nan -nan -nan -nan -nan -nan -nan -nan -nan -nan -nan -nan -nan -nan -nan -nan -nan -nan -nan -nan -nan -nan -nan -nan -nan -nan -nan -nan -nan -nan -nan -nan -nan -nan -nan -nan -nan -nan -nan -nan -nan -nan -nan -nan -nan -nan -nan -nan -nan -nan -nan -nan -nan -nan -nan -nan -nan -nan -nan -nan -nan -nan -nan -nan -nan -nan -nan -nan -nan -nan -nan -nan -nan -nan -nan -nan -nan -nan -nan -nan -nan -nan -nan -nan -nan -nan -nan -nan -nan -nan -nan -nan -nan -nan -nan -nan -nan -nan -nan -nan -nan -nan -nan -nan -nan -nan -nan -nan -nan -nan -nan -nan -nan -nan -nan -nan -nan -nan -nan -nan -nan -nan -nan -nan -nan -nan -nan -nan -nan -nan -nan -nan -nan -nan -nan -nan -nan -nan -nan -nan -nan -nan -nan -nan 0.0864571 0.13973 -0.0474024 -nan -nan -nan -nan -nan -nan -nan -nan -nan -nan -nan -nan -nan -nan -nan -nan -nan -nan -nan -nan -nan -nan -nan -nan -nan -nan -nan -nan -nan -nan -nan -nan -nan -nan -nan -nan -nan -nan -nan -nan -nan -nan -nan -nan -nan -nan -nan -nan -nan -nan -nan -nan -nan -nan -nan -nan -nan -nan -nan -nan -nan -nan -nan -nan -nan -nan -nan -nan -nan -nan -nan -nan -nan -nan -nan -nan -nan -nan -nan -nan -nan -nan -nan -nan -nan -nan -nan -nan -nan -nan -nan -nan -nan -nan -nan -nan -nan -nan -nan -nan -nan -nan -nan -nan -nan -nan -nan -nan -nan -nan -nan -nan -nan -nan -nan -nan -nan -nan -nan -nan -nan -nan -nan -nan -nan -nan -nan -nan -nan -nan -nan -nan -nan -nan -nan -nan -nan -nan -nan -nan -nan -nan -nan -nan -nan -nan -nan -nan -nan -nan -nan -nan -nan -nan -nan -nan -nan -nan -nan -nan -nan -nan -nan -nan -nan -nan -nan -nan -nan -nan -nan -nan -nan -nan -nan -nan -nan -nan -nan -nan -nan -nan -nan -nan -nan -nan -nan -nan -nan -nan -nan -nan -nan -nan -nan -nan -nan -nan -nan -nan -nan -nan -nan -nan -nan -nan -nan -nan -nan -nan -nan -nan -nan -nan -nan -nan -nan -nan -nan -nan -nan -nan -nan -nan -nan -nan -nan -nan -nan -nan -nan -nan -nan -nan -nan -nan -nan -nan -nan -nan -nan -nan -nan -nan -nan -nan -nan -nan -nan -nan 0.01309 -0.190851 -nan -nan -nan -nan -nan -nan -nan -nan -nan -nan -nan -nan -nan -nan -nan -nan -nan -nan -nan -nan -nan -nan -nan -nan -nan -nan -nan -nan -nan -nan -nan -nan -nan -nan -nan -nan -nan -nan -nan -nan -nan -nan -nan -nan -nan -nan -nan -nan -nan -nan -nan -nan -nan -nan -nan -nan -nan -nan -nan -nan -nan -nan -nan -nan -nan -nan -nan -nan -nan -nan -nan -nan -nan -nan -nan -nan -nan -nan -nan -nan -nan -nan -nan -nan -nan -nan -nan -nan -nan -nan -nan -nan -nan -nan -nan -nan -nan -nan -nan -nan -nan -nan -nan -nan -nan -nan -nan -nan -nan -nan -nan -nan -nan -nan -nan -nan -nan -nan -nan -nan -nan -nan -nan -nan -nan -nan -nan -nan -nan -nan -nan -nan -nan -nan -nan -nan -nan -nan -nan -nan -nan -nan -nan -nan -nan -nan -nan -nan -nan -nan -nan -nan -nan -nan -nan -nan -nan -nan -nan -nan -nan -nan -nan -nan -nan -nan -nan -nan -nan -nan -nan -nan -nan -nan -nan -nan -nan -nan -nan -nan -nan -nan -nan -nan -nan -nan -nan -nan -nan -nan -nan -nan -nan -nan -nan -nan -nan -nan -nan -nan -nan -nan -nan -nan -nan -nan -nan -nan -nan -nan -nan -nan -nan -nan -nan -nan -nan -nan -nan -nan -nan -nan -nan -nan -nan -nan -nan -nan -nan -nan -nan -nan -nan -nan -nan -nan -nan -nan -nan -nan -nan -nan -nan -nan -nan -nan -nan -nan -nan -nan -0.222276 -nan -nan -nan -nan -nan -nan -nan -nan -nan -nan -nan -nan -nan -nan -nan -nan -nan -nan -nan -nan -nan -nan -nan -nan -nan -nan -nan -nan -nan -nan -nan -nan -nan -nan -nan -nan -nan -nan -nan -nan -nan -nan -nan -nan -nan -nan -nan -nan -nan -nan -nan -nan -nan -nan -nan -nan -nan -nan -nan -nan -nan -nan -nan -nan -nan -nan -nan -nan -nan -nan -nan -nan -nan -nan -nan -nan -nan -nan -nan -nan -nan -nan -nan -nan -nan -nan -nan -nan -nan -nan -nan -nan -nan -nan -nan -nan -nan -nan -nan -nan -nan -nan -nan -nan -nan -nan -nan -nan -nan -nan -nan -nan -nan -nan -nan -nan -nan -nan -nan -nan -nan -nan -nan -nan -nan -nan -nan -nan -nan -nan -nan -nan -nan -nan -nan -nan -nan -nan -nan -nan -nan -nan -nan -nan -nan -nan -nan -nan -nan -nan -nan -nan -nan -nan -nan -nan -nan -nan -nan -nan -nan -nan -nan -nan -nan -nan -nan -nan -nan -nan -nan -nan -nan -nan -nan -nan -nan -nan -nan -nan -nan -nan -nan -nan -nan -nan -nan -nan -nan -nan -nan -nan -nan -nan -nan -nan -nan -nan -nan -nan -nan -nan -nan -nan -nan -nan -nan -nan -nan -nan -nan -nan -nan -nan -nan -nan -nan -nan -nan -nan -nan -nan -nan -nan -nan -nan -nan -nan -nan -nan -nan -nan -nan -nan -nan -nan -nan -nan -nan -nan -nan -nan -nan -nan -nan -nan -nan -nan -nan -nan -nan -nan -nan -nan -nan -nan -nan -nan -nan -nan -nan -nan -nan -nan -nan -nan -nan -nan -nan -nan -nan -nan -nan -nan -nan -nan -nan -nan -nan -nan -nan -nan -nan -nan -nan -nan -nan -nan -nan -nan -nan -nan -nan -nan -nan -nan -nan -nan -nan -nan -nan -nan -nan -nan -nan -nan -nan -nan -nan -nan -nan -nan -nan -nan -nan -nan -nan -nan -nan -nan -nan -nan -nan -nan -nan -nan -nan -nan -nan -nan -nan -nan -nan -nan -nan -nan -nan -nan -nan -nan -nan -nan -nan -nan -nan -nan -nan -nan -nan -nan -nan -nan -nan -nan -nan -nan -nan -nan -nan -nan -nan -nan -nan -nan -nan -nan -nan -nan -nan -nan -nan -nan -nan -nan -nan -nan -nan -nan -nan -nan -nan -nan -nan -nan -nan -nan -nan -nan -nan -nan -nan -nan -nan -nan -nan -nan -nan -nan -nan -nan -nan -nan -nan -nan -nan -nan -nan -nan -nan -nan -nan -nan -nan -nan -nan -nan -nan -nan -nan -nan -nan -nan -nan -nan -nan -nan -nan -nan -nan -nan -nan -nan -nan -nan -nan -nan -nan -nan -nan -nan -nan -nan -nan -nan -nan -nan -nan -nan -nan -nan -nan -nan -nan -nan -nan -nan -nan -nan -nan -nan -nan -nan -nan -nan -nan -nan -nan -nan -nan -nan -nan -nan -nan -nan -nan -nan -nan -nan -nan -nan -nan -nan -nan -nan -nan -nan -nan -nan -nan -nan -nan -nan -nan -nan -nan -nan -nan -nan -nan -nan 0.104625 0.0260159 0.0110485 -0.0653442 -0.0158049 0.0698085 0.00823282 0.00414356 -0.0594919 0.0763007 0.114221 0.0561521 0.0544429 -0.00526265 -0.0756355 -0.0386169 -0.0522057 -0.0445895 -0.0863182 -0.0203005 0.00805385 -0.0077165 -0.011533 -0.0508486 -0.285883 -0.271608 -0.280788 -0.271817 -0.278333 -0.305241 -0.299545 -0.298939 -0.294088 -0.29551 -0.295083 -0.285019 -0.294756 -0.2846 -0.291682 -0.300379 -0.286268 -0.298421 -0.28854 -0.293275 -0.299656 -0.286104 -0.297047 -0.288428 -0.293826 -0.286445 -0.269312 -0.280254 -0.274175 -0.276296 -0.290828 -0.27211 -0.283527 -0.277306 -0.282432 -0.2907 -0.271439 -0.282152 -0.278686 -0.283072 -0.325089 -0.312556 -0.316487 -0.317794 -0.317195 -0.313257 -0.296454 -0.307013 -0.302698 -0.306409 -0.185173 -0.160654 -0.17316 -0.174168 -0.191599 -0.213976 -0.198988 -0.203482 -0.204679 -0.222406 -0.189961 -0.16711 -0.183301 -0.18577 -0.20816 -0.194719 -0.169613 -0.18487 -0.187168 -0.210136 -0.229116 -0.203226 -0.218307 -0.219024 -0.242506 -0.306613 -0.274603 -0.279284 -0.275948 -0.293794 -0.308068 -0.278494 -0.283808 -0.281688 -0.296239 -0.308183 -0.279415 -0.285377 -0.281388 -0.298622 -0.326702 -0.306468 -0.307612 -0.310859 -0.318608 -0.30333 -0.274969 -0.28023 -0.275623 -0.295647 -0.304053 -0.304133 -0.316619 -0.31312 -0.311816 -0.306022 -0.305238 -0.320309 -0.313599 -0.311626 -0.308667 -0.30466 -0.319553 -0.312803 -0.314371 -0.325118 -0.326277 -0.332153 -0.335363 -0.333308 -0.31617 -0.313064 -0.325082 -0.320263 -0.319934 -0.0347078 -0.0297768 -0.0343948 -0.00600517 -0.00778779 -0.0701309 -0.0725914 -0.0734607 -0.0501934 -0.0522991 -0.0351668 -0.0315703 -0.0333347 -0.00826627 -0.0124229 -0.0396274 -0.0316224 -0.0358073 -0.00843763 -0.0123115 -0.0367938 -0.03146 -0.0359209 -0.00820904 -0.00989488 -0.28777 -0.282148 -0.307376 -0.298233 -0.299738 -0.28862 -0.284164 -0.306464 -0.297169 -0.298375 -0.288773 -0.283316 -0.307663 -0.299081 -0.301216 -0.312355 -0.315276 -0.330768 -0.326501 -0.327244 -0.307225 -0.302726 -0.327628 -0.317062 -0.316411 -0.293855 -0.282031 -0.290662 -0.280128 -0.292094 -0.322505 -0.318998 -0.319397 -0.318946 -0.326133 -0.311377 -0.298133 -0.303876 -0.298727 -0.310716 -0.316769 -0.302371 -0.311576 -0.301294 -0.313237 -0.311245 -0.30091 -0.311495 -0.301532 -0.311032 -0.233015 -0.236524 -0.234068 -0.232802 -0.236063 -0.241116 -0.236785 -0.23798 -0.232966 -0.234913 -0.24058 -0.238866 -0.23999 -0.236812 -0.239384 -0.268842 -0.268998 -0.26892 -0.268604 -0.271204 -0.240638 -0.243787 -0.24411 -0.24028 -0.241853 -0.0846183 -0.0811288 -0.18303 -0.0770966 0.00229882 -0.0684243 -0.0599801 -0.139564 0.0101633 0.0975024 0.0271375 0.0266482 -0.045261 -0.107505 -0.0906377 -0.107775 -0.0915441 -0.138183 -0.0472887 -0.0206509 -0.0380428 -0.0401375 -0.0832572 -0.297686 -0.293298 -0.307988 -0.298358 -0.303674 -0.316806 -0.320047 -0.325168 -0.321457 -0.321287 -0.306212 -0.30502 -0.320363 -0.310938 -0.318249 -0.31155 -0.307213 -0.324827 -0.315338 -0.320711 -0.309431 -0.307353 -0.322811 -0.315124 -0.320727 -0.305048 -0.286623 -0.29803 -0.29596 -0.299359 -0.309025 -0.289082 -0.300507 -0.29794 -0.305386 -0.30831 -0.287711 -0.297746 -0.299393 -0.306557 -0.341651 -0.329934 -0.332101 -0.337277 -0.3416 -0.328243 -0.314405 -0.322677 -0.321656 -0.331587 -0.198531 -0.180999 -0.196847 -0.197679 -0.215833 -0.227972 -0.22112 -0.229744 -0.230711 -0.249132 -0.204473 -0.18979 -0.210752 -0.212861 -0.235545 -0.20902 -0.191891 -0.212229 -0.213751 -0.237095 -0.244116 -0.229054 -0.248891 -0.250127 -0.273218 -0.322089 -0.292295 -0.300457 -0.297894 -0.319707 -0.322534 -0.295667 -0.304979 -0.304336 -0.322818 -0.322171 -0.29666 -0.305741 -0.303219 -0.324025 -0.339995 -0.321948 -0.326505 -0.331755 -0.34217 -0.316928 -0.290766 -0.298405 -0.297338 -0.318929 -0.315651 -0.3198 -0.332322 -0.328921 -0.329262 -0.317562 -0.321171 -0.335747 -0.328608 -0.328219 -0.320304 -0.320004 -0.334324 -0.32737 -0.329797 -0.336892 -0.341625 -0.346412 -0.349865 -0.348486 -0.328617 -0.328941 -0.340721 -0.334543 -0.33471 -0.0483425 -0.0437538 -0.0485149 -0.0203761 -0.0220002 -0.0828541 -0.0856566 -0.0868622 -0.0642661 -0.0663835 -0.0481688 -0.0449635 -0.0470521 -0.0221209 -0.0261679 -0.0525452 -0.0450345 -0.0494892 -0.022347 -0.0260942 -0.0497608 -0.0449061 -0.0496134 -0.0220693 -0.0235823 -0.300799 -0.297042 -0.321865 -0.315017 -0.315784 -0.301814 -0.297984 -0.321634 -0.313005 -0.313154 -0.301284 -0.296837 -0.323832 -0.313405 -0.316135 -0.324202 -0.330255 -0.347626 -0.339635 -0.343338 -0.318249 -0.318296 -0.344274 -0.328938 -0.332861 -0.307142 -0.297078 -0.307451 -0.294809 -0.307395 -0.336282 -0.333566 -0.336686 -0.333374 -0.340681 -0.326145 -0.313976 -0.320475 -0.312802 -0.325016 -0.331634 -0.318845 -0.32748 -0.316252 -0.328247 -0.325689 -0.318222 -0.327651 -0.316206 -0.32735 -0.249265 -0.252338 -0.249757 -0.24897 -0.252438 -0.256972 -0.252232 -0.253698 -0.24888 -0.250982 -0.256115 -0.254631 -0.256523 -0.252265 -0.255634 -0.28446 -0.285578 -0.28647 -0.285325 -0.287578 -0.255435 -0.261055 -0.259758 -0.255832 -0.259117 -0.0279052 -0.179539 -0.0251841 0.0541083 -0.0302045 -0.0232392 -0.12701 0.0326195 0.113369 0.0726518 0.0639085 -0.0242969 -0.0704241 -0.0599316 -0.0887541 -0.0771683 -0.128414 -0.0268514 -0.0023238 -0.0208618 -0.0255477 -0.0724263 -0.279378 -0.282212 -0.304809 -0.297392 -0.303432 -0.298687 -0.309884 -0.322247 -0.320449 -0.320473 -0.289851 -0.29526 -0.317672 -0.310158 -0.31571 -0.295594 -0.296298 -0.322099 -0.31346 -0.317724 -0.295905 -0.296951 -0.321322 -0.313091 -0.318037 -0.291356 -0.276043 -0.287623 -0.287584 -0.293645 -0.295495 -0.279076 -0.290405 -0.290222 -0.299682 -0.296578 -0.278296 -0.288198 -0.292603 -0.299726 -0.331687 -0.318978 -0.322784 -0.330853 -0.335269 -0.319733 -0.30294 -0.313993 -0.314678 -0.32507 -0.183902 -0.169143 -0.188224 -0.189602 -0.207819 -0.211451 -0.208026 -0.221057 -0.223405 -0.241424 -0.187608 -0.176536 -0.201298 -0.204762 -0.227276 -0.192519 -0.178736 -0.203356 -0.205463 -0.22867 -0.224866 -0.2133 -0.239864 -0.240182 -0.263501 -0.30967 -0.282048 -0.28955 -0.289432 -0.313063 -0.310673 -0.284528 -0.294455 -0.295641 -0.316059 -0.31091 -0.285036 -0.295842 -0.295172 -0.318747 -0.328245 -0.311196 -0.31711 -0.324155 -0.338016 -0.305619 -0.280072 -0.28888 -0.288655 -0.313223 -0.304182 -0.308784 -0.323434 -0.316359 -0.317996 -0.306328 -0.311176 -0.325968 -0.316134 -0.318664 -0.309187 -0.310964 -0.325828 -0.315727 -0.320547 -0.327789 -0.33339 -0.337516 -0.341104 -0.339742 -0.319054 -0.31868 -0.330461 -0.326516 -0.325278 -0.0400832 -0.0352756 -0.0399407 -0.0113957 -0.0131091 -0.0753522 -0.0780546 -0.0788356 -0.0553712 -0.0574618 -0.0402898 -0.0368894 -0.0387449 -0.013481 -0.0176137 -0.0446556 -0.0369746 -0.0412065 -0.0136679 -0.0174976 -0.0418208 -0.0367397 -0.0413293 -0.0134308 -0.0150557 -0.290019 -0.287619 -0.312386 -0.303047 -0.304432 -0.290856 -0.289609 -0.311406 -0.301332 -0.302852 -0.29143 -0.288746 -0.311649 -0.303541 -0.304921 -0.315844 -0.32059 -0.336009 -0.330366 -0.332092 -0.310257 -0.307436 -0.333726 -0.318995 -0.320328 -0.299116 -0.288354 -0.295776 -0.285607 -0.295861 -0.327217 -0.32327 -0.325822 -0.323449 -0.32897 -0.315897 -0.303029 -0.309924 -0.302138 -0.314737 -0.321651 -0.307505 -0.318875 -0.304648 -0.317971 -0.316373 -0.307819 -0.318896 -0.304712 -0.316861 -0.239789 -0.243621 -0.241397 -0.238222 -0.241199 -0.246811 -0.245226 -0.243864 -0.237672 -0.240007 -0.246915 -0.246874 -0.246294 -0.241526 -0.244031 -0.275895 -0.275941 -0.275026 -0.273847 -0.2764 -0.246547 -0.250824 -0.248206 -0.244461 -0.247656 -0.197611 -0.0141103 0.0564417 -0.00234786 -0.0131632 -0.128274 0.0362914 0.10508 0.0742233 0.0877342 -0.0170483 -0.0607213 -0.0473563 -0.0804089 -0.0742961 -0.126615 -0.0214608 0.00301228 -0.0156338 -0.0202351 -0.0706621 -0.277771 -0.279758 -0.304582 -0.296342 -0.300926 -0.296951 -0.308092 -0.321933 -0.318648 -0.318713 -0.287346 -0.293054 -0.315987 -0.307639 -0.314101 -0.292535 -0.294496 -0.319819 -0.310962 -0.315961 -0.29191 -0.295228 -0.31846 -0.311104 -0.316243 -0.2906 -0.27428 -0.286756 -0.286024 -0.291766 -0.293948 -0.277409 -0.289673 -0.288306 -0.298285 -0.29379 -0.27627 -0.286349 -0.290438 -0.299556 -0.328473 -0.317511 -0.320524 -0.329253 -0.335404 -0.315062 -0.301486 -0.310938 -0.313519 -0.324835 -0.180472 -0.165532 -0.184337 -0.185857 -0.203624 -0.207628 -0.204077 -0.216612 -0.218869 -0.236656 -0.183597 -0.172562 -0.196213 -0.200518 -0.222463 -0.188348 -0.174548 -0.198037 -0.200872 -0.22401 -0.219829 -0.20809 -0.23328 -0.234869 -0.258714 -0.308295 -0.280785 -0.288396 -0.287518 -0.310277 -0.308709 -0.283626 -0.292581 -0.293425 -0.313294 -0.30895 -0.284114 -0.293816 -0.292726 -0.315592 -0.32698 -0.310586 -0.314264 -0.321642 -0.33455 -0.305239 -0.279666 -0.286141 -0.286159 -0.310876 -0.300402 -0.303892 -0.316039 -0.310053 -0.311621 -0.303968 -0.305713 -0.319879 -0.311897 -0.311914 -0.30521 -0.305275 -0.319717 -0.31178 -0.314369 -0.322815 -0.326815 -0.333884 -0.336312 -0.335214 -0.313395 -0.314111 -0.326987 -0.320158 -0.32153 -0.0381065 -0.0330307 -0.0377643 -0.00883381 -0.0105276 -0.0737598 -0.0762039 -0.077305 -0.0534166 -0.055132 -0.038302 -0.0347201 -0.0366779 -0.0110645 -0.0151422 -0.04275 -0.034856 -0.0392279 -0.0112481 -0.0150219 -0.0398496 -0.0346044 -0.0393219 -0.0109922 -0.0125664 -0.289165 -0.285089 -0.310897 -0.30317 -0.30103 -0.290149 -0.286421 -0.311716 -0.300169 -0.299899 -0.288861 -0.286427 -0.312782 -0.30058 -0.303321 -0.312661 -0.319364 -0.336727 -0.327798 -0.330232 -0.30804 -0.307437 -0.332748 -0.316826 -0.31988 -0.295813 -0.286641 -0.297166 -0.282893 -0.295733 -0.324726 -0.322219 -0.325545 -0.321115 -0.328386 -0.314511 -0.303011 -0.309035 -0.300845 -0.313973 -0.320727 -0.307922 -0.31625 -0.304368 -0.3164 -0.315209 -0.307007 -0.315188 -0.303254 -0.314113 -0.238083 -0.240026 -0.237801 -0.236738 -0.238634 -0.245093 -0.241492 -0.243187 -0.236341 -0.237242 -0.244107 -0.243141 -0.246281 -0.239146 -0.241712 -0.272405 -0.273965 -0.274802 -0.271149 -0.274812 -0.24425 -0.249872 -0.248805 -0.241926 -0.245719 0.0527452 0.137693 0.118995 0.120191 -0.0227829 0.083828 0.161906 0.14424 0.158732 0.0914469 -0.00560695 0.017813 -0.00403512 0.0006129 -0.0794162 0.0194986 0.0489861 0.0352716 0.0301745 -0.0261325 -0.256783 -0.258569 -0.282242 -0.273639 -0.278274 -0.277071 -0.287184 -0.300516 -0.297577 -0.296011 -0.267245 -0.270809 -0.295715 -0.286256 -0.290622 -0.271952 -0.271969 -0.29996 -0.289722 -0.292409 -0.271912 -0.272781 -0.298492 -0.28927 -0.292115 -0.263853 -0.24719 -0.26037 -0.260608 -0.267146 -0.267557 -0.249991 -0.263312 -0.261681 -0.271853 -0.267474 -0.24821 -0.260164 -0.263024 -0.272821 -0.3013 -0.288096 -0.294267 -0.301633 -0.307902 -0.289041 -0.272019 -0.285179 -0.286029 -0.297485 -0.153879 -0.137994 -0.156251 -0.157735 -0.179006 -0.178864 -0.173814 -0.186326 -0.188194 -0.21043 -0.153634 -0.140526 -0.163606 -0.167666 -0.194864 -0.158437 -0.142682 -0.165591 -0.168338 -0.196314 -0.186414 -0.172515 -0.19591 -0.198268 -0.22955 -0.283351 -0.254329 -0.261348 -0.259039 -0.28318 -0.284 -0.256619 -0.26527 -0.265021 -0.287264 -0.28537 -0.257574 -0.267055 -0.265619 -0.288794 -0.303436 -0.283985 -0.287877 -0.293731 -0.307395 -0.281264 -0.253353 -0.260409 -0.258533 -0.284508 -0.277671 -0.280968 -0.291136 -0.282851 -0.285224 -0.280049 -0.283232 -0.294919 -0.283926 -0.286424 -0.281984 -0.282152 -0.294591 -0.284372 -0.288628 -0.299548 -0.303513 -0.306987 -0.307565 -0.308467 -0.29087 -0.291506 -0.300737 -0.294638 -0.295058 -0.0130622 -0.00767126 -0.0123523 0.0162786 0.0139418 -0.0493053 -0.0515055 -0.0521522 -0.0283408 -0.0302713 -0.0142979 -0.0102465 -0.0118532 0.0132478 0.00871541 -0.018657 -0.0103486 -0.0143419 0.0131676 0.00893209 -0.0158121 -0.0100567 -0.0144222 0.0133386 0.011222 -0.26697 -0.263868 -0.286903 -0.276797 -0.276852 -0.268947 -0.265189 -0.286805 -0.275509 -0.275561 -0.268439 -0.264825 -0.288261 -0.277143 -0.277927 -0.291636 -0.296826 -0.312318 -0.304015 -0.304502 -0.286484 -0.283371 -0.309372 -0.293803 -0.294262 -0.273105 -0.261977 -0.271946 -0.260855 -0.271372 -0.301498 -0.297406 -0.301592 -0.298209 -0.304762 -0.292468 -0.277284 -0.285934 -0.276915 -0.290327 -0.297923 -0.281404 -0.293913 -0.280888 -0.29226 -0.292302 -0.2819 -0.294003 -0.280192 -0.290475 -0.212524 -0.215219 -0.214032 -0.210072 -0.212359 -0.219823 -0.216732 -0.21713 -0.210265 -0.210949 -0.219098 -0.218001 -0.218401 -0.212952 -0.21476 -0.24729 -0.247114 -0.246407 -0.244827 -0.246728 -0.217858 -0.222328 -0.220062 -0.214374 -0.217595 0.126752 0.0180481 0.0121491 -0.0667009 0.15501 0.163412 0.0750076 0.0721206 -0.00234107 -0.101221 -0.04345 -0.0581954 -0.0490584 -0.0952435 -0.0205479 0.0127589 -0.00566464 -0.0100361 -0.0534799 -0.286857 -0.271977 -0.281301 -0.27157 -0.276779 -0.304995 -0.298158 -0.298723 -0.292779 -0.294232 -0.294587 -0.28349 -0.292724 -0.283333 -0.290092 -0.299359 -0.285348 -0.296873 -0.287453 -0.291947 -0.298138 -0.285037 -0.295267 -0.286691 -0.292132 -0.28311 -0.264889 -0.275933 -0.270223 -0.272118 -0.287939 -0.267928 -0.279799 -0.273304 -0.278161 -0.287962 -0.267012 -0.277245 -0.273958 -0.278615 -0.323514 -0.30902 -0.312192 -0.314434 -0.314123 -0.311433 -0.294172 -0.304288 -0.29977 -0.305176 -0.182559 -0.158231 -0.170129 -0.17125 -0.188834 -0.21288 -0.197421 -0.201826 -0.2035 -0.221517 -0.189021 -0.165931 -0.182245 -0.184772 -0.208009 -0.193488 -0.168148 -0.183366 -0.186376 -0.209632 -0.220964 -0.195013 -0.210649 -0.212298 -0.235867 -0.303447 -0.269635 -0.274705 -0.271702 -0.29051 -0.305805 -0.274429 -0.280647 -0.278462 -0.293507 -0.305965 -0.275796 -0.282724 -0.278717 -0.296347 -0.324879 -0.303245 -0.304846 -0.307162 -0.316024 -0.30155 -0.273057 -0.277839 -0.272878 -0.293776 -0.299827 -0.302199 -0.313113 -0.308938 -0.31022 -0.302764 -0.303591 -0.318239 -0.311133 -0.310136 -0.305714 -0.303064 -0.317767 -0.311486 -0.313694 -0.32175 -0.323799 -0.330046 -0.333611 -0.331504 -0.313848 -0.310588 -0.323012 -0.318871 -0.318139 -0.033797 -0.0287757 -0.0334112 -0.00448406 -0.00634563 -0.0693456 -0.071769 -0.0726405 -0.0491954 -0.0513977 -0.0337423 -0.0300448 -0.0317997 -0.00672478 -0.0108992 -0.0381688 -0.0300943 -0.0343392 -0.0068796 -0.0107823 -0.0355396 -0.030159 -0.0347828 -0.00670952 -0.00844279 -0.284659 -0.279144 -0.304614 -0.295846 -0.296473 -0.28622 -0.281339 -0.304562 -0.295366 -0.295988 -0.286732 -0.280138 -0.305697 -0.29667 -0.299081 -0.31065 -0.314918 -0.329385 -0.326258 -0.327809 -0.305303 -0.302213 -0.327559 -0.316576 -0.31699 -0.290681 -0.278559 -0.288513 -0.277654 -0.289959 -0.320778 -0.316295 -0.317329 -0.316876 -0.323624 -0.308921 -0.295945 -0.300818 -0.295427 -0.308237 -0.313507 -0.300027 -0.308194 -0.298242 -0.310875 -0.307536 -0.298901 -0.308166 -0.298282 -0.308303 -0.23 -0.233884 -0.231937 -0.231836 -0.23514 -0.238164 -0.233604 -0.235939 -0.231313 -0.233117 -0.236963 -0.235506 -0.237194 -0.234509 -0.236658 -0.262005 -0.262855 -0.262433 -0.26284 -0.265232 -0.234024 -0.237143 -0.237064 -0.233635 -0.235573 -0.119371 -0.0924782 -0.188316 0.0130038 0.183949 0.0369224 0.0351408 -0.0583598 -0.141318 -0.133446 -0.139714 -0.118519 -0.169696 -0.0555206 -0.0260764 -0.0453001 -0.0477474 -0.0957878 -0.299324 -0.295737 -0.310206 -0.300677 -0.305353 -0.317589 -0.321002 -0.327485 -0.3226 -0.322724 -0.306905 -0.306038 -0.321515 -0.312086 -0.318894 -0.31162 -0.307459 -0.325931 -0.316144 -0.320801 -0.309913 -0.307515 -0.323517 -0.315597 -0.320725 -0.301867 -0.284215 -0.294861 -0.293534 -0.297708 -0.305944 -0.286465 -0.298155 -0.296032 -0.303517 -0.306012 -0.285199 -0.295515 -0.297334 -0.304022 -0.341844 -0.327908 -0.331336 -0.337038 -0.340097 -0.329105 -0.313238 -0.322976 -0.321544 -0.330867 -0.197885 -0.180397 -0.195501 -0.196215 -0.214176 -0.228632 -0.221507 -0.229937 -0.231324 -0.248996 -0.20552 -0.190717 -0.211655 -0.213553 -0.236007 -0.20975 -0.192621 -0.212573 -0.21476 -0.237488 -0.238156 -0.222502 -0.242797 -0.243941 -0.265901 -0.320519 -0.290184 -0.297576 -0.296406 -0.318139 -0.322505 -0.29407 -0.30379 -0.303649 -0.321902 -0.321879 -0.294977 -0.30515 -0.302869 -0.324132 -0.340025 -0.32098 -0.326199 -0.330862 -0.34267 -0.317047 -0.290699 -0.298248 -0.296189 -0.318919 -0.312964 -0.31925 -0.330898 -0.325635 -0.329514 -0.315373 -0.322159 -0.334795 -0.327242 -0.328899 -0.319141 -0.32175 -0.333986 -0.327218 -0.33103 -0.335944 -0.342374 -0.345316 -0.350041 -0.348747 -0.328597 -0.32862 -0.339237 -0.334704 -0.33438 -0.0496407 -0.0450242 -0.0497423 -0.0210892 -0.0227378 -0.0842808 -0.0871978 -0.0884077 -0.0655947 -0.0676241 -0.0486904 -0.0454274 -0.047575 -0.0225088 -0.0265198 -0.0530361 -0.0454902 -0.0500793 -0.0226875 -0.0264383 -0.0504998 -0.0456979 -0.0506658 -0.0226142 -0.0241475 -0.29907 -0.296313 -0.32117 -0.314109 -0.314748 -0.300894 -0.297533 -0.320976 -0.313078 -0.313154 -0.301427 -0.296209 -0.322688 -0.31388 -0.316107 -0.325322 -0.332463 -0.347116 -0.341841 -0.345454 -0.319719 -0.320126 -0.345976 -0.331383 -0.334677 -0.306875 -0.296172 -0.306446 -0.295086 -0.306698 -0.337488 -0.334174 -0.336613 -0.334488 -0.340192 -0.326353 -0.314277 -0.319742 -0.312463 -0.325385 -0.330566 -0.318617 -0.326968 -0.315583 -0.329058 -0.324273 -0.31831 -0.328172 -0.315247 -0.327271 -0.24748 -0.25186 -0.249243 -0.248581 -0.25179 -0.2556 -0.251386 -0.252407 -0.248463 -0.250342 -0.254219 -0.253392 -0.25443 -0.251926 -0.254276 -0.279878 -0.28074 -0.280808 -0.281467 -0.283151 -0.251431 -0.25629 -0.254753 -0.251959 -0.255249 -0.0119333 -0.178819 0.0492494 0.176975 0.168087 0.116882 -0.0208715 -0.0748875 -0.0663342 -0.11796 -0.0915778 -0.154572 -0.0241761 0.00457764 -0.0183163 -0.0231879 -0.0786684 -0.278238 -0.280688 -0.304567 -0.296765 -0.302022 -0.296363 -0.307123 -0.321665 -0.3185 -0.319966 -0.28722 -0.292378 -0.315154 -0.307978 -0.314843 -0.292579 -0.293257 -0.319751 -0.311755 -0.316502 -0.292604 -0.294144 -0.318396 -0.311503 -0.316675 -0.287603 -0.271174 -0.282985 -0.282427 -0.287881 -0.29123 -0.27397 -0.286038 -0.285143 -0.29415 -0.291831 -0.27309 -0.283203 -0.287243 -0.294319 -0.329496 -0.314663 -0.319142 -0.327924 -0.331077 -0.317097 -0.299764 -0.311005 -0.312212 -0.321743 -0.180105 -0.165181 -0.183437 -0.184434 -0.202412 -0.208554 -0.204726 -0.217516 -0.219541 -0.23722 -0.184741 -0.173198 -0.197263 -0.201317 -0.22373 -0.189554 -0.175193 -0.199238 -0.201933 -0.224695 -0.216184 -0.20316 -0.228585 -0.229219 -0.252083 -0.307452 -0.27708 -0.284808 -0.285378 -0.308449 -0.308875 -0.2804 -0.290853 -0.291936 -0.312147 -0.307966 -0.281236 -0.292378 -0.291363 -0.314759 -0.325983 -0.308176 -0.313553 -0.319832 -0.334069 -0.302993 -0.277517 -0.285965 -0.284506 -0.310598 -0.299481 -0.305094 -0.317337 -0.310738 -0.314596 -0.303026 -0.308251 -0.321403 -0.31275 -0.315056 -0.306299 -0.308681 -0.321774 -0.313329 -0.317151 -0.323489 -0.328552 -0.333826 -0.336668 -0.335954 -0.315231 -0.315155 -0.327237 -0.321865 -0.321834 -0.0378296 -0.0328832 -0.0375127 -0.00851234 -0.0103164 -0.0735035 -0.0762666 -0.0769983 -0.0531696 -0.055246 -0.0376535 -0.0341667 -0.0359898 -0.0106015 -0.0147384 -0.0420297 -0.034241 -0.0385299 -0.0107659 -0.0146322 -0.0394199 -0.0342787 -0.0390288 -0.0106303 -0.0122982 -0.287263 -0.28398 -0.309759 -0.300797 -0.301176 -0.288227 -0.287091 -0.309923 -0.299085 -0.300841 -0.288633 -0.285825 -0.310135 -0.300807 -0.302694 -0.313242 -0.320151 -0.334365 -0.32887 -0.331752 -0.307755 -0.306825 -0.33258 -0.317885 -0.320055 -0.295095 -0.284892 -0.293548 -0.282165 -0.293142 -0.324563 -0.321518 -0.3233 -0.320263 -0.325806 -0.313329 -0.301617 -0.306393 -0.298314 -0.311222 -0.31895 -0.305157 -0.314148 -0.301734 -0.31433 -0.313443 -0.30541 -0.314971 -0.301646 -0.312889 -0.236558 -0.240334 -0.237776 -0.235706 -0.238241 -0.244451 -0.240701 -0.240856 -0.235741 -0.236683 -0.243325 -0.241532 -0.241863 -0.237858 -0.239471 -0.267978 -0.268166 -0.267936 -0.266621 -0.268523 -0.239627 -0.243526 -0.24176 -0.237678 -0.240248 -0.197216 0.0482318 0.147765 0.121163 0.170262 -0.0175029 -0.0682863 -0.0555425 -0.102268 -0.0995783 -0.159306 -0.0210096 0.00656941 -0.0149195 -0.021251 -0.0800565 -0.276668 -0.278829 -0.304039 -0.2964 -0.301569 -0.294607 -0.305593 -0.320877 -0.317372 -0.319257 -0.285182 -0.290438 -0.313573 -0.306367 -0.313723 -0.290356 -0.291882 -0.31843 -0.310249 -0.315329 -0.290122 -0.292822 -0.317013 -0.309788 -0.315097 -0.285866 -0.269502 -0.281834 -0.281562 -0.287234 -0.289011 -0.272746 -0.285107 -0.284064 -0.293636 -0.289194 -0.27179 -0.282105 -0.28605 -0.294187 -0.327749 -0.314537 -0.318443 -0.327349 -0.331405 -0.314224 -0.299423 -0.310334 -0.311715 -0.321565 -0.178364 -0.163293 -0.181267 -0.182596 -0.200369 -0.206852 -0.203036 -0.215376 -0.217576 -0.235219 -0.183293 -0.171727 -0.195372 -0.19952 -0.22185 -0.187845 -0.173483 -0.196861 -0.199889 -0.22287 -0.213611 -0.200156 -0.224936 -0.226339 -0.248891 -0.306696 -0.277373 -0.284552 -0.28418 -0.306247 -0.307809 -0.281009 -0.290232 -0.291194 -0.309757 -0.307162 -0.281826 -0.291551 -0.29032 -0.312252 -0.326091 -0.309336 -0.312838 -0.318675 -0.33171 -0.304052 -0.278672 -0.284722 -0.283569 -0.308694 -0.296791 -0.302306 -0.311948 -0.30525 -0.309109 -0.30031 -0.304731 -0.316672 -0.308095 -0.309464 -0.302385 -0.304684 -0.317355 -0.308767 -0.31244 -0.319106 -0.324431 -0.330268 -0.332605 -0.33223 -0.310358 -0.311599 -0.323767 -0.317129 -0.319339 -0.0374236 -0.032242 -0.0369432 -0.00756509 -0.00933806 -0.0735569 -0.0760585 -0.0770431 -0.05279 -0.0544577 -0.0371096 -0.0335108 -0.0354214 -0.00972417 -0.0138104 -0.0415479 -0.033603 -0.0379875 -0.00988986 -0.0137016 -0.0388597 -0.0336084 -0.038483 -0.00973297 -0.0113511 -0.286336 -0.283129 -0.308376 -0.300172 -0.298688 -0.28774 -0.284904 -0.309334 -0.297805 -0.298171 -0.287497 -0.284542 -0.310319 -0.29902 -0.300864 -0.312579 -0.318881 -0.33567 -0.328853 -0.329807 -0.307763 -0.307185 -0.333709 -0.318154 -0.319161 -0.294048 -0.284112 -0.295188 -0.281634 -0.293597 -0.32504 -0.320763 -0.324961 -0.320889 -0.326086 -0.313209 -0.302464 -0.307894 -0.299286 -0.312201 -0.318154 -0.306142 -0.315371 -0.302595 -0.314953 -0.312073 -0.306086 -0.314478 -0.301149 -0.312653 -0.235385 -0.238057 -0.236646 -0.235574 -0.237843 